1.000000000000000000e+00
5.773502691896257311e-01
-5.773502691896257311e-01
5.773502691896257311e-01
4.472135954999579832e-01
-4.472135954999579832e-01
4.472135954999579832e-01
-4.472135954999579832e-01
4.472135954999579832e-01
3.779644730092271976e-01
-3.779644730092271976e-01
3.779644730092271976e-01
-3.779644730092271976e-01
3.779644730092271976e-01
-3.779644730092271976e-01
3.779644730092271976e-01
3.333333333333333148e-01
-3.333333333333333148e-01
3.333333333333333148e-01
-3.333333333333333148e-01
3.333333333333333148e-01
-3.333333333333333148e-01
3.333333333333333148e-01
-3.333333333333333148e-01
3.333333333333333148e-01
3.015113445777636292e-01
-3.015113445777636292e-01
3.015113445777636292e-01
-3.015113445777636292e-01
3.015113445777636292e-01
-3.015113445777636292e-01
3.015113445777636292e-01
-3.015113445777636292e-01
3.015113445777636292e-01
-3.015113445777636292e-01
3.015113445777636292e-01
2.773500981126145737e-01
-2.773500981126145737e-01
2.773500981126145737e-01
-2.773500981126145737e-01
2.773500981126145737e-01
-2.773500981126145737e-01
2.773500981126145737e-01
-2.773500981126145737e-01
2.773500981126145737e-01
-2.773500981126145737e-01
2.773500981126145737e-01
-2.773500981126145737e-01
2.773500981126145737e-01
2.581988897471610978e-01
-2.581988897471610978e-01
2.581988897471610978e-01
-2.581988897471610978e-01
2.581988897471610978e-01
-2.581988897471610978e-01
2.581988897471610978e-01
-2.581988897471610978e-01
2.581988897471610978e-01
-2.581988897471610978e-01
2.581988897471610978e-01
-2.581988897471610978e-01
2.581988897471610978e-01
-2.581988897471610978e-01
2.581988897471610978e-01
2.425356250363329691e-01
-2.425356250363329691e-01
2.425356250363329691e-01
-2.425356250363329691e-01
2.425356250363329691e-01
-2.425356250363329691e-01
2.425356250363329691e-01
-2.425356250363329691e-01
2.425356250363329691e-01
-2.425356250363329691e-01
2.425356250363329691e-01
-2.425356250363329691e-01
2.425356250363329691e-01
-2.425356250363329691e-01
2.425356250363329691e-01
-2.425356250363329691e-01
2.425356250363329691e-01
2.294157338705617444e-01
-2.294157338705617444e-01
2.294157338705617444e-01
-2.294157338705617444e-01
2.294157338705617444e-01
-2.294157338705617444e-01
2.294157338705617444e-01
-2.294157338705617444e-01
2.294157338705617444e-01
-2.294157338705617444e-01
2.294157338705617444e-01
-2.294157338705617444e-01
2.294157338705617444e-01
-2.294157338705617444e-01
2.294157338705617444e-01
-2.294157338705617444e-01
2.294157338705617444e-01
-2.294157338705617444e-01
2.294157338705617444e-01
2.182178902359923622e-01
-2.182178902359923622e-01
2.182178902359923622e-01
-2.182178902359923622e-01
2.182178902359923622e-01
-2.182178902359923622e-01
2.182178902359923622e-01
-2.182178902359923622e-01
2.182178902359923622e-01
-2.182178902359923622e-01
2.182178902359923622e-01
-2.182178902359923622e-01
2.182178902359923622e-01
-2.182178902359923622e-01
2.182178902359923622e-01
-2.182178902359923622e-01
2.182178902359923622e-01
-2.182178902359923622e-01
2.182178902359923622e-01
-2.182178902359923622e-01
2.182178902359923622e-01
5.773502691896257311e-01
-5.773502691896257311e-01
5.773502691896257311e-01
5.773502691896257311e-01
-5.773502691896257311e-01
5.773502691896257311e-01
-4.082482904638630172e-01
4.082482904638630172e-01
4.082482904638630172e-01
0.000000000000000000e+00
-4.082482904638630172e-01
-4.082482904638630172e-01
4.082482904638630172e-01
4.472135954999579832e-01
-3.162277660168379412e-01
1.825741858350553581e-01
-3.162277660168379412e-01
3.651483716701107163e-01
-3.162277660168379412e-01
1.825741858350553581e-01
-3.162277660168379412e-01
4.472135954999579832e-01
1.825741858350553581e-01
-3.162277660168379412e-01
4.472135954999579832e-01
-3.162277660168379412e-01
3.651483716701107163e-01
-3.162277660168379412e-01
4.472135954999579832e-01
-3.162277660168379412e-01
1.825741858350553581e-01
-2.581988897471610978e-01
3.162277660168379412e-01
-3.162277660168379412e-01
2.581988897471610978e-01
3.651483716701107163e-01
-1.825741858350553581e-01
0.000000000000000000e+00
1.825741858350553581e-01
-3.651483716701107163e-01
-2.581988897471610978e-01
3.162277660168379412e-01
-3.162277660168379412e-01
2.581988897471610978e-01
3.779644730092271976e-01
-3.086066999241838249e-01
2.390457218668787243e-01
-1.690308509457033037e-01
9.759000729485332870e-02
-2.182178902359923622e-01
2.760262237369416893e-01
-2.927700218845599167e-01
2.760262237369416893e-01
-2.182178902359923622e-01
9.759000729485332870e-02
-1.690308509457033037e-01
2.390457218668787243e-01
-3.086066999241838249e-01
3.779644730092271976e-01
9.759000729485332870e-02
-1.690308509457033037e-01
2.390457218668787243e-01
-3.086066999241838249e-01
3.779644730092271976e-01
-2.182178902359923622e-01
2.760262237369416893e-01
-2.927700218845599167e-01
2.760262237369416893e-01
-2.182178902359923622e-01
3.779644730092271976e-01
-3.086066999241838249e-01
2.390457218668787243e-01
-1.690308509457033037e-01
9.759000729485332870e-02
-1.889822365046135988e-01
2.439750182371332732e-01
-2.672612419124243965e-01
2.672612419124243965e-01
-2.439750182371332732e-01
1.889822365046135988e-01
3.273268353539885434e-01
-2.182178902359923622e-01
1.091089451179961811e-01
0.000000000000000000e+00
-1.091089451179961811e-01
2.182178902359923622e-01
-3.273268353539885434e-01
-1.889822365046135988e-01
2.439750182371332732e-01
-2.672612419124243965e-01
2.672612419124243965e-01
-2.439750182371332732e-01
1.889822365046135988e-01
3.333333333333333148e-01
-2.886751345948128655e-01
2.439750182371332732e-01
-1.992047682223989369e-01
1.543033499620919125e-01
-1.091089451179961811e-01
6.299407883487119497e-02
-1.666666666666666574e-01
2.182178902359923622e-01
-2.439750182371332732e-01
2.519763153394847799e-01
-2.439750182371332732e-01
2.182178902359923622e-01
-1.666666666666666574e-01
6.299407883487119497e-02
-1.091089451179961811e-01
1.543033499620919125e-01
-1.992047682223989369e-01
2.439750182371332732e-01
-2.886751345948128655e-01
3.333333333333333148e-01
6.299407883487119497e-02
-1.091089451179961811e-01
1.543033499620919125e-01
-1.992047682223989369e-01
2.439750182371332732e-01
-2.886751345948128655e-01
3.333333333333333148e-01
-1.666666666666666574e-01
2.182178902359923622e-01
-2.439750182371332732e-01
2.519763153394847799e-01
-2.439750182371332732e-01
2.182178902359923622e-01
-1.666666666666666574e-01
3.333333333333333148e-01
-2.886751345948128655e-01
2.439750182371332732e-01
-1.992047682223989369e-01
1.543033499620919125e-01
-1.091089451179961811e-01
6.299407883487119497e-02
-1.490711984999859852e-01
1.972026594366538543e-01
-2.236067977499789916e-01
2.357022603955158391e-01
-2.357022603955158391e-01
2.236067977499789916e-01
-1.972026594366538543e-01
1.490711984999859852e-01
2.981423969999719703e-01
-2.236067977499789916e-01
1.490711984999859852e-01
-7.453559924999299258e-02
0.000000000000000000e+00
7.453559924999299258e-02
-1.490711984999859852e-01
2.236067977499789916e-01
-2.981423969999719703e-01
-1.490711984999859852e-01
1.972026594366538543e-01
-2.236067977499789916e-01
2.357022603955158391e-01
-2.357022603955158391e-01
2.236067977499789916e-01
-1.972026594366538543e-01
1.490711984999859852e-01
3.015113445777636292e-01
-2.696799449852967934e-01
2.378353560042252568e-01
-2.059714602177749043e-01
1.740776559556978520e-01
-1.421338109037403041e-01
1.100963765126360544e-01
-7.784989441615229600e-02
4.494665749754947481e-02
-1.348399724926483967e-01
1.797866299901978993e-01
-2.059714602177749043e-01
2.201927530252721088e-01
-2.247332874877473741e-01
2.201927530252721088e-01
-2.059714602177749043e-01
1.797866299901978993e-01
-1.348399724926483967e-01
4.494665749754947481e-02
-7.784989441615229600e-02
1.100963765126360544e-01
-1.421338109037403041e-01
1.740776559556978520e-01
-2.059714602177749043e-01
2.378353560042252568e-01
-2.696799449852967934e-01
3.015113445777636292e-01
4.494665749754947481e-02
-7.784989441615229600e-02
1.100963765126360544e-01
-1.421338109037403041e-01
1.740776559556978520e-01
-2.059714602177749043e-01
2.378353560042252568e-01
-2.696799449852967934e-01
3.015113445777636292e-01
-1.348399724926483967e-01
1.797866299901978993e-01
-2.059714602177749043e-01
2.201927530252721088e-01
-2.247332874877473741e-01
2.201927530252721088e-01
-2.059714602177749043e-01
1.797866299901978993e-01
-1.348399724926483967e-01
3.015113445777636292e-01
-2.696799449852967934e-01
2.378353560042252568e-01
-2.059714602177749043e-01
1.740776559556978520e-01
-1.421338109037403041e-01
1.100963765126360544e-01
-7.784989441615229600e-02
4.494665749754947481e-02
-1.230914909793327378e-01
1.651445647689540885e-01
-1.906925178491184480e-01
2.059714602177749043e-01
-2.132007163556104423e-01
2.132007163556104423e-01
-2.059714602177749043e-01
1.906925178491184480e-01
-1.651445647689540885e-01
1.230914909793327378e-01
2.752409412815901568e-01
-2.201927530252721088e-01
1.651445647689540885e-01
-1.100963765126360544e-01
5.504818825631802720e-02
0.000000000000000000e+00
-5.504818825631802720e-02
1.100963765126360544e-01
-1.651445647689540885e-01
2.201927530252721088e-01
-2.752409412815901568e-01
-1.230914909793327378e-01
1.651445647689540885e-01
-1.906925178491184480e-01
2.059714602177749043e-01
-2.132007163556104423e-01
2.132007163556104423e-01
-2.059714602177749043e-01
1.906925178491184480e-01
-1.651445647689540885e-01
1.230914909793327378e-01
2.773500981126145737e-01
-2.531848417709166577e-01
2.290143062071722246e-01
-2.048366225996756662e-01
1.806489209323782208e-01
-1.564465546936859575e-01
1.322214713369862793e-01
-1.079583792718826207e-01
8.362420100070908080e-02
-5.913123959890825843e-02
3.413943709994594206e-02
-1.132277034144595768e-01
1.526762041381148349e-01
-1.773937187967248030e-01
1.931218198341070336e-01
-2.019716336333911844e-01
2.048366225996756662e-01
-2.019716336333911844e-01
1.931218198341070336e-01
-1.773937187967248030e-01
1.526762041381148349e-01
-1.132277034144595768e-01
3.413943709994594206e-02
-5.913123959890825843e-02
8.362420100070908080e-02
-1.079583792718826207e-01
1.322214713369862793e-01
-1.564465546936859575e-01
1.806489209323782208e-01
-2.048366225996756662e-01
2.290143062071722246e-01
-2.531848417709166577e-01
2.773500981126145737e-01
3.413943709994594206e-02
-5.913123959890825843e-02
8.362420100070908080e-02
-1.079583792718826207e-01
1.322214713369862793e-01
-1.564465546936859575e-01
1.806489209323782208e-01
-2.048366225996756662e-01
2.290143062071722246e-01
-2.531848417709166577e-01
2.773500981126145737e-01
-1.132277034144595768e-01
1.526762041381148349e-01
-1.773937187967248030e-01
1.931218198341070336e-01
-2.019716336333911844e-01
2.048366225996756662e-01
-2.019716336333911844e-01
1.931218198341070336e-01
-1.773937187967248030e-01
1.526762041381148349e-01
-1.132277034144595768e-01
2.773500981126145737e-01
-2.531848417709166577e-01
2.290143062071722246e-01
-2.048366225996756662e-01
1.806489209323782208e-01
-1.564465546936859575e-01
1.322214713369862793e-01
-1.079583792718826207e-01
8.362420100070908080e-02
-5.913123959890825843e-02
3.413943709994594206e-02
-1.048284836721918439e-01
1.419384378754400267e-01
-1.657483860329489744e-01
1.815682598006407300e-01
-1.913897505877381888e-01
1.961161351381840445e-01
-1.961161351381840445e-01
1.913897505877381888e-01
-1.815682598006407300e-01
1.657483860329489744e-01
-1.419384378754400267e-01
1.048284836721918439e-01
2.567762955065477914e-01
-2.139802462554564744e-01
1.711841970043651573e-01
-1.283881477532738957e-01
8.559209850218257865e-02
-4.279604925109128932e-02
0.000000000000000000e+00
4.279604925109128932e-02
-8.559209850218257865e-02
1.283881477532738957e-01
-1.711841970043651573e-01
2.139802462554564744e-01
-2.567762955065477914e-01
-1.048284836721918439e-01
1.419384378754400267e-01
-1.657483860329489744e-01
1.815682598006407300e-01
-1.913897505877381888e-01
1.961161351381840445e-01
-1.961161351381840445e-01
1.913897505877381888e-01
-1.815682598006407300e-01
1.657483860329489744e-01
-1.419384378754400267e-01
1.048284836721918439e-01
2.581988897471610978e-01
-2.390457218668787243e-01
2.198900824313101132e-01
-2.007312638654982773e-01
1.815682598006407300e-01
-1.623995885882300316e-01
1.432229748078865661e-01
-1.240347345892084674e-01
1.048284836721918439e-01
-8.559209850218257865e-02
6.629935441317959255e-02
-4.688072309384954534e-02
2.706659809803833860e-02
-9.759000729485332870e-02
1.325987088263591851e-01
-1.554857684028482789e-01
1.711841970043651573e-01
-1.815682598006407300e-01
1.875228923753981813e-01
-1.894661866862683564e-01
1.875228923753981813e-01
-1.815682598006407300e-01
1.711841970043651573e-01
-1.554857684028482789e-01
1.325987088263591851e-01
-9.759000729485332870e-02
2.706659809803833860e-02
-4.688072309384954534e-02
6.629935441317959255e-02
-8.559209850218257865e-02
1.048284836721918439e-01
-1.240347345892084674e-01
1.432229748078865661e-01
-1.623995885882300316e-01
1.815682598006407300e-01
-2.007312638654982773e-01
2.198900824313101132e-01
-2.390457218668787243e-01
2.581988897471610978e-01
2.706659809803833860e-02
-4.688072309384954534e-02
6.629935441317959255e-02
-8.559209850218257865e-02
1.048284836721918439e-01
-1.240347345892084674e-01
1.432229748078865661e-01
-1.623995885882300316e-01
1.815682598006407300e-01
-2.007312638654982773e-01
2.198900824313101132e-01
-2.390457218668787243e-01
2.581988897471610978e-01
-9.759000729485332870e-02
1.325987088263591851e-01
-1.554857684028482789e-01
1.711841970043651573e-01
-1.815682598006407300e-01
1.875228923753981813e-01
-1.894661866862683564e-01
1.875228923753981813e-01
-1.815682598006407300e-01
1.711841970043651573e-01
-1.554857684028482789e-01
1.325987088263591851e-01
-9.759000729485332870e-02
2.581988897471610978e-01
-2.390457218668787243e-01
2.198900824313101132e-01
-2.007312638654982773e-01
1.815682598006407300e-01
-1.623995885882300316e-01
1.432229748078865661e-01
-1.240347345892084674e-01
1.048284836721918439e-01
-8.559209850218257865e-02
6.629935441317959255e-02
-4.688072309384954534e-02
2.706659809803833860e-02
-9.128709291752767907e-02
1.244033378820298269e-01
-1.463850109422799584e-01
1.618347187425374367e-01
-1.725163898355885350e-01
1.792842914001590571e-01
-1.825741858350553581e-01
1.825741858350553581e-01
-1.792842914001590571e-01
1.725163898355885350e-01
-1.618347187425374367e-01
1.463850109422799584e-01
-1.244033378820298269e-01
9.128709291752767907e-02
2.415229457698239712e-01
-2.070196678027062531e-01
1.725163898355885350e-01
-1.380131118684708447e-01
1.035098339013531266e-01
-6.900655593423542233e-02
3.450327796711771117e-02
0.000000000000000000e+00
-3.450327796711771117e-02
6.900655593423542233e-02
-1.035098339013531266e-01
1.380131118684708447e-01
-1.725163898355885350e-01
2.070196678027062531e-01
-2.415229457698239712e-01
-9.128709291752767907e-02
1.244033378820298269e-01
-1.463850109422799584e-01
1.618347187425374367e-01
-1.725163898355885350e-01
1.792842914001590571e-01
-1.825741858350553581e-01
1.825741858350553581e-01
-1.792842914001590571e-01
1.725163898355885350e-01
-1.618347187425374367e-01
1.463850109422799584e-01
-1.244033378820298269e-01
9.128709291752767907e-02
2.425356250363329691e-01
-2.268713032432575216e-01
2.112056891687695559e-01
-1.955384722187607227e-01
1.798692335461253566e-01
-1.641973943572963279e-01
1.485221314465011433e-01
-1.328422328310142897e-01
1.171558372258012237e-01
-1.014599312391784719e-01
8.574929257125442350e-02
-7.001400420140048431e-02
5.423261445466404096e-02
-3.834824944236851774e-02
2.214037213850238162e-02
-8.574929257125442350e-02
1.171558372258012237e-01
-1.382665796887430354e-01
1.533929977694740709e-01
-1.641973943572963279e-01
1.714985851425088470e-01
-1.757337558387018217e-01
1.771229771080190529e-01
-1.757337558387018217e-01
1.714985851425088470e-01
-1.641973943572963279e-01
1.533929977694740709e-01
-1.382665796887430354e-01
1.171558372258012237e-01
-8.574929257125442350e-02
2.214037213850238162e-02
-3.834824944236851774e-02
5.423261445466404096e-02
-7.001400420140048431e-02
8.574929257125442350e-02
-1.014599312391784719e-01
1.171558372258012237e-01
-1.328422328310142897e-01
1.485221314465011433e-01
-1.641973943572963279e-01
1.798692335461253566e-01
-1.955384722187607227e-01
2.112056891687695559e-01
-2.268713032432575216e-01
2.425356250363329691e-01
2.214037213850238162e-02
-3.834824944236851774e-02
5.423261445466404096e-02
-7.001400420140048431e-02
8.574929257125442350e-02
-1.014599312391784719e-01
1.171558372258012237e-01
-1.328422328310142897e-01
1.485221314465011433e-01
-1.641973943572963279e-01
1.798692335461253566e-01
-1.955384722187607227e-01
2.112056891687695559e-01
-2.268713032432575216e-01
2.425356250363329691e-01
-8.574929257125442350e-02
1.171558372258012237e-01
-1.382665796887430354e-01
1.533929977694740709e-01
-1.641973943572963279e-01
1.714985851425088470e-01
-1.757337558387018217e-01
1.771229771080190529e-01
-1.757337558387018217e-01
1.714985851425088470e-01
-1.641973943572963279e-01
1.533929977694740709e-01
-1.382665796887430354e-01
1.171558372258012237e-01
-8.574929257125442350e-02
2.425356250363329691e-01
-2.268713032432575216e-01
2.112056891687695559e-01
-1.955384722187607227e-01
1.798692335461253566e-01
-1.641973943572963279e-01
1.485221314465011433e-01
-1.328422328310142897e-01
1.171558372258012237e-01
-1.014599312391784719e-01
8.574929257125442350e-02
-7.001400420140048431e-02
5.423261445466404096e-02
-3.834824944236851774e-02
2.214037213850238162e-02
-8.084520834544432766e-02
1.107018606925119081e-01
-1.309842079988959573e-01
1.457457720325343598e-01
-1.565560727712873579e-01
1.641973943572963279e-01
-1.690998853986307726e-01
1.714985851425088470e-01
-1.714985851425088470e-01
1.690998853986307726e-01
-1.641973943572963279e-01
1.565560727712873579e-01
-1.457457720325343598e-01
1.309842079988959573e-01
-1.107018606925119081e-01
8.084520834544432766e-02
2.286647801900117682e-01
-2.000816826662603354e-01
1.714985851425088470e-01
-1.429154876187573586e-01
1.143323900950058841e-01
-8.574929257125442350e-02
5.716619504750294206e-02
-2.858309752375147103e-02
0.000000000000000000e+00
2.858309752375147103e-02
-5.716619504750294206e-02
8.574929257125442350e-02
-1.143323900950058841e-01
1.429154876187573586e-01
-1.714985851425088470e-01
2.000816826662603354e-01
-2.286647801900117682e-01
-8.084520834544432766e-02
1.107018606925119081e-01
-1.309842079988959573e-01
1.457457720325343598e-01
-1.565560727712873579e-01
1.641973943572963279e-01
-1.690998853986307726e-01
1.714985851425088470e-01
-1.714985851425088470e-01
1.690998853986307726e-01
-1.641973943572963279e-01
1.565560727712873579e-01
-1.457457720325343598e-01
1.309842079988959573e-01
-1.107018606925119081e-01
8.084520834544432766e-02
2.294157338705617444e-01
-2.162952281743500405e-01
2.031739888928744964e-01
-1.900518640853376406e-01
1.769286567235602847e-01
-1.638041066204301011e-01
1.506778629044527029e-01
-1.375494407157327181e-01
1.244181504483598821e-01
-1.112829768149314474e-01
9.814236060242509385e-02
-8.499377746907317566e-02
7.183285265343591908e-02
-5.865127858981556558e-02
4.543108504242546197e-02
-3.212462831016177356e-02
1.854716280248857457e-02
-7.647191129018725275e-02
1.049185967152844873e-01
-1.244181504483598821e-01
1.387942574072604796e-01
-1.495320070133181467e-01
1.573778950729267656e-01
-1.627506930790010853e-01
1.658908672644798243e-01
-1.669244652223971503e-01
1.658908672644798243e-01
-1.627506930790010853e-01
1.573778950729267656e-01
-1.495320070133181467e-01
1.387942574072604796e-01
-1.244181504483598821e-01
1.049185967152844873e-01
-7.647191129018725275e-02
1.854716280248857457e-02
-3.212462831016177356e-02
4.543108504242546197e-02
-5.865127858981556558e-02
7.183285265343591908e-02
-8.499377746907317566e-02
9.814236060242509385e-02
-1.112829768149314474e-01
1.244181504483598821e-01
-1.375494407157327181e-01
1.506778629044527029e-01
-1.638041066204301011e-01
1.769286567235602847e-01
-1.900518640853376406e-01
2.031739888928744964e-01
-2.162952281743500405e-01
2.294157338705617444e-01
1.854716280248857457e-02
-3.212462831016177356e-02
4.543108504242546197e-02
-5.865127858981556558e-02
7.183285265343591908e-02
-8.499377746907317566e-02
9.814236060242509385e-02
-1.112829768149314474e-01
1.244181504483598821e-01
-1.375494407157327181e-01
1.506778629044527029e-01
-1.638041066204301011e-01
1.769286567235602847e-01
-1.900518640853376406e-01
2.031739888928744964e-01
-2.162952281743500405e-01
2.294157338705617444e-01
-7.647191129018725275e-02
1.049185967152844873e-01
-1.244181504483598821e-01
1.387942574072604796e-01
-1.495320070133181467e-01
1.573778950729267656e-01
-1.627506930790010853e-01
1.658908672644798243e-01
-1.669244652223971503e-01
1.658908672644798243e-01
-1.627506930790010853e-01
1.573778950729267656e-01
-1.495320070133181467e-01
1.387942574072604796e-01
-1.244181504483598821e-01
1.049185967152844873e-01
-7.647191129018725275e-02
2.294157338705617444e-01
-2.162952281743500405e-01
2.031739888928744964e-01
-1.900518640853376406e-01
1.769286567235602847e-01
-1.638041066204301011e-01
1.506778629044527029e-01
-1.375494407157327181e-01
1.244181504483598821e-01
-1.112829768149314474e-01
9.814236060242509385e-02
-8.499377746907317566e-02
7.183285265343591908e-02
-5.865127858981556558e-02
4.543108504242546197e-02
-3.212462831016177356e-02
1.854716280248857457e-02
-7.254762501100116279e-02
9.970717360268646634e-02
-1.184697755518184792e-01
1.324532357065043853e-01
-1.430658458798253485e-01
1.510199243274199521e-01
-1.567207819938757629e-01
1.604088343952626006e-01
-1.622214211307625165e-01
1.622214211307625165e-01
-1.604088343952626006e-01
1.567207819938757629e-01
-1.510199243274199521e-01
1.430658458798253485e-01
-1.324532357065043853e-01
1.184697755518184792e-01
-9.970717360268646634e-02
7.254762501100116279e-02
2.176428750330035022e-01
-1.934603333626697952e-01
1.692777916923360604e-01
-1.450952500220023256e-01
1.209127083516686046e-01
-9.673016668133489759e-02
7.254762501100116279e-02
-4.836508334066744880e-02
2.418254167033372440e-02
0.000000000000000000e+00
-2.418254167033372440e-02
4.836508334066744880e-02
-7.254762501100116279e-02
9.673016668133489759e-02
-1.209127083516686046e-01
1.450952500220023256e-01
-1.692777916923360604e-01
1.934603333626697952e-01
-2.176428750330035022e-01
-7.254762501100116279e-02
9.970717360268646634e-02
-1.184697755518184792e-01
1.324532357065043853e-01
-1.430658458798253485e-01
1.510199243274199521e-01
-1.567207819938757629e-01
1.604088343952626006e-01
-1.622214211307625165e-01
1.622214211307625165e-01
-1.604088343952626006e-01
1.567207819938757629e-01
-1.510199243274199521e-01
1.430658458798253485e-01
-1.324532357065043853e-01
1.184697755518184792e-01
-9.970717360268646634e-02
7.254762501100116279e-02
2.182178902359923622e-01
-2.070196678027062531e-01
1.958210015847486607e-01
-1.846218108257565993e-01
1.734219939048239900e-01
-1.622214211307625165e-01
1.510199243274199521e-01
-1.398172814084551185e-01
1.286131928826069193e-01
-1.174072448909444649e-01
1.061988488107182965e-01
-9.498713802919553362e-02
8.377078165833910794e-02
-7.254762501100116279e-02
6.131393394849657397e-02
-5.006261743217588212e-02
3.877833671647407110e-02
-2.742042485535409191e-02
1.583118967153258894e-02
-6.900655593423542233e-02
9.498713802919553362e-02
-1.130573079779367829e-01
1.266495173722607115e-01
-1.371021242767704318e-01
1.450952500220023256e-01
-1.510199243274199521e-01
1.551133468658962844e-01
-1.575183483762700454e-01
1.583118967153258616e-01
-1.575183483762700454e-01
1.551133468658962844e-01
-1.510199243274199521e-01
1.450952500220023256e-01
-1.371021242767704318e-01
1.266495173722607115e-01
-1.130573079779367829e-01
9.498713802919553362e-02
-6.900655593423542233e-02
1.583118967153258894e-02
-2.742042485535409191e-02
3.877833671647407110e-02
-5.006261743217588212e-02
6.131393394849657397e-02
-7.254762501100116279e-02
8.377078165833910794e-02
-9.498713802919553362e-02
1.061988488107182965e-01
-1.174072448909444649e-01
1.286131928826069193e-01
-1.398172814084551185e-01
1.510199243274199521e-01
-1.622214211307625165e-01
1.734219939048239900e-01
-1.846218108257565993e-01
1.958210015847486607e-01
-2.070196678027062531e-01
2.182178902359923622e-01
1.583118967153258894e-02
-2.742042485535409191e-02
3.877833671647407110e-02
-5.006261743217588212e-02
6.131393394849657397e-02
-7.254762501100116279e-02
8.377078165833910794e-02
-9.498713802919553362e-02
1.061988488107182965e-01
-1.174072448909444649e-01
1.286131928826069193e-01
-1.398172814084551185e-01
1.510199243274199521e-01
-1.622214211307625165e-01
1.734219939048239900e-01
-1.846218108257565993e-01
1.958210015847486607e-01
-2.070196678027062531e-01
2.182178902359923622e-01
-6.900655593423542233e-02
9.498713802919553362e-02
-1.130573079779367829e-01
1.266495173722607115e-01
-1.371021242767704318e-01
1.450952500220023256e-01
-1.510199243274199521e-01
1.551133468658962844e-01
-1.575183483762700454e-01
1.583118967153258616e-01
-1.575183483762700454e-01
1.551133468658962844e-01
-1.510199243274199521e-01
1.450952500220023256e-01
-1.371021242767704318e-01
1.266495173722607115e-01
-1.130573079779367829e-01
9.498713802919553362e-02
-6.900655593423542233e-02
2.182178902359923622e-01
-2.070196678027062531e-01
1.958210015847486607e-01
-1.846218108257565993e-01
1.734219939048239900e-01
-1.622214211307625165e-01
1.510199243274199521e-01
-1.398172814084551185e-01
1.286131928826069193e-01
-1.174072448909444649e-01
1.061988488107182965e-01
-9.498713802919553362e-02
8.377078165833910794e-02
-7.254762501100116279e-02
6.131393394849657397e-02
-5.006261743217588212e-02
3.877833671647407110e-02
-2.742042485535409191e-02
1.583118967153258894e-02
-6.579516949597689901e-02
9.069238239845850424e-02
-1.081124955234670781e-01
1.213202980486559751e-01
-1.315903389919537980e-01
1.395726315597706491e-01
-1.456438162508838230e-01
1.500360706990905846e-01
-1.528941574312876750e-01
1.543033499620919125e-01
-1.543033499620919125e-01
1.528941574312876750e-01
-1.500360706990905846e-01
1.456438162508838230e-01
-1.395726315597706491e-01
1.315903389919537980e-01
-1.213202980486559751e-01
1.081124955234670781e-01
-9.069238239845850424e-02
6.579516949597689901e-02
2.080625946441197471e-01
-1.872563351797077724e-01
1.664500757152957977e-01
-1.456438162508838230e-01
1.248375567864718483e-01
-1.040312973220598736e-01
8.322503785764789885e-02
-6.241877839323592414e-02
4.161251892882394943e-02
-2.080625946441197471e-02
0.000000000000000000e+00
2.080625946441197471e-02
-4.161251892882394943e-02
6.241877839323592414e-02
-8.322503785764789885e-02
1.040312973220598736e-01
-1.248375567864718483e-01
1.456438162508838230e-01
-1.664500757152957977e-01
1.872563351797077724e-01
-2.080625946441197471e-01
-6.579516949597689901e-02
9.069238239845850424e-02
-1.081124955234670781e-01
1.213202980486559751e-01
-1.315903389919537980e-01
1.395726315597706491e-01
-1.456438162508838230e-01
1.500360706990905846e-01
-1.528941574312876750e-01
1.543033499620919125e-01
-1.543033499620919125e-01
1.528941574312876750e-01
-1.500360706990905846e-01
1.456438162508838230e-01
-1.395726315597706491e-01
1.315903389919537980e-01
-1.213202980486559751e-01
1.081124955234670781e-01
-9.069238239845850424e-02
6.579516949597689901e-02
4.472135954999579832e-01
-4.472135954999579832e-01
4.472135954999579832e-01
-4.472135954999579832e-01
4.472135954999579832e-01
4.472135954999579832e-01
-3.162277660168379412e-01
-3.162277660168379412e-01
1.825741858350553581e-01
3.651483716701107163e-01
1.825741858350553581e-01
-3.162277660168379412e-01
-3.162277660168379412e-01
4.472135954999579832e-01
-3.651483716701107163e-01
2.581988897471610978e-01
2.581988897471610978e-01
1.825741858350553581e-01
-3.162277660168379412e-01
-3.162277660168379412e-01
0.000000000000000000e+00
3.162277660168379412e-01
3.162277660168379412e-01
-1.825741858350553581e-01
-2.581988897471610978e-01
-2.581988897471610978e-01
3.651483716701107163e-01
3.779644730092271976e-01
-2.182178902359923622e-01
9.759000729485332870e-02
-3.086066999241838249e-01
2.760262237369416893e-01
-1.690308509457033037e-01
2.390457218668787243e-01
-2.927700218845599167e-01
2.390457218668787243e-01
-1.690308509457033037e-01
2.760262237369416893e-01
-3.086066999241838249e-01
9.759000729485332870e-02
-2.182178902359923622e-01
3.779644730092271976e-01
4.472135954999579832e-01
-4.472135954999579832e-01
4.472135954999579832e-01
-4.472135954999579832e-01
4.472135954999579832e-01
-2.581988897471610978e-01
3.651483716701107163e-01
3.162277660168379412e-01
-1.825741858350553581e-01
-2.581988897471610978e-01
-3.162277660168379412e-01
0.000000000000000000e+00
3.162277660168379412e-01
2.581988897471610978e-01
1.825741858350553581e-01
-3.162277660168379412e-01
-3.651483716701107163e-01
2.581988897471610978e-01
2.390457218668787243e-01
-2.927700218845599167e-01
2.390457218668787243e-01
-2.927700218845599167e-01
1.195228609334393621e-01
1.195228609334393621e-01
-2.927700218845599167e-01
2.390457218668787243e-01
1.195228609334393621e-01
-2.390457218668787243e-01
1.195228609334393621e-01
2.390457218668787243e-01
-2.927700218845599167e-01
1.195228609334393621e-01
1.195228609334393621e-01
-2.927700218845599167e-01
2.390457218668787243e-01
-2.927700218845599167e-01
2.390457218668787243e-01
-2.672612419124243965e-01
2.672612419124243965e-01
-2.070196678027062531e-01
1.195228609334393621e-01
2.672612419124243965e-01
0.000000000000000000e+00
-1.690308509457033037e-01
2.390457218668787243e-01
-2.070196678027062531e-01
-2.672612419124243965e-01
1.690308509457033037e-01
0.000000000000000000e+00
-1.690308509457033037e-01
2.672612419124243965e-01
2.070196678027062531e-01
-2.390457218668787243e-01
1.690308509457033037e-01
0.000000000000000000e+00
-2.672612419124243965e-01
-1.195228609334393621e-01
2.070196678027062531e-01
-2.672612419124243965e-01
2.672612419124243965e-01
3.333333333333333148e-01
-2.357022603955158391e-01
1.543033499620919125e-01
-8.908708063747479422e-02
3.984095364447979432e-02
-2.357022603955158391e-01
2.519763153394847799e-01
-2.182178902359923622e-01
1.593638145779191773e-01
-8.908708063747479422e-02
1.543033499620919125e-01
-2.182178902359923622e-01
2.390457218668787243e-01
-2.182178902359923622e-01
1.543033499620919125e-01
-8.908708063747479422e-02
1.593638145779191773e-01
-2.182178902359923622e-01
2.519763153394847799e-01
-2.357022603955158391e-01
3.984095364447979432e-02
-8.908708063747479422e-02
1.543033499620919125e-01
-2.357022603955158391e-01
3.333333333333333148e-01
9.759000729485332870e-02
-2.182178902359923622e-01
3.779644730092271976e-01
-1.690308509457033037e-01
2.760262237369416893e-01
-3.086066999241838249e-01
2.390457218668787243e-01
-2.927700218845599167e-01
2.390457218668787243e-01
-3.086066999241838249e-01
2.760262237369416893e-01
-1.690308509457033037e-01
3.779644730092271976e-01
-2.182178902359923622e-01
9.759000729485332870e-02
-1.195228609334393621e-01
2.070196678027062531e-01
-2.672612419124243965e-01
2.672612419124243965e-01
2.070196678027062531e-01
-2.390457218668787243e-01
1.690308509457033037e-01
0.000000000000000000e+00
-2.672612419124243965e-01
-2.672612419124243965e-01
1.690308509457033037e-01
0.000000000000000000e+00
-1.690308509457033037e-01
2.672612419124243965e-01
2.672612419124243965e-01
0.000000000000000000e+00
-1.690308509457033037e-01
2.390457218668787243e-01
-2.070196678027062531e-01
-2.672612419124243965e-01
2.672612419124243965e-01
-2.070196678027062531e-01
1.195228609334393621e-01
1.543033499620919125e-01
-2.182178902359923622e-01
2.390457218668787243e-01
-2.182178902359923622e-01
1.543033499620919125e-01
-2.439750182371332732e-01
1.889822365046135988e-01
-6.900655593423542233e-02
-6.900655593423542233e-02
1.889822365046135988e-01
-2.439750182371332732e-01
2.439750182371332732e-01
0.000000000000000000e+00
-1.463850109422799584e-01
1.951800145897066574e-01
-1.463850109422799584e-01
0.000000000000000000e+00
2.439750182371332732e-01
-2.439750182371332732e-01
1.889822365046135988e-01
-6.900655593423542233e-02
-6.900655593423542233e-02
1.889822365046135988e-01
-2.439750182371332732e-01
1.543033499620919125e-01
-2.182178902359923622e-01
2.390457218668787243e-01
-2.182178902359923622e-01
1.543033499620919125e-01
-2.108185106778919515e-01
2.357022603955158391e-01
-2.182178902359923622e-01
1.781741612749495884e-01
-1.259881576697423899e-01
6.900655593423542233e-02
2.581988897471610978e-01
-7.453559924999299258e-02
-6.299407883487119497e-02
1.543033499620919125e-01
-1.992047682223989369e-01
1.972026594366538543e-01
-1.463850109422799584e-01
-2.236067977499789916e-01
1.951800145897066574e-01
-1.091089451179961811e-01
0.000000000000000000e+00
1.091089451179961811e-01
-1.951800145897066574e-01
2.236067977499789916e-01
1.463850109422799584e-01
-1.972026594366538543e-01
1.992047682223989369e-01
-1.543033499620919125e-01
6.299407883487119497e-02
7.453559924999299258e-02
-2.581988897471610978e-01
-6.900655593423542233e-02
1.259881576697423899e-01
-1.781741612749495884e-01
2.182178902359923622e-01
-2.357022603955158391e-01
2.108185106778919515e-01
3.015113445777636292e-01
-2.335496832484568741e-01
1.740776559556978520e-01
-1.230914909793327378e-01
8.058229640253802839e-02
-4.652421051992354506e-02
2.080625946441197471e-02
-1.906925178491184480e-01
2.201927530252721088e-01
-2.132007163556104423e-01
1.860968420796941802e-01
-1.471224715841249198e-01
1.019294382875251120e-01
-5.504818825631802720e-02
1.100963765126360544e-01
-1.651445647689540885e-01
1.973855084879307109e-01
-2.080625946441197471e-01
1.973855084879307109e-01
-1.651445647689540885e-01
1.100963765126360544e-01
-5.504818825631802720e-02
1.019294382875251120e-01
-1.471224715841249198e-01
1.860968420796941802e-01
-2.132007163556104423e-01
2.201927530252721088e-01
-1.906925178491184480e-01
2.080625946441197471e-02
-4.652421051992354506e-02
8.058229640253802839e-02
-1.230914909793327378e-01
1.740776559556978520e-01
-2.335496832484568741e-01
3.015113445777636292e-01
3.984095364447979432e-02
-8.908708063747479422e-02
1.543033499620919125e-01
-2.357022603955158391e-01
3.333333333333333148e-01
-8.908708063747479422e-02
1.593638145779191773e-01
-2.182178902359923622e-01
2.519763153394847799e-01
-2.357022603955158391e-01
1.543033499620919125e-01
-2.182178902359923622e-01
2.390457218668787243e-01
-2.182178902359923622e-01
1.543033499620919125e-01
-2.357022603955158391e-01
2.519763153394847799e-01
-2.182178902359923622e-01
1.593638145779191773e-01
-8.908708063747479422e-02
3.333333333333333148e-01
-2.357022603955158391e-01
1.543033499620919125e-01
-8.908708063747479422e-02
3.984095364447979432e-02
-6.900655593423542233e-02
1.259881576697423899e-01
-1.781741612749495884e-01
2.182178902359923622e-01
-2.357022603955158391e-01
2.108185106778919515e-01
1.463850109422799584e-01
-1.972026594366538543e-01
1.992047682223989369e-01
-1.543033499620919125e-01
6.299407883487119497e-02
7.453559924999299258e-02
-2.581988897471610978e-01
-2.236067977499789916e-01
1.951800145897066574e-01
-1.091089451179961811e-01
0.000000000000000000e+00
1.091089451179961811e-01
-1.951800145897066574e-01
2.236067977499789916e-01
2.581988897471610978e-01
-7.453559924999299258e-02
-6.299407883487119497e-02
1.543033499620919125e-01
-1.992047682223989369e-01
1.972026594366538543e-01
-1.463850109422799584e-01
-2.108185106778919515e-01
2.357022603955158391e-01
-2.182178902359923622e-01
1.781741612749495884e-01
-1.259881576697423899e-01
6.900655593423542233e-02
1.100963765126360544e-01
-1.651445647689540885e-01
1.973855084879307109e-01
-2.080625946441197471e-01
1.973855084879307109e-01
-1.651445647689540885e-01
1.100963765126360544e-01
-2.059714602177749043e-01
1.946247360403807469e-01
-1.324102244257124306e-01
4.652421051992354506e-02
4.652421051992354506e-02
-1.324102244257124306e-01
1.946247360403807469e-01
-2.059714602177749043e-01
2.378353560042252568e-01
-5.945883900105631420e-02
-6.795295885835006544e-02
1.444000375739939168e-01
-1.698823971458751914e-01
1.444000375739939168e-01
-6.795295885835006544e-02
-5.945883900105631420e-02
2.378353560042252568e-01
-2.059714602177749043e-01
1.946247360403807469e-01
-1.324102244257124306e-01
4.652421051992354506e-02
4.652421051992354506e-02
-1.324102244257124306e-01
1.946247360403807469e-01
-2.059714602177749043e-01
1.100963765126360544e-01
-1.651445647689540885e-01
1.973855084879307109e-01
-2.080625946441197471e-01
1.973855084879307109e-01
-1.651445647689540885e-01
1.100963765126360544e-01
-1.740776559556978520e-01
2.059714602177749043e-01
-2.059714602177749043e-01
1.880253582725887329e-01
-1.589104315409320678e-01
1.230914909793327378e-01
-8.408749651825217497e-02
4.494665749754947481e-02
2.461829819586654755e-01
-1.100963765126360544e-01
0.000000000000000000e+00
8.408749651825217497e-02
-1.421338109037403041e-01
1.740776559556978520e-01
-1.797866299901978993e-01
1.589104315409320678e-01
-1.100963765126360544e-01
-1.906925178491184480e-01
1.906925178491184480e-01
-1.456438162508838230e-01
7.784989441615229600e-02
0.000000000000000000e+00
-7.784989441615229600e-02
1.456438162508838230e-01
-1.906925178491184480e-01
1.906925178491184480e-01
1.100963765126360544e-01
-1.589104315409320678e-01
1.797866299901978993e-01
-1.740776559556978520e-01
1.421338109037403041e-01
-8.408749651825217497e-02
0.000000000000000000e+00
1.100963765126360544e-01
-2.461829819586654755e-01
-4.494665749754947481e-02
8.408749651825217497e-02
-1.230914909793327378e-01
1.589104315409320678e-01
-1.880253582725887329e-01
2.059714602177749043e-01
-2.059714602177749043e-01
1.740776559556978520e-01
2.773500981126145737e-01
-2.264554068289191535e-01
1.806489209323782208e-01
-1.399300524562882564e-01
1.042977031291239809e-01
-7.374961314478496732e-02
4.828045495852675839e-02
-2.787473366690302462e-02
1.246595986677942816e-02
-1.601281538050871311e-01
1.931218198341070336e-01
-1.978909779672614611e-01
1.865734032750510085e-01
-1.649091483060512175e-01
1.365577483997837682e-01
-1.042977031291239809e-01
7.051811804639268599e-02
-3.739787960033828795e-02
8.362420100070908080e-02
-1.295500551262591393e-01
1.615773069067129586e-01
-1.806489209323782208e-01
1.869893980016914259e-01
-1.806489209323782208e-01
1.615773069067129586e-01
-1.295500551262591393e-01
8.362420100070908080e-02
-3.739787960033828795e-02
7.051811804639268599e-02
-1.042977031291239809e-01
1.365577483997837682e-01
-1.649091483060512175e-01
1.865734032750510085e-01
-1.978909779672614611e-01
1.931218198341070336e-01
-1.601281538050871311e-01
1.246595986677942816e-02
-2.787473366690302462e-02
4.828045495852675839e-02
-7.374961314478496732e-02
1.042977031291239809e-01
-1.399300524562882564e-01
1.806489209323782208e-01
-2.264554068289191535e-01
2.773500981126145737e-01
2.080625946441197471e-02
-4.652421051992354506e-02
8.058229640253802839e-02
-1.230914909793327378e-01
1.740776559556978520e-01
-2.335496832484568741e-01
3.015113445777636292e-01
-5.504818825631802720e-02
1.019294382875251120e-01
-1.471224715841249198e-01
1.860968420796941802e-01
-2.132007163556104423e-01
2.201927530252721088e-01
-1.906925178491184480e-01
1.100963765126360544e-01
-1.651445647689540885e-01
1.973855084879307109e-01
-2.080625946441197471e-01
1.973855084879307109e-01
-1.651445647689540885e-01
1.100963765126360544e-01
-1.906925178491184480e-01
2.201927530252721088e-01
-2.132007163556104423e-01
1.860968420796941802e-01
-1.471224715841249198e-01
1.019294382875251120e-01
-5.504818825631802720e-02
3.015113445777636292e-01
-2.335496832484568741e-01
1.740776559556978520e-01
-1.230914909793327378e-01
8.058229640253802839e-02
-4.652421051992354506e-02
2.080625946441197471e-02
-4.494665749754947481e-02
8.408749651825217497e-02
-1.230914909793327378e-01
1.589104315409320678e-01
-1.880253582725887329e-01
2.059714602177749043e-01
-2.059714602177749043e-01
1.740776559556978520e-01
1.100963765126360544e-01
-1.589104315409320678e-01
1.797866299901978993e-01
-1.740776559556978520e-01
1.421338109037403041e-01
-8.408749651825217497e-02
0.000000000000000000e+00
1.100963765126360544e-01
-2.461829819586654755e-01
-1.906925178491184480e-01
1.906925178491184480e-01
-1.456438162508838230e-01
7.784989441615229600e-02
0.000000000000000000e+00
-7.784989441615229600e-02
1.456438162508838230e-01
-1.906925178491184480e-01
1.906925178491184480e-01
2.461829819586654755e-01
-1.100963765126360544e-01
0.000000000000000000e+00
8.408749651825217497e-02
-1.421338109037403041e-01
1.740776559556978520e-01
-1.797866299901978993e-01
1.589104315409320678e-01
-1.100963765126360544e-01
-1.740776559556978520e-01
2.059714602177749043e-01
-2.059714602177749043e-01
1.880253582725887329e-01
-1.589104315409320678e-01
1.230914909793327378e-01
-8.408749651825217497e-02
4.494665749754947481e-02
8.362420100070908080e-02
-1.295500551262591393e-01
1.615773069067129586e-01
-1.806489209323782208e-01
1.869893980016914259e-01
-1.806489209323782208e-01
1.615773069067129586e-01
-1.295500551262591393e-01
8.362420100070908080e-02
-1.773937187967248030e-01
1.851100598717808077e-01
-1.526762041381148349e-01
9.894548898363073053e-02
-3.413943709994594206e-02
-3.413943709994594206e-02
9.894548898363073053e-02
-1.526762041381148349e-01
1.851100598717808077e-01
-1.773937187967248030e-01
2.290143062071722246e-01
-9.160572248286889818e-02
-1.526762041381148245e-02
9.160572248286889818e-02
-1.374085837243033403e-01
1.526762041381148349e-01
-1.374085837243033403e-01
9.160572248286889818e-02
-1.526762041381148245e-02
-9.160572248286889818e-02
2.290143062071722246e-01
-1.773937187967248030e-01
1.851100598717808077e-01
-1.526762041381148349e-01
9.894548898363073053e-02
-3.413943709994594206e-02
-3.413943709994594206e-02
9.894548898363073053e-02
-1.526762041381148349e-01
1.851100598717808077e-01
-1.773937187967248030e-01
8.362420100070908080e-02
-1.295500551262591393e-01
1.615773069067129586e-01
-1.806489209323782208e-01
1.869893980016914259e-01
-1.806489209323782208e-01
1.615773069067129586e-01
-1.295500551262591393e-01
8.362420100070908080e-02
-1.482498633322202330e-01
1.815682598006407300e-01
-1.896418623723041819e-01
1.832114449657377964e-01
-1.672484020014181616e-01
1.448413648755802752e-01
-1.182624791978165169e-01
8.939803125353483482e-02
-5.997002248126639262e-02
3.160697706205069929e-02
2.344036154692477336e-01
-1.283881477532738957e-01
3.871048305693818720e-02
3.462370862286705958e-02
-9.160572248286889818e-02
1.322214713369862793e-01
-1.564465546936859575e-01
1.642346704354076814e-01
-1.554857684028482789e-01
1.299350487094105278e-01
-8.655927155716765242e-02
-1.657483860329489744e-01
1.787960625070696696e-01
-1.558066888029017716e-01
1.130805588384351246e-01
-5.913123959890825843e-02
0.000000000000000000e+00
5.913123959890825843e-02
-1.130805588384351246e-01
1.558066888029017716e-01
-1.787960625070696696e-01
1.657483860329489744e-01
8.655927155716765242e-02
-1.299350487094105278e-01
1.554857684028482789e-01
-1.642346704354076814e-01
1.564465546936859575e-01
-1.322214713369862793e-01
9.160572248286889818e-02
-3.462370862286705958e-02
-3.871048305693818720e-02
1.283881477532738957e-01
-2.344036154692477336e-01
-3.160697706205069929e-02
5.997002248126639262e-02
-8.939803125353483482e-02
1.182624791978165169e-01
-1.448413648755802752e-01
1.672484020014181616e-01
-1.832114449657377964e-01
1.896418623723041819e-01
-1.815682598006407300e-01
1.482498633322202330e-01
2.581988897471610978e-01
-2.182178902359923622e-01
1.815682598006407300e-01
-1.482498633322202330e-01
1.182624791978165169e-01
-9.160572248286889818e-02
6.827887419989188411e-02
-4.828045495852675839e-02
3.160697706205069929e-02
-1.824829671504529793e-02
8.160886385685479222e-03
-1.380131118684708447e-01
1.711841970043651573e-01
-1.815682598006407300e-01
1.787960625070696696e-01
-1.672484020014181616e-01
1.495915184013531518e-01
-1.277380770053170855e-01
1.032279548185018325e-01
-7.742096611387637439e-02
5.161397740925091626e-02
-2.706659809803833860e-02
6.629935441317959255e-02
-1.048284836721918439e-01
1.340970468803022730e-01
-1.548419322277527488e-01
1.672484020014181616e-01
-1.713786140993950602e-01
1.672484020014181616e-01
-1.548419322277527488e-01
1.340970468803022730e-01
-1.048284836721918439e-01
6.629935441317959255e-02
-2.706659809803833860e-02
5.161397740925091626e-02
-7.742096611387637439e-02
1.032279548185018325e-01
-1.277380770053170855e-01
1.495915184013531518e-01
-1.672484020014181616e-01
1.787960625070696696e-01
-1.815682598006407300e-01
1.711841970043651573e-01
-1.380131118684708447e-01
8.160886385685479222e-03
-1.824829671504529793e-02
3.160697706205069929e-02
-4.828045495852675839e-02
6.827887419989188411e-02
-9.160572248286889818e-02
1.182624791978165169e-01
-1.482498633322202330e-01
1.815682598006407300e-01
-2.182178902359923622e-01
2.581988897471610978e-01
1.246595986677942816e-02
-2.787473366690302462e-02
4.828045495852675839e-02
-7.374961314478496732e-02
1.042977031291239809e-01
-1.399300524562882564e-01
1.806489209323782208e-01
-2.264554068289191535e-01
2.773500981126145737e-01
-3.739787960033828795e-02
7.051811804639268599e-02
-1.042977031291239809e-01
1.365577483997837682e-01
-1.649091483060512175e-01
1.865734032750510085e-01
-1.978909779672614611e-01
1.931218198341070336e-01
-1.601281538050871311e-01
8.362420100070908080e-02
-1.295500551262591393e-01
1.615773069067129586e-01
-1.806489209323782208e-01
1.869893980016914259e-01
-1.806489209323782208e-01
1.615773069067129586e-01
-1.295500551262591393e-01
8.362420100070908080e-02
-1.601281538050871311e-01
1.931218198341070336e-01
-1.978909779672614611e-01
1.865734032750510085e-01
-1.649091483060512175e-01
1.365577483997837682e-01
-1.042977031291239809e-01
7.051811804639268599e-02
-3.739787960033828795e-02
2.773500981126145737e-01
-2.264554068289191535e-01
1.806489209323782208e-01
-1.399300524562882564e-01
1.042977031291239809e-01
-7.374961314478496732e-02
4.828045495852675839e-02
-2.787473366690302462e-02
1.246595986677942816e-02
-3.160697706205069929e-02
5.997002248126639262e-02
-8.939803125353483482e-02
1.182624791978165169e-01
-1.448413648755802752e-01
1.672484020014181616e-01
-1.832114449657377964e-01
1.896418623723041819e-01
-1.815682598006407300e-01
1.482498633322202330e-01
8.655927155716765242e-02
-1.299350487094105278e-01
1.554857684028482789e-01
-1.642346704354076814e-01
1.564465546936859575e-01
-1.322214713369862793e-01
9.160572248286889818e-02
-3.462370862286705958e-02
-3.871048305693818720e-02
1.283881477532738957e-01
-2.344036154692477336e-01
-1.657483860329489744e-01
1.787960625070696696e-01
-1.558066888029017716e-01
1.130805588384351246e-01
-5.913123959890825843e-02
0.000000000000000000e+00
5.913123959890825843e-02
-1.130805588384351246e-01
1.558066888029017716e-01
-1.787960625070696696e-01
1.657483860329489744e-01
2.344036154692477336e-01
-1.283881477532738957e-01
3.871048305693818720e-02
3.462370862286705958e-02
-9.160572248286889818e-02
1.322214713369862793e-01
-1.564465546936859575e-01
1.642346704354076814e-01
-1.554857684028482789e-01
1.299350487094105278e-01
-8.655927155716765242e-02
-1.482498633322202330e-01
1.815682598006407300e-01
-1.896418623723041819e-01
1.832114449657377964e-01
-1.672484020014181616e-01
1.448413648755802752e-01
-1.182624791978165169e-01
8.939803125353483482e-02
-5.997002248126639262e-02
3.160697706205069929e-02
6.629935441317959255e-02
-1.048284836721918439e-01
1.340970468803022730e-01
-1.548419322277527488e-01
1.672484020014181616e-01
-1.713786140993950602e-01
1.672484020014181616e-01
-1.548419322277527488e-01
1.340970468803022730e-01
-1.048284836721918439e-01
6.629935441317959255e-02
-1.554857684028482789e-01
1.722507755289643672e-01
-1.564465546936859575e-01
1.224132957852821779e-01
-7.742096611387637439e-02
2.644429426739725378e-02
2.644429426739725378e-02
-7.742096611387637439e-02
1.224132957852821779e-01
-1.564465546936859575e-01
1.722507755289643672e-01
-1.554857684028482789e-01
2.198900824313101132e-01
-1.099450412156550566e-01
1.999000749375546421e-02
4.997501873438865705e-02
-9.995003746877731410e-02
1.299350487094105278e-01
-1.399300524562882564e-01
1.299350487094105278e-01
-9.995003746877731410e-02
4.997501873438865705e-02
1.999000749375546421e-02
-1.099450412156550566e-01
2.198900824313101132e-01
-1.554857684028482789e-01
1.722507755289643672e-01
-1.564465546936859575e-01
1.224132957852821779e-01
-7.742096611387637439e-02
2.644429426739725378e-02
2.644429426739725378e-02
-7.742096611387637439e-02
1.224132957852821779e-01
-1.564465546936859575e-01
1.722507755289643672e-01
-1.554857684028482789e-01
6.629935441317959255e-02
-1.048284836721918439e-01
1.340970468803022730e-01
-1.548419322277527488e-01
1.672484020014181616e-01
-1.713786140993950602e-01
1.672484020014181616e-01
-1.548419322277527488e-01
1.340970468803022730e-01
-1.048284836721918439e-01
6.629935441317959255e-02
-1.290994448735805489e-01
1.618347187425374367e-01
-1.738383738412788426e-01
1.738383738412788426e-01
-1.657483860329489744e-01
1.519109050625500057e-01
-1.339728254114167239e-01
1.132277034144595768e-01
-9.078412990032036500e-02
6.766649524509585345e-02
-4.488487512127013745e-02
2.344036154692477267e-02
2.236067977499789916e-01
-1.380131118684708447e-01
6.347679914192294603e-02
0.000000000000000000e+00
-5.241424183609592197e-02
9.376144618769909067e-02
-1.240347345892084674e-01
1.432229748078865661e-01
-1.513068831672006176e-01
1.482498633322202330e-01
-1.339728254114167239e-01
1.082663923921533544e-01
-7.032108464077431453e-02
-1.463850109422799584e-01
1.657483860329489744e-01
-1.554857684028482789e-01
1.283881477532738957e-01
-9.078412990032036500e-02
4.688072309384954534e-02
0.000000000000000000e+00
-4.688072309384954534e-02
9.078412990032036500e-02
-1.283881477532738957e-01
1.554857684028482789e-01
-1.657483860329489744e-01
1.463850109422799584e-01
7.032108464077431453e-02
-1.082663923921533544e-01
1.339728254114167239e-01
-1.482498633322202330e-01
1.513068831672006176e-01
-1.432229748078865661e-01
1.240347345892084674e-01
-9.376144618769909067e-02
5.241424183609592197e-02
0.000000000000000000e+00
-6.347679914192294603e-02
1.380131118684708447e-01
-2.236067977499789916e-01
-2.344036154692477267e-02
4.488487512127013745e-02
-6.766649524509585345e-02
9.078412990032036500e-02
-1.132277034144595768e-01
1.339728254114167239e-01
-1.519109050625500057e-01
1.657483860329489744e-01
-1.738383738412788426e-01
1.738383738412788426e-01
-1.618347187425374367e-01
1.290994448735805489e-01
2.425356250363329691e-01
-2.100420126042014668e-01
1.798692335461253566e-01
-1.520172480262650672e-01
1.264859959646828513e-01
-1.032753832404016830e-01
8.238525545716346432e-02
-6.381534447172755586e-02
4.756514941544941200e-02
-3.363363969981562895e-02
2.201838568875384358e-02
-1.271232090452303551e-02
5.685122738861024365e-03
-1.212678125181664845e-01
1.533929977694740709e-01
-1.665265517476861579e-01
1.686479946195771074e-01
-1.632927186332250591e-01
1.525478508542764400e-01
-1.378569000336139494e-01
1.203313675192373700e-01
-1.009009190994468730e-01
8.039977681052935810e-02
-5.962607031450768008e-02
3.938768572388969685e-02
-2.049800154226969623e-02
5.423261445466404096e-02
-8.696565534786726559e-02
1.131325140715179617e-01
-1.333279464544214477e-01
1.477038214645863823e-01
-1.563150317156718483e-01
1.591834366881086926e-01
-1.563150317156718483e-01
1.477038214645863823e-01
-1.333279464544214477e-01
1.131325140715179617e-01
-8.696565534786726559e-02
5.423261445466404096e-02
-2.049800154226969623e-02
3.938768572388969685e-02
-5.962607031450768008e-02
8.039977681052935810e-02
-1.009009190994468730e-01
1.203313675192373700e-01
-1.378569000336139494e-01
1.525478508542764400e-01
-1.632927186332250591e-01
1.686479946195771074e-01
-1.665265517476861579e-01
1.533929977694740709e-01
-1.212678125181664845e-01
5.685122738861024365e-03
-1.271232090452303551e-02
2.201838568875384358e-02
-3.363363969981562895e-02
4.756514941544941200e-02
-6.381534447172755586e-02
8.238525545716346432e-02
-1.032753832404016830e-01
1.264859959646828513e-01
-1.520172480262650672e-01
1.798692335461253566e-01
-2.100420126042014668e-01
2.425356250363329691e-01
8.160886385685479222e-03
-1.824829671504529793e-02
3.160697706205069929e-02
-4.828045495852675839e-02
6.827887419989188411e-02
-9.160572248286889818e-02
1.182624791978165169e-01
-1.482498633322202330e-01
1.815682598006407300e-01
-2.182178902359923622e-01
2.581988897471610978e-01
-2.706659809803833860e-02
5.161397740925091626e-02
-7.742096611387637439e-02
1.032279548185018325e-01
-1.277380770053170855e-01
1.495915184013531518e-01
-1.672484020014181616e-01
1.787960625070696696e-01
-1.815682598006407300e-01
1.711841970043651573e-01
-1.380131118684708447e-01
6.629935441317959255e-02
-1.048284836721918439e-01
1.340970468803022730e-01
-1.548419322277527488e-01
1.672484020014181616e-01
-1.713786140993950602e-01
1.672484020014181616e-01
-1.548419322277527488e-01
1.340970468803022730e-01
-1.048284836721918439e-01
6.629935441317959255e-02
-1.380131118684708447e-01
1.711841970043651573e-01
-1.815682598006407300e-01
1.787960625070696696e-01
-1.672484020014181616e-01
1.495915184013531518e-01
-1.277380770053170855e-01
1.032279548185018325e-01
-7.742096611387637439e-02
5.161397740925091626e-02
-2.706659809803833860e-02
2.581988897471610978e-01
-2.182178902359923622e-01
1.815682598006407300e-01
-1.482498633322202330e-01
1.182624791978165169e-01
-9.160572248286889818e-02
6.827887419989188411e-02
-4.828045495852675839e-02
3.160697706205069929e-02
-1.824829671504529793e-02
8.160886385685479222e-03
-2.344036154692477267e-02
4.488487512127013745e-02
-6.766649524509585345e-02
9.078412990032036500e-02
-1.132277034144595768e-01
1.339728254114167239e-01
-1.519109050625500057e-01
1.657483860329489744e-01
-1.738383738412788426e-01
1.738383738412788426e-01
-1.618347187425374367e-01
1.290994448735805489e-01
7.032108464077431453e-02
-1.082663923921533544e-01
1.339728254114167239e-01
-1.482498633322202330e-01
1.513068831672006176e-01
-1.432229748078865661e-01
1.240347345892084674e-01
-9.376144618769909067e-02
5.241424183609592197e-02
0.000000000000000000e+00
-6.347679914192294603e-02
1.380131118684708447e-01
-2.236067977499789916e-01
-1.463850109422799584e-01
1.657483860329489744e-01
-1.554857684028482789e-01
1.283881477532738957e-01
-9.078412990032036500e-02
4.688072309384954534e-02
0.000000000000000000e+00
-4.688072309384954534e-02
9.078412990032036500e-02
-1.283881477532738957e-01
1.554857684028482789e-01
-1.657483860329489744e-01
1.463850109422799584e-01
2.236067977499789916e-01
-1.380131118684708447e-01
6.347679914192294603e-02
0.000000000000000000e+00
-5.241424183609592197e-02
9.376144618769909067e-02
-1.240347345892084674e-01
1.432229748078865661e-01
-1.513068831672006176e-01
1.482498633322202330e-01
-1.339728254114167239e-01
1.082663923921533544e-01
-7.032108464077431453e-02
-1.290994448735805489e-01
1.618347187425374367e-01
-1.738383738412788426e-01
1.738383738412788426e-01
-1.657483860329489744e-01
1.519109050625500057e-01
-1.339728254114167239e-01
1.132277034144595768e-01
-9.078412990032036500e-02
6.766649524509585345e-02
-4.488487512127013745e-02
2.344036154692477267e-02
5.423261445466404096e-02
-8.696565534786726559e-02
1.131325140715179617e-01
-1.333279464544214477e-01
1.477038214645863823e-01
-1.563150317156718483e-01
1.591834366881086926e-01
-1.563150317156718483e-01
1.477038214645863823e-01
-1.333279464544214477e-01
1.131325140715179617e-01
-8.696565534786726559e-02
5.423261445466404096e-02
-1.382665796887430354e-01
1.594370348044233110e-01
-1.534983139492476500e-01
1.319879330834376474e-01
-1.004997210131616941e-01
6.266542425886569012e-02
-2.127178149057585427e-02
-2.127178149057585427e-02
6.266542425886569012e-02
-1.004997210131616941e-01
1.319879330834376474e-01
-1.534983139492476500e-01
1.594370348044233110e-01
-1.382665796887430354e-01
2.112056891687695559e-01
-1.206889652392968831e-01
4.409789114512770863e-02
1.856753311373798496e-02
-6.730730753730018723e-02
1.021214321255589086e-01
-1.230099068785141386e-01
1.299727317961658912e-01
-1.230099068785141386e-01
1.021214321255589086e-01
-6.730730753730018723e-02
1.856753311373798496e-02
4.409789114512770863e-02
-1.206889652392968831e-01
2.112056891687695559e-01
-1.382665796887430354e-01
1.594370348044233110e-01
-1.534983139492476500e-01
1.319879330834376474e-01
-1.004997210131616941e-01
6.266542425886569012e-02
-2.127178149057585427e-02
-2.127178149057585427e-02
6.266542425886569012e-02
-1.004997210131616941e-01
1.319879330834376474e-01
-1.534983139492476500e-01
1.594370348044233110e-01
-1.382665796887430354e-01
5.423261445466404096e-02
-8.696565534786726559e-02
1.131325140715179617e-01
-1.333279464544214477e-01
1.477038214645863823e-01
-1.563150317156718483e-01
1.591834366881086926e-01
-1.563150317156718483e-01
1.477038214645863823e-01
-1.333279464544214477e-01
1.131325140715179617e-01
-8.696565534786726559e-02
5.423261445466404096e-02
-1.143323900950058841e-01
1.457457720325343598e-01
-1.596564940064492677e-01
1.634136314366370635e-01
-1.602402491312445720e-01
1.520172480262650672e-01
-1.400280084028009686e-01
1.252448582170299085e-01
-1.084652289093280819e-01
9.038769075777340622e-02
-7.166161795779289745e-02
5.292561240249631788e-02
-3.483990328456271907e-02
1.807753815155467916e-02
2.138963159732492902e-01
-1.429154876187573586e-01
7.982824700322463385e-02
-2.463553186839776907e-02
-2.266139335594495943e-02
6.206078162774376905e-02
-9.356014857063997547e-02
1.171558372258012237e-01
-1.328422328310142897e-01
1.406102479553512363e-01
-1.404441401029689618e-01
1.323140310062407843e-01
-1.161553420728616143e-01
9.179708064497099640e-02
-5.857791861290061186e-02
-1.309842079988959573e-01
1.533929977694740709e-01
-1.508612065491211074e-01
1.338923854009156644e-01
-1.074924269366893392e-01
7.484811885651197760e-02
-3.834824944236851774e-02
0.000000000000000000e+00
3.834824944236851774e-02
-7.484811885651197760e-02
1.074924269366893392e-01
-1.338923854009156644e-01
1.508612065491211074e-01
-1.533929977694740709e-01
1.309842079988959573e-01
5.857791861290061186e-02
-9.179708064497099640e-02
1.161553420728616143e-01
-1.323140310062407843e-01
1.404441401029689618e-01
-1.406102479553512363e-01
1.328422328310142897e-01
-1.171558372258012237e-01
9.356014857063997547e-02
-6.206078162774376905e-02
2.266139335594495943e-02
2.463553186839776907e-02
-7.982824700322463385e-02
1.429154876187573586e-01
-2.138963159732492902e-01
-1.807753815155467916e-02
3.483990328456271907e-02
-5.292561240249631788e-02
7.166161795779289745e-02
-9.038769075777340622e-02
1.084652289093280819e-01
-1.252448582170299085e-01
1.400280084028009686e-01
-1.520172480262650672e-01
1.602402491312445720e-01
-1.634136314366370635e-01
1.596564940064492677e-01
-1.457457720325343598e-01
1.143323900950058841e-01
2.294157338705617444e-01
-2.023256595556279791e-01
1.769286567235602847e-01
-1.532247113800596361e-01
1.312138036317135881e-01
-1.108959044184548021e-01
9.227096991223671107e-02
-7.533893145222635146e-02
6.009967640704203667e-02
-4.655300916738572964e-02
3.469856435181511989e-02
-2.453559015060627346e-02
1.606231415508088678e-02
-9.273581401244287287e-03
4.147271681611995262e-03
-1.081476140871750202e-01
1.387942574072604796e-01
-1.532247113800596361e-01
1.582498014406424069e-01
-1.568304920402092129e-01
1.506778629044527029e-01
-1.409462346899391649e-01
1.284985132406470942e-01
-1.140311184512026038e-01
9.814236060242509385e-02
-8.137534653950054264e-02
6.424925662032354712e-02
-4.728617252583573738e-02
3.103533944492381860e-02
-1.606231415508088678e-02
4.543108504242546197e-02
-7.360677045181883427e-02
9.690781635658204940e-02
-1.158269945775103615e-01
1.304908570632049569e-01
-1.409462346899391649e-01
1.472135409036376685e-01
-1.493017805380318364e-01
1.472135409036376685e-01
-1.409462346899391649e-01
1.304908570632049569e-01
-1.158269945775103615e-01
9.690781635658204940e-02
-7.360677045181883427e-02
4.543108504242546197e-02
-1.606231415508088678e-02
3.103533944492381860e-02
-4.728617252583573738e-02
6.424925662032354712e-02
-8.137534653950054264e-02
9.814236060242509385e-02
-1.140311184512026038e-01
1.284985132406470942e-01
-1.409462346899391649e-01
1.506778629044527029e-01
-1.568304920402092129e-01
1.582498014406424069e-01
-1.532247113800596361e-01
1.387942574072604796e-01
-1.081476140871750202e-01
4.147271681611995262e-03
-9.273581401244287287e-03
1.606231415508088678e-02
-2.453559015060627346e-02
3.469856435181511989e-02
-4.655300916738572964e-02
6.009967640704203667e-02
-7.533893145222635146e-02
9.227096991223671107e-02
-1.108959044184548021e-01
1.312138036317135881e-01
-1.532247113800596361e-01
1.769286567235602847e-01
-2.023256595556279791e-01
2.294157338705617444e-01
5.685122738861024365e-03
-1.271232090452303551e-02
2.201838568875384358e-02
-3.363363969981562895e-02
4.756514941544941200e-02
-6.381534447172755586e-02
8.238525545716346432e-02
-1.032753832404016830e-01
1.264859959646828513e-01
-1.520172480262650672e-01
1.798692335461253566e-01
-2.100420126042014668e-01
2.425356250363329691e-01
-2.049800154226969623e-02
3.938768572388969685e-02
-5.962607031450768008e-02
8.039977681052935810e-02
-1.009009190994468730e-01
1.203313675192373700e-01
-1.378569000336139494e-01
1.525478508542764400e-01
-1.632927186332250591e-01
1.686479946195771074e-01
-1.665265517476861579e-01
1.533929977694740709e-01
-1.212678125181664845e-01
5.423261445466404096e-02
-8.696565534786726559e-02
1.131325140715179617e-01
-1.333279464544214477e-01
1.477038214645863823e-01
-1.563150317156718483e-01
1.591834366881086926e-01
-1.563150317156718483e-01
1.477038214645863823e-01
-1.333279464544214477e-01
1.131325140715179617e-01
-8.696565534786726559e-02
5.423261445466404096e-02
-1.212678125181664845e-01
1.533929977694740709e-01
-1.665265517476861579e-01
1.686479946195771074e-01
-1.632927186332250591e-01
1.525478508542764400e-01
-1.378569000336139494e-01
1.203313675192373700e-01
-1.009009190994468730e-01
8.039977681052935810e-02
-5.962607031450768008e-02
3.938768572388969685e-02
-2.049800154226969623e-02
2.425356250363329691e-01
-2.100420126042014668e-01
1.798692335461253566e-01
-1.520172480262650672e-01
1.264859959646828513e-01
-1.032753832404016830e-01
8.238525545716346432e-02
-6.381534447172755586e-02
4.756514941544941200e-02
-3.363363969981562895e-02
2.201838568875384358e-02
-1.271232090452303551e-02
5.685122738861024365e-03
-1.807753815155467916e-02
3.483990328456271907e-02
-5.292561240249631788e-02
7.166161795779289745e-02
-9.038769075777340622e-02
1.084652289093280819e-01
-1.252448582170299085e-01
1.400280084028009686e-01
-1.520172480262650672e-01
1.602402491312445720e-01
-1.634136314366370635e-01
1.596564940064492677e-01
-1.457457720325343598e-01
1.143323900950058841e-01
5.857791861290061186e-02
-9.179708064497099640e-02
1.161553420728616143e-01
-1.323140310062407843e-01
1.404441401029689618e-01
-1.406102479553512363e-01
1.328422328310142897e-01
-1.171558372258012237e-01
9.356014857063997547e-02
-6.206078162774376905e-02
2.266139335594495943e-02
2.463553186839776907e-02
-7.982824700322463385e-02
1.429154876187573586e-01
-2.138963159732492902e-01
-1.309842079988959573e-01
1.533929977694740709e-01
-1.508612065491211074e-01
1.338923854009156644e-01
-1.074924269366893392e-01
7.484811885651197760e-02
-3.834824944236851774e-02
0.000000000000000000e+00
3.834824944236851774e-02
-7.484811885651197760e-02
1.074924269366893392e-01
-1.338923854009156644e-01
1.508612065491211074e-01
-1.533929977694740709e-01
1.309842079988959573e-01
2.138963159732492902e-01
-1.429154876187573586e-01
7.982824700322463385e-02
-2.463553186839776907e-02
-2.266139335594495943e-02
6.206078162774376905e-02
-9.356014857063997547e-02
1.171558372258012237e-01
-1.328422328310142897e-01
1.406102479553512363e-01
-1.404441401029689618e-01
1.323140310062407843e-01
-1.161553420728616143e-01
9.179708064497099640e-02
-5.857791861290061186e-02
-1.143323900950058841e-01
1.457457720325343598e-01
-1.596564940064492677e-01
1.634136314366370635e-01
-1.602402491312445720e-01
1.520172480262650672e-01
-1.400280084028009686e-01
1.252448582170299085e-01
-1.084652289093280819e-01
9.038769075777340622e-02
-7.166161795779289745e-02
5.292561240249631788e-02
-3.483990328456271907e-02
1.807753815155467916e-02
4.543108504242546197e-02
-7.360677045181883427e-02
9.690781635658204940e-02
-1.158269945775103615e-01
1.304908570632049569e-01
-1.409462346899391649e-01
1.472135409036376685e-01
-1.493017805380318364e-01
1.472135409036376685e-01
-1.409462346899391649e-01
1.304908570632049569e-01
-1.158269945775103615e-01
9.690781635658204940e-02
-7.360677045181883427e-02
4.543108504242546197e-02
-1.244181504483598821e-01
1.476510263878827445e-01
-1.478256580590749658e-01
1.345788063119863209e-01
-1.124361990855662213e-01
8.423148603968752535e-02
-5.204784652772269371e-02
1.759538357694467176e-02
1.759538357694467176e-02
-5.204784652772269371e-02
8.423148603968752535e-02
-1.124361990855662213e-01
1.345788063119863209e-01
-1.478256580590749658e-01
1.476510263878827445e-01
-1.244181504483598821e-01
2.031739888928744964e-01
-1.269837430580465776e-01
6.095219666786236279e-02
-5.079349722321862409e-03
-4.063479777857489927e-02
7.619024583482794655e-02
-1.015869944464372482e-01
1.168250436134028458e-01
-1.219043933357247256e-01
1.168250436134028458e-01
-1.015869944464372482e-01
7.619024583482794655e-02
-4.063479777857489927e-02
-5.079349722321862409e-03
6.095219666786236279e-02
-1.269837430580465776e-01
2.031739888928744964e-01
-1.244181504483598821e-01
1.476510263878827445e-01
-1.478256580590749658e-01
1.345788063119863209e-01
-1.124361990855662213e-01
8.423148603968752535e-02
-5.204784652772269371e-02
1.759538357694467176e-02
1.759538357694467176e-02
-5.204784652772269371e-02
8.423148603968752535e-02
-1.124361990855662213e-01
1.345788063119863209e-01
-1.478256580590749658e-01
1.476510263878827445e-01
-1.244181504483598821e-01
4.543108504242546197e-02
-7.360677045181883427e-02
9.690781635658204940e-02
-1.158269945775103615e-01
1.304908570632049569e-01
-1.409462346899391649e-01
1.472135409036376685e-01
-1.493017805380318364e-01
1.472135409036376685e-01
-1.409462346899391649e-01
1.304908570632049569e-01
-1.158269945775103615e-01
9.690781635658204940e-02
-7.360677045181883427e-02
4.543108504242546197e-02
-1.025978352085154116e-01
1.324532357065043853e-01
-1.472135409036376685e-01
1.532247113800596361e-01
-1.532247113800596361e-01
1.487824684235905526e-01
-1.409462346899391649e-01
1.304908570632049569e-01
-1.180334213046950464e-01
1.040956930554453874e-01
-8.914222584896881740e-02
7.360677045181883427e-02
-5.791349728875518077e-02
4.249688873453658783e-02
-2.782074420373286186e-02
1.436657053068718555e-02
2.051956704170308232e-01
-1.450952500220023256e-01
9.086217008485092395e-02
-4.249688873453658783e-02
0.000000000000000000e+00
3.662771173969050359e-02
-6.738518883175002860e-02
9.227096991223671107e-02
-1.112829768149314474e-01
1.244181504483598821e-01
-1.316717938675918409e-01
1.330363048597363596e-01
-1.284985132406470942e-01
1.180334213046950464e-01
-1.015869944464372482e-01
7.901613791877952486e-02
-4.976726017934395008e-02
-1.184697755518184792e-01
1.422217922250121613e-01
-1.445608273957279810e-01
1.343869618718863124e-01
-1.158269945775103615e-01
9.142829500179353031e-02
-6.303307238786859390e-02
3.212462831016177356e-02
0.000000000000000000e+00
-3.212462831016177356e-02
6.303307238786859390e-02
-9.142829500179353031e-02
1.158269945775103615e-01
-1.343869618718863124e-01
1.445608273957279810e-01
-1.422217922250121613e-01
1.184697755518184792e-01
4.976726017934395008e-02
-7.901613791877952486e-02
1.015869944464372482e-01
-1.180334213046950464e-01
1.284985132406470942e-01
-1.330363048597363596e-01
1.316717938675918409e-01
-1.244181504483598821e-01
1.112829768149314474e-01
-9.227096991223671107e-02
6.738518883175002860e-02
-3.662771173969050359e-02
0.000000000000000000e+00
4.249688873453658783e-02
-9.086217008485092395e-02
1.450952500220023256e-01
-2.051956704170308232e-01
-1.436657053068718555e-02
2.782074420373286186e-02
-4.249688873453658783e-02
5.791349728875518077e-02
-7.360677045181883427e-02
8.914222584896881740e-02
-1.040956930554453874e-01
1.180334213046950464e-01
-1.304908570632049569e-01
1.409462346899391649e-01
-1.487824684235905526e-01
1.532247113800596361e-01
-1.532247113800596361e-01
1.472135409036376685e-01
-1.324532357065043853e-01
1.025978352085154116e-01
2.182178902359923622e-01
-1.951800145897066574e-01
1.734219939048239900e-01
-1.529438225803745055e-01
1.337454929975018525e-01
-1.158269945775103615e-01
9.918831228239369247e-02
-8.382942414480581972e-02
6.975029703385762780e-02
-5.695087904683805713e-02
4.543108504242546197e-02
-3.519076715388934351e-02
2.622964917882112182e-02
-1.854716280248857457e-02
1.214196820986759850e-02
-7.010168614458935771e-03
3.135042711133139131e-03
-9.759000729485332870e-02
1.266495173722607115e-01
-1.415984650809577194e-01
1.483773024199085966e-01
-1.495320070133181467e-01
1.465108469587620144e-01
-1.402734564586590182e-01
1.315224213931110719e-01
-1.208110583056621612e-01
1.086010651916215208e-01
-9.529704794893290032e-02
8.126959555714979855e-02
-6.687274649875092625e-02
5.245929835764224364e-02
-3.839627482053895036e-02
2.508034168906511305e-02
-1.292611223882468921e-02
3.877833671647407110e-02
-6.332475868613035574e-02
8.412202337350724313e-02
-1.015869944464372482e-01
1.158269945775103615e-01
-1.268821153962619852e-01
1.347703776635000572e-01
-1.395005940677152556e-01
1.410769220009912839e-01
-1.395005940677152556e-01
1.347703776635000572e-01
-1.268821153962619852e-01
1.158269945775103615e-01
-1.015869944464372482e-01
8.412202337350724313e-02
-6.332475868613035574e-02
3.877833671647407110e-02
-1.292611223882468921e-02
2.508034168906511305e-02
-3.839627482053895036e-02
5.245929835764224364e-02
-6.687274649875092625e-02
8.126959555714979855e-02
-9.529704794893290032e-02
1.086010651916215208e-01
-1.208110583056621612e-01
1.315224213931110719e-01
-1.402734564586590182e-01
1.465108469587620144e-01
-1.495320070133181467e-01
1.483773024199085966e-01
-1.415984650809577194e-01
1.266495173722607115e-01
-9.759000729485332870e-02
3.135042711133139131e-03
-7.010168614458935771e-03
1.214196820986759850e-02
-1.854716280248857457e-02
2.622964917882112182e-02
-3.519076715388934351e-02
4.543108504242546197e-02
-5.695087904683805713e-02
6.975029703385762780e-02
-8.382942414480581972e-02
9.918831228239369247e-02
-1.158269945775103615e-01
1.337454929975018525e-01
-1.529438225803745055e-01
1.734219939048239900e-01
-1.951800145897066574e-01
2.182178902359923622e-01
4.147271681611995262e-03
-9.273581401244287287e-03
1.606231415508088678e-02
-2.453559015060627346e-02
3.469856435181511989e-02
-4.655300916738572964e-02
6.009967640704203667e-02
-7.533893145222635146e-02
9.227096991223671107e-02
-1.108959044184548021e-01
1.312138036317135881e-01
-1.532247113800596361e-01
1.769286567235602847e-01
-2.023256595556279791e-01
2.294157338705617444e-01
-1.606231415508088678e-02
3.103533944492381860e-02
-4.728617252583573738e-02
6.424925662032354712e-02
-8.137534653950054264e-02
9.814236060242509385e-02
-1.140311184512026038e-01
1.284985132406470942e-01
-1.409462346899391649e-01
1.506778629044527029e-01
-1.568304920402092129e-01
1.582498014406424069e-01
-1.532247113800596361e-01
1.387942574072604796e-01
-1.081476140871750202e-01
4.543108504242546197e-02
-7.360677045181883427e-02
9.690781635658204940e-02
-1.158269945775103615e-01
1.304908570632049569e-01
-1.409462346899391649e-01
1.472135409036376685e-01
-1.493017805380318364e-01
1.472135409036376685e-01
-1.409462346899391649e-01
1.304908570632049569e-01
-1.158269945775103615e-01
9.690781635658204940e-02
-7.360677045181883427e-02
4.543108504242546197e-02
-1.081476140871750202e-01
1.387942574072604796e-01
-1.532247113800596361e-01
1.582498014406424069e-01
-1.568304920402092129e-01
1.506778629044527029e-01
-1.409462346899391649e-01
1.284985132406470942e-01
-1.140311184512026038e-01
9.814236060242509385e-02
-8.137534653950054264e-02
6.424925662032354712e-02
-4.728617252583573738e-02
3.103533944492381860e-02
-1.606231415508088678e-02
2.294157338705617444e-01
-2.023256595556279791e-01
1.769286567235602847e-01
-1.532247113800596361e-01
1.312138036317135881e-01
-1.108959044184548021e-01
9.227096991223671107e-02
-7.533893145222635146e-02
6.009967640704203667e-02
-4.655300916738572964e-02
3.469856435181511989e-02
-2.453559015060627346e-02
1.606231415508088678e-02
-9.273581401244287287e-03
4.147271681611995262e-03
-1.436657053068718555e-02
2.782074420373286186e-02
-4.249688873453658783e-02
5.791349728875518077e-02
-7.360677045181883427e-02
8.914222584896881740e-02
-1.040956930554453874e-01
1.180334213046950464e-01
-1.304908570632049569e-01
1.409462346899391649e-01
-1.487824684235905526e-01
1.532247113800596361e-01
-1.532247113800596361e-01
1.472135409036376685e-01
-1.324532357065043853e-01
1.025978352085154116e-01
4.976726017934395008e-02
-7.901613791877952486e-02
1.015869944464372482e-01
-1.180334213046950464e-01
1.284985132406470942e-01
-1.330363048597363596e-01
1.316717938675918409e-01
-1.244181504483598821e-01
1.112829768149314474e-01
-9.227096991223671107e-02
6.738518883175002860e-02
-3.662771173969050359e-02
0.000000000000000000e+00
4.249688873453658783e-02
-9.086217008485092395e-02
1.450952500220023256e-01
-2.051956704170308232e-01
-1.184697755518184792e-01
1.422217922250121613e-01
-1.445608273957279810e-01
1.343869618718863124e-01
-1.158269945775103615e-01
9.142829500179353031e-02
-6.303307238786859390e-02
3.212462831016177356e-02
0.000000000000000000e+00
-3.212462831016177356e-02
6.303307238786859390e-02
-9.142829500179353031e-02
1.158269945775103615e-01
-1.343869618718863124e-01
1.445608273957279810e-01
-1.422217922250121613e-01
1.184697755518184792e-01
2.051956704170308232e-01
-1.450952500220023256e-01
9.086217008485092395e-02
-4.249688873453658783e-02
0.000000000000000000e+00
3.662771173969050359e-02
-6.738518883175002860e-02
9.227096991223671107e-02
-1.112829768149314474e-01
1.244181504483598821e-01
-1.316717938675918409e-01
1.330363048597363596e-01
-1.284985132406470942e-01
1.180334213046950464e-01
-1.015869944464372482e-01
7.901613791877952486e-02
-4.976726017934395008e-02
-1.025978352085154116e-01
1.324532357065043853e-01
-1.472135409036376685e-01
1.532247113800596361e-01
-1.532247113800596361e-01
1.487824684235905526e-01
-1.409462346899391649e-01
1.304908570632049569e-01
-1.180334213046950464e-01
1.040956930554453874e-01
-8.914222584896881740e-02
7.360677045181883427e-02
-5.791349728875518077e-02
4.249688873453658783e-02
-2.782074420373286186e-02
1.436657053068718555e-02
3.877833671647407110e-02
-6.332475868613035574e-02
8.412202337350724313e-02
-1.015869944464372482e-01
1.158269945775103615e-01
-1.268821153962619852e-01
1.347703776635000572e-01
-1.395005940677152556e-01
1.410769220009912839e-01
-1.395005940677152556e-01
1.347703776635000572e-01
-1.268821153962619852e-01
1.158269945775103615e-01
-1.015869944464372482e-01
8.412202337350724313e-02
-6.332475868613035574e-02
3.877833671647407110e-02
-1.130573079779367829e-01
1.371021242767704318e-01
-1.411813847491079910e-01
1.335616503085435836e-01
-1.180334213046950464e-01
9.690781635658204940e-02
-7.183285265343591908e-02
4.411396122005534215e-02
-1.487081329363505386e-02
-1.487081329363505386e-02
4.411396122005534215e-02
-7.183285265343591908e-02
9.690781635658204940e-02
-1.180334213046950464e-01
1.335616503085435836e-01
-1.411813847491079910e-01
1.371021242767704318e-01
-1.130573079779367829e-01
1.958210015847486607e-01
-1.305473343898324312e-01
7.295292215902400568e-02
-2.303776489232337368e-02
-1.919813741026947518e-02
5.375478474875453050e-02
-8.063217712313180963e-02
9.983031453340127093e-02
-1.113491969795629699e-01
1.151888244616168649e-01
-1.113491969795629699e-01
9.983031453340127093e-02
-8.063217712313180963e-02
5.375478474875453050e-02
-1.919813741026947518e-02
-2.303776489232337368e-02
7.295292215902400568e-02
-1.305473343898324312e-01
1.958210015847486607e-01
-1.130573079779367829e-01
1.371021242767704318e-01
-1.411813847491079910e-01
1.335616503085435836e-01
-1.180334213046950464e-01
9.690781635658204940e-02
-7.183285265343591908e-02
4.411396122005534215e-02
-1.487081329363505386e-02
-1.487081329363505386e-02
4.411396122005534215e-02
-7.183285265343591908e-02
9.690781635658204940e-02
-1.180334213046950464e-01
1.335616503085435836e-01
-1.411813847491079910e-01
1.371021242767704318e-01
-1.130573079779367829e-01
3.877833671647407110e-02
-6.332475868613035574e-02
8.412202337350724313e-02
-1.015869944464372482e-01
1.158269945775103615e-01
-1.268821153962619852e-01
1.347703776635000572e-01
-1.395005940677152556e-01
1.410769220009912839e-01
-1.395005940677152556e-01
1.347703776635000572e-01
-1.268821153962619852e-01
1.158269945775103615e-01
-1.015869944464372482e-01
8.412202337350724313e-02
-6.332475868613035574e-02
3.877833671647407110e-02
-9.304842103984709012e-02
1.213202980486559751e-01
-1.363522437710801283e-01
1.437278847970399343e-01
-1.458262130866023742e-01
1.439918480768952458e-01
-1.391093412574908039e-01
1.318209970813151999e-01
-1.226278678969931479e-01
1.119434157099112453e-01
-1.001252348643517642e-01
8.749572785196142732e-02
-7.435707061219250236e-02
6.100348165520024651e-02
-4.773283284129394705e-02
3.485913237440013690e-02
-2.272537396184669267e-02
1.169210844387335441e-02
1.973855084879307109e-01
-1.456438162508838230e-01
9.840375580730324756e-02
-5.566557042045539028e-02
1.742956618720006845e-02
1.630386626815061649e-02
-4.553422044199250535e-02
7.026082752111809104e-02
-9.048278567177281406e-02
1.061988488107182965e-01
-1.174072448909444649e-01
1.241053653873642748e-01
-1.262892050706804214e-01
1.239522811236120070e-01
-1.170833622190348144e-01
1.056611296654027810e-01
-8.963949806969571943e-02
6.889640972526117624e-02
-4.295954955716455720e-02
-1.081124955234670781e-01
1.322811066725014528e-01
-1.377652581302245549e-01
1.322811066725014528e-01
-1.193320821032348711e-01
1.010313640565443233e-01
-7.886758328857240707e-02
5.400353565971661995e-02
-2.742042485535409191e-02
0.000000000000000000e+00
2.742042485535409191e-02
-5.400353565971661995e-02
7.886758328857240707e-02
-1.010313640565443233e-01
1.193320821032348711e-01
-1.322811066725014528e-01
1.377652581302245549e-01
-1.322811066725014528e-01
1.081124955234670781e-01
4.295954955716455720e-02
-6.889640972526117624e-02
8.963949806969571943e-02
-1.056611296654027810e-01
1.170833622190348144e-01
-1.239522811236120070e-01
1.262892050706804214e-01
-1.241053653873642748e-01
1.174072448909444649e-01
-1.061988488107182965e-01
9.048278567177281406e-02
-7.026082752111809104e-02
4.553422044199250535e-02
-1.630386626815061649e-02
-1.742956618720006845e-02
5.566557042045539028e-02
-9.840375580730324756e-02
1.456438162508838230e-01
-1.973855084879307109e-01
-1.169210844387335441e-02
2.272537396184669267e-02
-3.485913237440013690e-02
4.773283284129394705e-02
-6.100348165520024651e-02
7.435707061219250236e-02
-8.749572785196142732e-02
1.001252348643517642e-01
-1.119434157099112453e-01
1.226278678969931479e-01
-1.318209970813151999e-01
1.391093412574908039e-01
-1.439918480768952458e-01
1.458262130866023742e-01
-1.437278847970399343e-01
1.363522437710801283e-01
-1.213202980486559751e-01
9.304842103984709012e-02
3.135042711133139131e-03
-7.010168614458935771e-03
1.214196820986759850e-02
-1.854716280248857457e-02
2.622964917882112182e-02
-3.519076715388934351e-02
4.543108504242546197e-02
-5.695087904683805713e-02
6.975029703385762780e-02
-8.382942414480581972e-02
9.918831228239369247e-02
-1.158269945775103615e-01
1.337454929975018525e-01
-1.529438225803745055e-01
1.734219939048239900e-01
-1.951800145897066574e-01
2.182178902359923622e-01
-1.292611223882468921e-02
2.508034168906511305e-02
-3.839627482053895036e-02
5.245929835764224364e-02
-6.687274649875092625e-02
8.126959555714979855e-02
-9.529704794893290032e-02
1.086010651916215208e-01
-1.208110583056621612e-01
1.315224213931110719e-01
-1.402734564586590182e-01
1.465108469587620144e-01
-1.495320070133181467e-01
1.483773024199085966e-01
-1.415984650809577194e-01
1.266495173722607115e-01
-9.759000729485332870e-02
3.877833671647407110e-02
-6.332475868613035574e-02
8.412202337350724313e-02
-1.015869944464372482e-01
1.158269945775103615e-01
-1.268821153962619852e-01
1.347703776635000572e-01
-1.395005940677152556e-01
1.410769220009912839e-01
-1.395005940677152556e-01
1.347703776635000572e-01
-1.268821153962619852e-01
1.158269945775103615e-01
-1.015869944464372482e-01
8.412202337350724313e-02
-6.332475868613035574e-02
3.877833671647407110e-02
-9.759000729485332870e-02
1.266495173722607115e-01
-1.415984650809577194e-01
1.483773024199085966e-01
-1.495320070133181467e-01
1.465108469587620144e-01
-1.402734564586590182e-01
1.315224213931110719e-01
-1.208110583056621612e-01
1.086010651916215208e-01
-9.529704794893290032e-02
8.126959555714979855e-02
-6.687274649875092625e-02
5.245929835764224364e-02
-3.839627482053895036e-02
2.508034168906511305e-02
-1.292611223882468921e-02
2.182178902359923622e-01
-1.951800145897066574e-01
1.734219939048239900e-01
-1.529438225803745055e-01
1.337454929975018525e-01
-1.158269945775103615e-01
9.918831228239369247e-02
-8.382942414480581972e-02
6.975029703385762780e-02
-5.695087904683805713e-02
4.543108504242546197e-02
-3.519076715388934351e-02
2.622964917882112182e-02
-1.854716280248857457e-02
1.214196820986759850e-02
-7.010168614458935771e-03
3.135042711133139131e-03
-1.169210844387335441e-02
2.272537396184669267e-02
-3.485913237440013690e-02
4.773283284129394705e-02
-6.100348165520024651e-02
7.435707061219250236e-02
-8.749572785196142732e-02
1.001252348643517642e-01
-1.119434157099112453e-01
1.226278678969931479e-01
-1.318209970813151999e-01
1.391093412574908039e-01
-1.439918480768952458e-01
1.458262130866023742e-01
-1.437278847970399343e-01
1.363522437710801283e-01
-1.213202980486559751e-01
9.304842103984709012e-02
4.295954955716455720e-02
-6.889640972526117624e-02
8.963949806969571943e-02
-1.056611296654027810e-01
1.170833622190348144e-01
-1.239522811236120070e-01
1.262892050706804214e-01
-1.241053653873642748e-01
1.174072448909444649e-01
-1.061988488107182965e-01
9.048278567177281406e-02
-7.026082752111809104e-02
4.553422044199250535e-02
-1.630386626815061649e-02
-1.742956618720006845e-02
5.566557042045539028e-02
-9.840375580730324756e-02
1.456438162508838230e-01
-1.973855084879307109e-01
-1.081124955234670781e-01
1.322811066725014528e-01
-1.377652581302245549e-01
1.322811066725014528e-01
-1.193320821032348711e-01
1.010313640565443233e-01
-7.886758328857240707e-02
5.400353565971661995e-02
-2.742042485535409191e-02
0.000000000000000000e+00
2.742042485535409191e-02
-5.400353565971661995e-02
7.886758328857240707e-02
-1.010313640565443233e-01
1.193320821032348711e-01
-1.322811066725014528e-01
1.377652581302245549e-01
-1.322811066725014528e-01
1.081124955234670781e-01
1.973855084879307109e-01
-1.456438162508838230e-01
9.840375580730324756e-02
-5.566557042045539028e-02
1.742956618720006845e-02
1.630386626815061649e-02
-4.553422044199250535e-02
7.026082752111809104e-02
-9.048278567177281406e-02
1.061988488107182965e-01
-1.174072448909444649e-01
1.241053653873642748e-01
-1.262892050706804214e-01
1.239522811236120070e-01
-1.170833622190348144e-01
1.056611296654027810e-01
-8.963949806969571943e-02
6.889640972526117624e-02
-4.295954955716455720e-02
-9.304842103984709012e-02
1.213202980486559751e-01
-1.363522437710801283e-01
1.437278847970399343e-01
-1.458262130866023742e-01
1.439918480768952458e-01
-1.391093412574908039e-01
1.318209970813151999e-01
-1.226278678969931479e-01
1.119434157099112453e-01
-1.001252348643517642e-01
8.749572785196142732e-02
-7.435707061219250236e-02
6.100348165520024651e-02
-4.773283284129394705e-02
3.485913237440013690e-02
-2.272537396184669267e-02
1.169210844387335441e-02
3.360514063549747965e-02
-5.521888072258639146e-02
7.386696533943110099e-02
-8.990800704635257268e-02
1.034344404323926658e-01
-1.144809470949802871e-01
1.230633203665415093e-01
-1.291895746931501221e-01
1.328639443998168024e-01
-1.340885227696315685e-01
1.328639443998168024e-01
-1.291895746931501221e-01
1.230633203665415093e-01
-1.144809470949802871e-01
1.034344404323926658e-01
-8.990800704635257268e-02
7.386696533943110099e-02
-5.521888072258639146e-02
3.360514063549747965e-02
-1.035779997526012214e-01
1.277437440525018286e-01
-1.343652795610204842e-01
1.306762700601633853e-01
-1.199324207661698338e-01
1.040788980096672284e-01
-8.447145968645400349e-02
6.215636310465289666e-02
-3.800424013344951696e-02
1.278483901080494818e-02
1.278483901080494818e-02
-3.800424013344951696e-02
6.215636310465289666e-02
-8.447145968645400349e-02
1.040788980096672284e-01
-1.199324207661698338e-01
1.306762700601633853e-01
-1.343652795610204842e-01
1.277437440525018286e-01
-1.035779997526012214e-01
1.891066897525473522e-01
-1.323746828267831355e-01
8.161446610373096489e-02
-3.682603958339079886e-02
-1.990596734237340491e-03
3.483544284915345707e-02
-6.170849876135756085e-02
8.260976447084962537e-02
-9.753923997762968534e-02
1.064969252816977130e-01
-1.094828203830537222e-01
1.064969252816977130e-01
-9.753923997762968534e-02
8.260976447084962537e-02
-6.170849876135756085e-02
3.483544284915345707e-02
-1.990596734237340491e-03
-3.682603958339079886e-02
8.161446610373096489e-02
-1.323746828267831355e-01
1.891066897525473522e-01
-1.035779997526012214e-01
1.277437440525018286e-01
-1.343652795610204842e-01
1.306762700601633853e-01
-1.199324207661698338e-01
1.040788980096672284e-01
-8.447145968645400349e-02
6.215636310465289666e-02
-3.800424013344951696e-02
1.278483901080494818e-02
1.278483901080494818e-02
-3.800424013344951696e-02
6.215636310465289666e-02
-8.447145968645400349e-02
1.040788980096672284e-01
-1.199324207661698338e-01
1.306762700601633853e-01
-1.343652795610204842e-01
1.277437440525018286e-01
-1.035779997526012214e-01
3.360514063549747965e-02
-5.521888072258639146e-02
7.386696533943110099e-02
-8.990800704635257268e-02
1.034344404323926658e-01
-1.144809470949802871e-01
1.230633203665415093e-01
-1.291895746931501221e-01
1.328639443998168024e-01
-1.340885227696315685e-01
1.328639443998168024e-01
-1.291895746931501221e-01
1.230633203665415093e-01
-1.144809470949802871e-01
1.034344404323926658e-01
-8.990800704635257268e-02
7.386696533943110099e-02
-5.521888072258639146e-02
3.360514063549747965e-02
3.779644730092271976e-01
-3.779644730092271976e-01
3.779644730092271976e-01
-3.779644730092271976e-01
3.779644730092271976e-01
-3.779644730092271976e-01
3.779644730092271976e-01
3.779644730092271976e-01
-2.182178902359923622e-01
-3.086066999241838249e-01
9.759000729485332870e-02
2.760262237369416893e-01
2.390457218668787243e-01
-1.690308509457033037e-01
-2.927700218845599167e-01
-1.690308509457033037e-01
2.390457218668787243e-01
2.760262237369416893e-01
9.759000729485332870e-02
-3.086066999241838249e-01
-2.182178902359923622e-01
3.779644730092271976e-01
-3.273268353539885434e-01
1.889822365046135988e-01
1.889822365046135988e-01
2.182178902359923622e-01
-2.439750182371332732e-01
-2.439750182371332732e-01
-1.091089451179961811e-01
2.672612419124243965e-01
2.672612419124243965e-01
0.000000000000000000e+00
-2.672612419124243965e-01
-2.672612419124243965e-01
1.091089451179961811e-01
2.439750182371332732e-01
2.439750182371332732e-01
-2.182178902359923622e-01
-1.889822365046135988e-01
-1.889822365046135988e-01
3.273268353539885434e-01
3.333333333333333148e-01
-1.666666666666666574e-01
6.299407883487119497e-02
-2.886751345948128655e-01
2.182178902359923622e-01
-1.091089451179961811e-01
2.439750182371332732e-01
-2.439750182371332732e-01
1.543033499620919125e-01
-1.992047682223989369e-01
2.519763153394847799e-01
-1.992047682223989369e-01
1.543033499620919125e-01
-2.439750182371332732e-01
2.439750182371332732e-01
-1.091089451179961811e-01
2.182178902359923622e-01
-2.886751345948128655e-01
6.299407883487119497e-02
-1.666666666666666574e-01
3.333333333333333148e-01
3.779644730092271976e-01
-3.086066999241838249e-01
-2.182178902359923622e-01
2.390457218668787243e-01
2.760262237369416893e-01
9.759000729485332870e-02
-1.690308509457033037e-01
-2.927700218845599167e-01
-1.690308509457033037e-01
9.759000729485332870e-02
2.760262237369416893e-01
2.390457218668787243e-01
-2.182178902359923622e-01
-3.086066999241838249e-01
3.779644730092271976e-01
-2.672612419124243965e-01
2.672612419124243965e-01
2.672612419124243965e-01
0.000000000000000000e+00
-2.672612419124243965e-01
-2.070196678027062531e-01
-1.690308509457033037e-01
1.690308509457033037e-01
2.070196678027062531e-01
1.195228609334393621e-01
2.390457218668787243e-01
0.000000000000000000e+00
-2.390457218668787243e-01
-1.195228609334393621e-01
-2.070196678027062531e-01
-1.690308509457033037e-01
1.690308509457033037e-01
2.070196678027062531e-01
2.672612419124243965e-01
0.000000000000000000e+00
-2.672612419124243965e-01
-2.672612419124243965e-01
2.672612419124243965e-01
2.439750182371332732e-01
-2.439750182371332732e-01
1.543033499620919125e-01
-2.439750182371332732e-01
0.000000000000000000e+00
1.889822365046135988e-01
-2.182178902359923622e-01
1.543033499620919125e-01
1.889822365046135988e-01
-1.463850109422799584e-01
-6.900655593423542233e-02
2.390457218668787243e-01
-2.182178902359923622e-01
-6.900655593423542233e-02
1.951800145897066574e-01
-6.900655593423542233e-02
-2.182178902359923622e-01
2.390457218668787243e-01
-6.900655593423542233e-02
-1.463850109422799584e-01
1.889822365046135988e-01
1.543033499620919125e-01
-2.182178902359923622e-01
1.889822365046135988e-01
0.000000000000000000e+00
-2.439750182371332732e-01
1.543033499620919125e-01
-2.439750182371332732e-01
2.439750182371332732e-01
-2.581988897471610978e-01
2.236067977499789916e-01
-1.463850109422799584e-01
6.900655593423542233e-02
2.108185106778919515e-01
7.453559924999299258e-02
-1.951800145897066574e-01
1.972026594366538543e-01
-1.259881576697423899e-01
-2.357022603955158391e-01
6.299407883487119497e-02
1.091089451179961811e-01
-1.992047682223989369e-01
1.781741612749495884e-01
2.182178902359923622e-01
-1.543033499620919125e-01
0.000000000000000000e+00
1.543033499620919125e-01
-2.182178902359923622e-01
-1.781741612749495884e-01
1.992047682223989369e-01
-1.091089451179961811e-01
-6.299407883487119497e-02
2.357022603955158391e-01
1.259881576697423899e-01
-1.972026594366538543e-01
1.951800145897066574e-01
-7.453559924999299258e-02
-2.108185106778919515e-01
-6.900655593423542233e-02
1.463850109422799584e-01
-2.236067977499789916e-01
2.581988897471610978e-01
3.015113445777636292e-01
-1.906925178491184480e-01
1.100963765126360544e-01
-5.504818825631802720e-02
2.080625946441197471e-02
-2.335496832484568741e-01
2.201927530252721088e-01
-1.651445647689540885e-01
1.019294382875251120e-01
-4.652421051992354506e-02
1.740776559556978520e-01
-2.132007163556104423e-01
1.973855084879307109e-01
-1.471224715841249198e-01
8.058229640253802839e-02
-1.230914909793327378e-01
1.860968420796941802e-01
-2.080625946441197471e-01
1.860968420796941802e-01
-1.230914909793327378e-01
8.058229640253802839e-02
-1.471224715841249198e-01
1.973855084879307109e-01
-2.132007163556104423e-01
1.740776559556978520e-01
-4.652421051992354506e-02
1.019294382875251120e-01
-1.651445647689540885e-01
2.201927530252721088e-01
-2.335496832484568741e-01
2.080625946441197471e-02
-5.504818825631802720e-02
1.100963765126360544e-01
-1.906925178491184480e-01
3.015113445777636292e-01
3.779644730092271976e-01
-3.779644730092271976e-01
3.779644730092271976e-01
-3.779644730092271976e-01
3.779644730092271976e-01
-3.779644730092271976e-01
3.779644730092271976e-01
-1.889822365046135988e-01
3.273268353539885434e-01
2.439750182371332732e-01
-2.182178902359923622e-01
-1.889822365046135988e-01
-2.672612419124243965e-01
1.091089451179961811e-01
2.439750182371332732e-01
2.672612419124243965e-01
0.000000000000000000e+00
-2.672612419124243965e-01
-2.439750182371332732e-01
-1.091089451179961811e-01
2.672612419124243965e-01
1.889822365046135988e-01
2.182178902359923622e-01
-2.439750182371332732e-01
-3.273268353539885434e-01
1.889822365046135988e-01
1.543033499620919125e-01
-2.439750182371332732e-01
2.439750182371332732e-01
-2.182178902359923622e-01
1.889822365046135988e-01
0.000000000000000000e+00
-2.439750182371332732e-01
2.390457218668787243e-01
-6.900655593423542233e-02
-1.463850109422799584e-01
1.889822365046135988e-01
1.543033499620919125e-01
-2.182178902359923622e-01
-6.900655593423542233e-02
1.951800145897066574e-01
-6.900655593423542233e-02
-2.182178902359923622e-01
1.543033499620919125e-01
1.889822365046135988e-01
-1.463850109422799584e-01
-6.900655593423542233e-02
2.390457218668787243e-01
-2.439750182371332732e-01
0.000000000000000000e+00
1.889822365046135988e-01
-2.182178902359923622e-01
2.439750182371332732e-01
-2.439750182371332732e-01
1.543033499620919125e-01
-1.543033499620919125e-01
2.182178902359923622e-01
-2.182178902359923622e-01
1.543033499620919125e-01
2.182178902359923622e-01
-1.543033499620919125e-01
0.000000000000000000e+00
1.543033499620919125e-01
-2.182178902359923622e-01
-2.182178902359923622e-01
0.000000000000000000e+00
1.543033499620919125e-01
-1.543033499620919125e-01
0.000000000000000000e+00
2.182178902359923622e-01
1.543033499620919125e-01
1.543033499620919125e-01
-1.543033499620919125e-01
0.000000000000000000e+00
1.543033499620919125e-01
-1.543033499620919125e-01
-1.543033499620919125e-01
-2.182178902359923622e-01
0.000000000000000000e+00
1.543033499620919125e-01
-1.543033499620919125e-01
0.000000000000000000e+00
2.182178902359923622e-01
2.182178902359923622e-01
-1.543033499620919125e-01
0.000000000000000000e+00
1.543033499620919125e-01
-2.182178902359923622e-01
-1.543033499620919125e-01
2.182178902359923622e-01
-2.182178902359923622e-01
1.543033499620919125e-01
1.740776559556978520e-01
-2.132007163556104423e-01
1.973855084879307109e-01
-1.471224715841249198e-01
8.058229640253802839e-02
-2.247332874877473741e-01
1.005037815259212097e-01
4.652421051992354506e-02
-1.519474352795172623e-01
1.880253582725887329e-01
-1.471224715841249198e-01
1.740776559556978520e-01
1.005037815259212097e-01
-1.698823971458751914e-01
1.040312973220598736e-01
2.686076546751267613e-02
-1.519474352795172623e-01
1.973855084879307109e-01
-2.132007163556104423e-01
4.652421051992354506e-02
1.040312973220598736e-01
-1.611645928050760568e-01
1.040312973220598736e-01
4.652421051992354506e-02
-2.132007163556104423e-01
1.973855084879307109e-01
-1.519474352795172623e-01
2.686076546751267613e-02
1.040312973220598736e-01
-1.698823971458751914e-01
1.005037815259212097e-01
1.740776559556978520e-01
-1.471224715841249198e-01
1.880253582725887329e-01
-1.519474352795172623e-01
4.652421051992354506e-02
1.005037815259212097e-01
-2.247332874877473741e-01
8.058229640253802839e-02
-1.471224715841249198e-01
1.973855084879307109e-01
-2.132007163556104423e-01
1.740776559556978520e-01
-2.132007163556104423e-01
2.132007163556104423e-01
-1.740776559556978520e-01
1.230914909793327378e-01
-7.356123579206245988e-02
3.289758474798844951e-02
2.132007163556104423e-01
0.000000000000000000e+00
-1.230914909793327378e-01
1.740776559556978520e-01
-1.709408646894569062e-01
1.315903389919537980e-01
-7.356123579206245988e-02
-2.132007163556104423e-01
1.230914909793327378e-01
0.000000000000000000e+00
-1.040312973220598736e-01
1.644879237399422545e-01
-1.709408646894569062e-01
1.230914909793327378e-01
1.740776559556978520e-01
-1.740776559556978520e-01
1.040312973220598736e-01
0.000000000000000000e+00
-1.040312973220598736e-01
1.740776559556978520e-01
-1.740776559556978520e-01
-1.230914909793327378e-01
1.709408646894569062e-01
-1.644879237399422545e-01
1.040312973220598736e-01
0.000000000000000000e+00
-1.230914909793327378e-01
2.132007163556104423e-01
7.356123579206245988e-02
-1.315903389919537980e-01
1.709408646894569062e-01
-1.740776559556978520e-01
1.230914909793327378e-01
0.000000000000000000e+00
-2.132007163556104423e-01
-3.289758474798844951e-02
7.356123579206245988e-02
-1.230914909793327378e-01
1.740776559556978520e-01
-2.132007163556104423e-01
2.132007163556104423e-01
2.773500981126145737e-01
-1.961161351381840445e-01
1.322214713369862793e-01
-8.362420100070908080e-02
4.828045495852675839e-02
-2.414022747926337920e-02
9.124148357522648967e-03
-1.961161351381840445e-01
2.048366225996756662e-01
-1.773937187967248030e-01
1.365577483997837682e-01
-9.349469900084571294e-02
5.474489014513589380e-02
-2.414022747926337920e-02
1.322214713369862793e-01
-1.773937187967248030e-01
1.869893980016914259e-01
-1.706971854997297311e-01
1.368622253628397345e-01
-9.349469900084571294e-02
4.828045495852675839e-02
-8.362420100070908080e-02
1.365577483997837682e-01
-1.706971854997297311e-01
1.824829671504529793e-01
-1.706971854997297311e-01
1.365577483997837682e-01
-8.362420100070908080e-02
4.828045495852675839e-02
-9.349469900084571294e-02
1.368622253628397345e-01
-1.706971854997297311e-01
1.869893980016914259e-01
-1.773937187967248030e-01
1.322214713369862793e-01
-2.414022747926337920e-02
5.474489014513589380e-02
-9.349469900084571294e-02
1.365577483997837682e-01
-1.773937187967248030e-01
2.048366225996756662e-01
-1.961161351381840445e-01
9.124148357522648967e-03
-2.414022747926337920e-02
4.828045495852675839e-02
-8.362420100070908080e-02
1.322214713369862793e-01
-1.961161351381840445e-01
2.773500981126145737e-01
6.299407883487119497e-02
-1.666666666666666574e-01
3.333333333333333148e-01
-1.091089451179961811e-01
2.182178902359923622e-01
-2.886751345948128655e-01
1.543033499620919125e-01
-2.439750182371332732e-01
2.439750182371332732e-01
-1.992047682223989369e-01
2.519763153394847799e-01
-1.992047682223989369e-01
2.439750182371332732e-01
-2.439750182371332732e-01
1.543033499620919125e-01
-2.886751345948128655e-01
2.182178902359923622e-01
-1.091089451179961811e-01
3.333333333333333148e-01
-1.666666666666666574e-01
6.299407883487119497e-02
-6.900655593423542233e-02
1.463850109422799584e-01
-2.236067977499789916e-01
2.581988897471610978e-01
1.259881576697423899e-01
-1.972026594366538543e-01
1.951800145897066574e-01
-7.453559924999299258e-02
-2.108185106778919515e-01
-1.781741612749495884e-01
1.992047682223989369e-01
-1.091089451179961811e-01
-6.299407883487119497e-02
2.357022603955158391e-01
2.182178902359923622e-01
-1.543033499620919125e-01
0.000000000000000000e+00
1.543033499620919125e-01
-2.182178902359923622e-01
-2.357022603955158391e-01
6.299407883487119497e-02
1.091089451179961811e-01
-1.992047682223989369e-01
1.781741612749495884e-01
2.108185106778919515e-01
7.453559924999299258e-02
-1.951800145897066574e-01
1.972026594366538543e-01
-1.259881576697423899e-01
-2.581988897471610978e-01
2.236067977499789916e-01
-1.463850109422799584e-01
6.900655593423542233e-02
8.058229640253802839e-02
-1.471224715841249198e-01
1.973855084879307109e-01
-2.132007163556104423e-01
1.740776559556978520e-01
-1.471224715841249198e-01
1.880253582725887329e-01
-1.519474352795172623e-01
4.652421051992354506e-02
1.005037815259212097e-01
-2.247332874877473741e-01
1.973855084879307109e-01
-1.519474352795172623e-01
2.686076546751267613e-02
1.040312973220598736e-01
-1.698823971458751914e-01
1.005037815259212097e-01
1.740776559556978520e-01
-2.132007163556104423e-01
4.652421051992354506e-02
1.040312973220598736e-01
-1.611645928050760568e-01
1.040312973220598736e-01
4.652421051992354506e-02
-2.132007163556104423e-01
1.740776559556978520e-01
1.005037815259212097e-01
-1.698823971458751914e-01
1.040312973220598736e-01
2.686076546751267613e-02
-1.519474352795172623e-01
1.973855084879307109e-01
-2.247332874877473741e-01
1.005037815259212097e-01
4.652421051992354506e-02
-1.519474352795172623e-01
1.880253582725887329e-01
-1.471224715841249198e-01
1.740776559556978520e-01
-2.132007163556104423e-01
1.973855084879307109e-01
-1.471224715841249198e-01
8.058229640253802839e-02
-1.005037815259212097e-01
1.589104315409320678e-01
-1.899342940993965778e-01
1.899342940993965778e-01
-1.589104315409320678e-01
1.005037815259212097e-01
1.740776559556978520e-01
-1.740776559556978520e-01
1.040312973220598736e-01
0.000000000000000000e+00
-1.040312973220598736e-01
1.740776559556978520e-01
-1.740776559556978520e-01
-2.059714602177749043e-01
7.784989441615229600e-02
5.884898863364997068e-02
-1.395726315597706491e-01
1.395726315597706491e-01
-5.884898863364997068e-02
-7.784989441615229600e-02
2.059714602177749043e-01
1.681749930365043499e-01
8.408749651825217497e-02
-1.561624935338968845e-01
1.081124955234670781e-01
0.000000000000000000e+00
-1.081124955234670781e-01
1.561624935338968845e-01
-8.408749651825217497e-02
-1.681749930365043499e-01
-2.059714602177749043e-01
7.784989441615229600e-02
5.884898863364997068e-02
-1.395726315597706491e-01
