1.000000000000000000e+00
-5.773502691896258421e-01
5.773502691896258421e-01
4.472135954999579277e-01
-4.472135954999579277e-01
4.472135954999579277e-01
-3.779644730092271976e-01
3.779644730092271976e-01
-3.779644730092271976e-01
3.779644730092271976e-01
3.333333333333333148e-01
-3.333333333333333148e-01
3.333333333333333148e-01
-3.333333333333333148e-01
3.333333333333333148e-01
-3.015113445777636292e-01
3.015113445777636292e-01
-3.015113445777636292e-01
3.015113445777636292e-01
-3.015113445777636292e-01
3.015113445777636292e-01
2.773500981126145737e-01
-2.773500981126145737e-01
2.773500981126145737e-01
-2.773500981126145737e-01
2.773500981126145737e-01
-2.773500981126145737e-01
2.773500981126145737e-01
-2.581988897471610978e-01
2.581988897471610978e-01
-2.581988897471610978e-01
2.581988897471610978e-01
-2.581988897471610978e-01
2.581988897471610978e-01
-2.581988897471610978e-01
2.581988897471610978e-01
2.425356250363329691e-01
-2.425356250363329691e-01
2.425356250363329691e-01
-2.425356250363329691e-01
2.425356250363329691e-01
-2.425356250363329691e-01
2.425356250363329691e-01
-2.425356250363329691e-01
2.425356250363329691e-01
-2.294157338705617444e-01
2.294157338705617444e-01
-2.294157338705617444e-01
2.294157338705617444e-01
-2.294157338705617444e-01
2.294157338705617444e-01
-2.294157338705617444e-01
2.294157338705617444e-01
-2.294157338705617444e-01
2.294157338705617444e-01
2.182178902359923900e-01
-2.182178902359923900e-01
2.182178902359923900e-01
-2.182178902359923900e-01
2.182178902359923900e-01
-2.182178902359923900e-01
2.182178902359923900e-01
-2.182178902359923900e-01
2.182178902359923900e-01
-2.182178902359923900e-01
2.182178902359923900e-01
