1.000000000000000000e+00
5.773502691896257311e-01
-5.773502691896257311e-01
5.773502691896257311e-01
4.472135954999579832e-01
-4.472135954999579832e-01
4.472135954999579832e-01
-4.472135954999579832e-01
4.472135954999579832e-01
5.773502691896257311e-01
-5.773502691896257311e-01
5.773502691896257311e-01
5.773502691896257311e-01
-5.773502691896257311e-01
5.773502691896257311e-01
-4.082482904638630172e-01
4.082482904638630172e-01
4.082482904638630172e-01
0.000000000000000000e+00
-4.082482904638630172e-01
-4.082482904638630172e-01
4.082482904638630172e-01
4.472135954999579277e-01
-3.162277660168379412e-01
1.825741858350553581e-01
-3.162277660168379412e-01
3.651483716701107163e-01
-3.162277660168379412e-01
1.825741858350553581e-01
-3.162277660168379412e-01
4.472135954999579277e-01
1.825741858350553581e-01
-3.162277660168379412e-01
4.472135954999579277e-01
-3.162277660168379412e-01
3.651483716701107163e-01
-3.162277660168379412e-01
4.472135954999579277e-01
-3.162277660168379412e-01
1.825741858350553581e-01
-2.581988897471610978e-01
3.162277660168379412e-01
-3.162277660168379412e-01
2.581988897471610978e-01
3.651483716701107163e-01
-1.825741858350553581e-01
0.000000000000000000e+00
1.825741858350553581e-01
-3.651483716701107163e-01
-2.581988897471610978e-01
3.162277660168379412e-01
-3.162277660168379412e-01
2.581988897471610978e-01
4.472135954999579832e-01
-4.472135954999579832e-01
4.472135954999579832e-01
-4.472135954999579832e-01
4.472135954999579832e-01
4.472135954999579832e-01
-3.162277660168379412e-01
-3.162277660168379412e-01
1.825741858350553859e-01
3.651483716701107718e-01
1.825741858350553859e-01
-3.162277660168379412e-01
-3.162277660168379412e-01
4.472135954999579832e-01
-3.651483716701107718e-01
2.581988897471611533e-01
2.581988897471611533e-01
1.825741858350553859e-01
-3.162277660168379412e-01
-3.162277660168379412e-01
0.000000000000000000e+00
3.162277660168379412e-01
3.162277660168379412e-01
-1.825741858350553859e-01
-2.581988897471611533e-01
-2.581988897471611533e-01
3.651483716701107718e-01
4.472135954999579832e-01
-4.472135954999579832e-01
4.472135954999579832e-01
-4.472135954999579832e-01
4.472135954999579832e-01
-2.581988897471611533e-01
3.651483716701107718e-01
3.162277660168379412e-01
-1.825741858350553859e-01
-2.581988897471611533e-01
-3.162277660168379412e-01
0.000000000000000000e+00
3.162277660168379412e-01
2.581988897471611533e-01
1.825741858350553859e-01
-3.162277660168379412e-01
-3.651483716701107718e-01
2.581988897471611533e-01
2.390457218668787243e-01
-2.927700218845599722e-01
2.390457218668787243e-01
-2.927700218845599722e-01
1.195228609334393621e-01
1.195228609334393621e-01
-2.927700218845599722e-01
2.390457218668787243e-01
1.195228609334393621e-01
-2.390457218668787243e-01
1.195228609334393621e-01
2.390457218668787243e-01
-2.927700218845599722e-01
1.195228609334393621e-01
1.195228609334393621e-01
-2.927700218845599722e-01
2.390457218668787243e-01
-2.927700218845599722e-01
2.390457218668787243e-01
5.773502691896256200e-01
-5.773502691896256200e-01
5.773502691896256200e-01
5.773502691896256200e-01
-5.773502691896256200e-01
5.773502691896256200e-01
-4.082482904638629062e-01
4.082482904638629062e-01
4.082482904638629062e-01
0.000000000000000000e+00
-4.082482904638629062e-01
-4.082482904638629062e-01
4.082482904638629062e-01
4.472135954999578167e-01
-3.162277660168378857e-01
1.825741858350553581e-01
-3.162277660168378857e-01
3.651483716701107163e-01
-3.162277660168378857e-01
1.825741858350553581e-01
-3.162277660168378857e-01
4.472135954999578167e-01
1.825741858350553581e-01
-3.162277660168378857e-01
4.472135954999578167e-01
-3.162277660168378857e-01
3.651483716701107163e-01
-3.162277660168378857e-01
4.472135954999578167e-01
-3.162277660168378857e-01
1.825741858350553581e-01
-2.581988897471610978e-01
3.162277660168378857e-01
-3.162277660168378857e-01
2.581988897471610978e-01
3.651483716701107163e-01
-1.825741858350553581e-01
0.000000000000000000e+00
1.825741858350553581e-01
-3.651483716701107163e-01
-2.581988897471610978e-01
3.162277660168378857e-01
-3.162277660168378857e-01
2.581988897471610978e-01
5.773502691896257311e-01
-5.773502691896257311e-01
5.773502691896257311e-01
0.000000000000000000e+00
0.000000000000000000e+00
0.000000000000000000e+00
3.333333333333333148e-01
-3.333333333333333148e-01
3.333333333333333148e-01
0.000000000000000000e+00
0.000000000000000000e+00
-3.333333333333333148e-01
3.333333333333333148e-01
-3.333333333333333148e-01
0.000000000000000000e+00
0.000000000000000000e+00
3.333333333333333148e-01
-3.333333333333333148e-01
3.333333333333333148e-01
0.000000000000000000e+00
0.000000000000000000e+00
0.000000000000000000e+00
0.000000000000000000e+00
0.000000000000000000e+00
0.000000000000000000e+00
0.000000000000000000e+00
0.000000000000000000e+00
0.000000000000000000e+00
0.000000000000000000e+00
2.581988897471610978e-01
-2.581988897471610978e-01
2.581988897471610978e-01
-2.581988897471610978e-01
2.581988897471610978e-01
0.000000000000000000e+00
0.000000000000000000e+00
0.000000000000000000e+00
0.000000000000000000e+00
-2.581988897471610978e-01
2.581988897471610978e-01
-2.581988897471610978e-01
2.581988897471610978e-01
-2.581988897471610978e-01
0.000000000000000000e+00
0.000000000000000000e+00
0.000000000000000000e+00
0.000000000000000000e+00
2.581988897471610978e-01
-2.581988897471610978e-01
2.581988897471610978e-01
-2.581988897471610978e-01
2.581988897471610978e-01
0.000000000000000000e+00
0.000000000000000000e+00
0.000000000000000000e+00
0.000000000000000000e+00
0.000000000000000000e+00
0.000000000000000000e+00
0.000000000000000000e+00
-4.082482904638629062e-01
4.082482904638629062e-01
4.082482904638629062e-01
0.000000000000000000e+00
-4.082482904638629062e-01
-4.082482904638629062e-01
4.082482904638629062e-01
-4.082482904638629062e-01
4.082482904638629062e-01
4.082482904638629062e-01
0.000000000000000000e+00
-4.082482904638629062e-01
-4.082482904638629062e-01
4.082482904638629062e-01
0.000000000000000000e+00
2.886751345948128100e-01
-2.886751345948128100e-01
-2.886751345948128100e-01
0.000000000000000000e+00
2.886751345948128100e-01
-2.886751345948128100e-01
2.886751345948128100e-01
0.000000000000000000e+00
0.000000000000000000e+00
0.000000000000000000e+00
2.886751345948128100e-01
-2.886751345948128100e-01
2.886751345948128100e-01
0.000000000000000000e+00
-2.886751345948128100e-01
-2.886751345948128100e-01
2.886751345948128100e-01
0.000000000000000000e+00
0.000000000000000000e+00
0.000000000000000000e+00
-3.162277660168378857e-01
2.236067977499789083e-01
-1.290994448735805489e-01
2.236067977499789083e-01
-2.581988897471610978e-01
2.236067977499789083e-01
3.162277660168378857e-01
-2.236067977499789083e-01
1.290994448735805489e-01
0.000000000000000000e+00
0.000000000000000000e+00
0.000000000000000000e+00
-1.290994448735805489e-01
2.236067977499789083e-01
-3.162277660168378857e-01
-2.236067977499789083e-01
2.581988897471610978e-01
-2.236067977499789083e-01
1.290994448735805489e-01
-2.236067977499789083e-01
3.162277660168378857e-01
0.000000000000000000e+00
0.000000000000000000e+00
0.000000000000000000e+00
0.000000000000000000e+00
-1.290994448735805489e-01
2.236067977499789083e-01
-3.162277660168378857e-01
2.236067977499789083e-01
-2.581988897471610978e-01
2.236067977499789083e-01
1.290994448735805489e-01
-2.236067977499789083e-01
3.162277660168378857e-01
0.000000000000000000e+00
0.000000000000000000e+00
0.000000000000000000e+00
-3.162277660168378857e-01
2.236067977499789083e-01
-1.290994448735805489e-01
-2.236067977499789083e-01
2.581988897471610978e-01
-2.236067977499789083e-01
3.162277660168378857e-01
-2.236067977499789083e-01
1.290994448735805489e-01
0.000000000000000000e+00
0.000000000000000000e+00
0.000000000000000000e+00
0.000000000000000000e+00
0.000000000000000000e+00
1.825741858350553581e-01
-2.236067977499789083e-01
2.236067977499789083e-01
-1.825741858350553581e-01
-2.581988897471610978e-01
1.290994448735805489e-01
0.000000000000000000e+00
-1.290994448735805489e-01
2.581988897471610978e-01
-1.825741858350553581e-01
2.236067977499789083e-01
-2.236067977499789083e-01
1.825741858350553581e-01
0.000000000000000000e+00
0.000000000000000000e+00
0.000000000000000000e+00
0.000000000000000000e+00
0.000000000000000000e+00
1.825741858350553581e-01
-2.236067977499789083e-01
2.236067977499789083e-01
-1.825741858350553581e-01
2.581988897471610978e-01
-1.290994448735805489e-01
0.000000000000000000e+00
1.290994448735805489e-01
-2.581988897471610978e-01
-1.825741858350553581e-01
2.236067977499789083e-01
-2.236067977499789083e-01
1.825741858350553581e-01
0.000000000000000000e+00
0.000000000000000000e+00
0.000000000000000000e+00
4.472135954999579832e-01
-3.162277660168379412e-01
1.825741858350553859e-01
-3.162277660168379412e-01
3.651483716701107718e-01
-3.162277660168379412e-01
1.825741858350553859e-01
-3.162277660168379412e-01
4.472135954999579832e-01
4.472135954999579832e-01
-2.236067977499789916e-01
-2.236067977499789916e-01
7.453559924999299258e-02
1.490711984999859852e-01
7.453559924999299258e-02
-2.236067977499789916e-01
-2.236067977499789916e-01
1.490711984999859852e-01
2.981423969999719703e-01
1.490711984999859852e-01
-2.236067977499789916e-01
-2.236067977499789916e-01
7.453559924999299258e-02
1.490711984999859852e-01
7.453559924999299258e-02
-2.236067977499789916e-01
-2.236067977499789916e-01
4.472135954999579832e-01
-3.651483716701107718e-01
2.581988897471611533e-01
1.825741858350553859e-01
1.290994448735805766e-01
-2.236067977499789916e-01
-1.290994448735805766e-01
0.000000000000000000e+00
1.290994448735805766e-01
1.825741858350553859e-01
1.290994448735805766e-01
-2.236067977499789916e-01
-2.581988897471611533e-01
0.000000000000000000e+00
2.581988897471611533e-01
2.236067977499789916e-01
-1.290994448735805766e-01
-1.825741858350553859e-01
-1.290994448735805766e-01
0.000000000000000000e+00
1.290994448735805766e-01
2.236067977499789916e-01
-1.290994448735805766e-01
-1.825741858350553859e-01
-2.581988897471611533e-01
3.651483716701107718e-01
4.472135954999579832e-01
-3.162277660168379412e-01
1.825741858350553859e-01
-3.162277660168379412e-01
3.651483716701107718e-01
-3.162277660168379412e-01
1.825741858350553859e-01
-3.162277660168379412e-01
4.472135954999579832e-01
-2.581988897471611533e-01
3.651483716701107718e-01
2.236067977499789916e-01
-1.290994448735805766e-01
-1.825741858350553859e-01
-1.290994448735805766e-01
0.000000000000000000e+00
1.290994448735805766e-01
2.236067977499789916e-01
-1.290994448735805766e-01
-1.825741858350553859e-01
-2.581988897471611533e-01
0.000000000000000000e+00
2.581988897471611533e-01
1.825741858350553859e-01
1.290994448735805766e-01
-2.236067977499789916e-01
-1.290994448735805766e-01
0.000000000000000000e+00
1.290994448735805766e-01
1.825741858350553859e-01
1.290994448735805766e-01
-2.236067977499789916e-01
-3.651483716701107718e-01
2.581988897471611533e-01
2.390457218668787520e-01
-2.927700218845599722e-01
2.390457218668787520e-01
-2.070196678027062809e-01
8.451542547285166573e-02
8.451542547285166573e-02
-2.070196678027062809e-01
9.759000729485332870e-02
4.879500364742666435e-02
-9.759000729485332870e-02
4.879500364742666435e-02
9.759000729485332870e-02
-2.070196678027062809e-01
8.451542547285166573e-02
8.451542547285166573e-02
-2.070196678027062809e-01
1.951800145897066574e-01
9.759000729485332870e-02
-1.951800145897066574e-01
9.759000729485332870e-02
1.951800145897066574e-01
-2.070196678027062809e-01
8.451542547285166573e-02
8.451542547285166573e-02
-2.070196678027062809e-01
9.759000729485332870e-02
4.879500364742666435e-02
-9.759000729485332870e-02
4.879500364742666435e-02
9.759000729485332870e-02
-2.070196678027062809e-01
8.451542547285166573e-02
8.451542547285166573e-02
-2.070196678027062809e-01
2.390457218668787520e-01
-2.927700218845599722e-01
2.390457218668787520e-01
1.825741858350553581e-01
-3.162277660168378857e-01
4.472135954999578167e-01
-3.162277660168378857e-01
3.651483716701107163e-01
-3.162277660168378857e-01
4.472135954999578167e-01
-3.162277660168378857e-01
1.825741858350553581e-01
1.825741858350553581e-01
-3.162277660168378857e-01
4.472135954999578167e-01
-3.162277660168378857e-01
3.651483716701107163e-01
-3.162277660168378857e-01
4.472135954999578167e-01
-3.162277660168378857e-01
1.825741858350553581e-01
0.000000000000000000e+00
-1.290994448735805489e-01
1.290994448735805489e-01
2.236067977499789083e-01
0.000000000000000000e+00
-2.236067977499789083e-01
-3.162277660168378857e-01
3.162277660168378857e-01
0.000000000000000000e+00
2.236067977499789083e-01
-2.236067977499789083e-01
-2.581988897471610978e-01
0.000000000000000000e+00
2.581988897471610978e-01
2.236067977499789083e-01
-2.236067977499789083e-01
0.000000000000000000e+00
-3.162277660168378857e-01
3.162277660168378857e-01
2.236067977499789083e-01
0.000000000000000000e+00
-2.236067977499789083e-01
-1.290994448735805489e-01
1.290994448735805489e-01
0.000000000000000000e+00
0.000000000000000000e+00
0.000000000000000000e+00
0.000000000000000000e+00
1.414213562373094757e-01
-9.999999999999997780e-02
5.773502691896257449e-02
-1.732050807568877027e-01
1.999999999999999556e-01
-1.732050807568877027e-01
1.414213562373094757e-01
-2.449489742783177437e-01
3.464101615137754053e-01
0.000000000000000000e+00
0.000000000000000000e+00
-2.449489742783177437e-01
1.732050807568877027e-01
-9.999999999999997780e-02
1.999999999999999556e-01
-2.309401076758502980e-01
1.999999999999999556e-01
-9.999999999999997780e-02
1.732050807568877027e-01
-2.449489742783177437e-01
0.000000000000000000e+00
0.000000000000000000e+00
3.464101615137754053e-01
-2.449489742783177437e-01
1.414213562373094757e-01
-1.732050807568877027e-01
1.999999999999999556e-01
-1.732050807568877027e-01
5.773502691896257449e-02
-9.999999999999997780e-02
1.414213562373094757e-01
0.000000000000000000e+00
0.000000000000000000e+00
0.000000000000000000e+00
0.000000000000000000e+00
0.000000000000000000e+00
0.000000000000000000e+00
5.773502691896257449e-02
-9.999999999999997780e-02
1.414213562373094757e-01
-1.732050807568877027e-01
1.999999999999999556e-01
-1.732050807568877027e-01
3.464101615137754053e-01
-2.449489742783177437e-01
1.414213562373094757e-01
0.000000000000000000e+00
0.000000000000000000e+00
-9.999999999999997780e-02
1.732050807568877027e-01
-2.449489742783177437e-01
1.999999999999999556e-01
-2.309401076758502980e-01
1.999999999999999556e-01
-2.449489742783177437e-01
1.732050807568877027e-01
-9.999999999999997780e-02
0.000000000000000000e+00
0.000000000000000000e+00
1.414213562373094757e-01
-2.449489742783177437e-01
3.464101615137754053e-01
-1.732050807568877027e-01
1.999999999999999556e-01
-1.732050807568877027e-01
1.414213562373094757e-01
-9.999999999999997780e-02
5.773502691896257449e-02
0.000000000000000000e+00
0.000000000000000000e+00
0.000000000000000000e+00
0.000000000000000000e+00
0.000000000000000000e+00
0.000000000000000000e+00
0.000000000000000000e+00
0.000000000000000000e+00
-8.164965809277260900e-02
9.999999999999997780e-02
-9.999999999999997780e-02
8.164965809277260900e-02
1.999999999999999556e-01
-9.999999999999997780e-02
0.000000000000000000e+00
9.999999999999997780e-02
-1.999999999999999556e-01
-1.999999999999999556e-01
2.449489742783177437e-01
-2.449489742783177437e-01
1.999999999999999556e-01
0.000000000000000000e+00
0.000000000000000000e+00
0.000000000000000000e+00
1.414213562373094757e-01
-1.732050807568877027e-01
1.732050807568877027e-01
-1.414213562373094757e-01
-2.309401076758502980e-01
1.154700538379251490e-01
0.000000000000000000e+00
-1.154700538379251490e-01
2.309401076758502980e-01
1.414213562373094757e-01
-1.732050807568877027e-01
1.732050807568877027e-01
-1.414213562373094757e-01
0.000000000000000000e+00
0.000000000000000000e+00
0.000000000000000000e+00
-1.999999999999999556e-01
2.449489742783177437e-01
-2.449489742783177437e-01
1.999999999999999556e-01
1.999999999999999556e-01
-9.999999999999997780e-02
0.000000000000000000e+00
9.999999999999997780e-02
-1.999999999999999556e-01
-8.164965809277260900e-02
9.999999999999997780e-02
-9.999999999999997780e-02
8.164965809277260900e-02
0.000000000000000000e+00
0.000000000000000000e+00
0.000000000000000000e+00
0.000000000000000000e+00
0.000000000000000000e+00
-2.581988897471611533e-01
3.162277660168379412e-01
-3.162277660168379412e-01
2.581988897471611533e-01
3.651483716701107718e-01
-1.825741858350553859e-01
0.000000000000000000e+00
1.825741858350553859e-01
-3.651483716701107718e-01
-2.581988897471611533e-01
3.162277660168379412e-01
-3.162277660168379412e-01
2.581988897471611533e-01
-2.581988897471611533e-01
2.236067977499789916e-01
2.236067977499789916e-01
-1.290994448735805766e-01
-2.581988897471611533e-01
-1.290994448735805766e-01
1.825741858350553859e-01
1.825741858350553859e-01
3.651483716701107718e-01
-1.290994448735805766e-01
-1.290994448735805766e-01
0.000000000000000000e+00
0.000000000000000000e+00
0.000000000000000000e+00
1.290994448735805766e-01
1.290994448735805766e-01
-3.651483716701107718e-01
-1.825741858350553859e-01
-1.825741858350553859e-01
1.290994448735805766e-01
2.581988897471611533e-01
1.290994448735805766e-01
-2.236067977499789916e-01
-2.236067977499789916e-01
2.581988897471611533e-01
0.000000000000000000e+00
2.108185106778919515e-01
-1.490711984999859852e-01
-1.825741858350553859e-01
-1.290994448735805766e-01
2.236067977499789916e-01
2.236067977499789916e-01
0.000000000000000000e+00
-2.236067977499789916e-01
-1.825741858350553859e-01
1.054092553389459758e-01
1.490711984999859852e-01
-2.981423969999719703e-01
2.108185106778919515e-01
1.054092553389459758e-01
7.453559924999299258e-02
-1.290994448735805766e-01
0.000000000000000000e+00
0.000000000000000000e+00
0.000000000000000000e+00
-1.290994448735805766e-01
7.453559924999299258e-02
1.054092553389459758e-01
2.108185106778919515e-01
-2.981423969999719703e-01
1.490711984999859852e-01
1.054092553389459758e-01
-1.825741858350553859e-01
-2.236067977499789916e-01
0.000000000000000000e+00
2.236067977499789916e-01
2.236067977499789916e-01
-1.290994448735805766e-01
-1.825741858350553859e-01
-1.490711984999859852e-01
2.108185106778919515e-01
0.000000000000000000e+00
-2.581988897471611533e-01
3.162277660168379412e-01
-3.162277660168379412e-01
2.581988897471611533e-01
3.651483716701107718e-01
-1.825741858350553859e-01
0.000000000000000000e+00
1.825741858350553859e-01
-3.651483716701107718e-01
-2.581988897471611533e-01
3.162277660168379412e-01
-3.162277660168379412e-01
2.581988897471611533e-01
0.000000000000000000e+00
1.490711984999859852e-01
-2.108185106778919515e-01
-2.236067977499789916e-01
1.290994448735805766e-01
1.825741858350553859e-01
2.236067977499789916e-01
0.000000000000000000e+00
-2.236067977499789916e-01
-1.490711984999859852e-01
-1.054092553389459758e-01
1.825741858350553859e-01
-2.108185106778919515e-01
2.981423969999719703e-01
1.290994448735805766e-01
-7.453559924999299258e-02
-1.054092553389459758e-01
0.000000000000000000e+00
0.000000000000000000e+00
0.000000000000000000e+00
-1.054092553389459758e-01
-7.453559924999299258e-02
1.290994448735805766e-01
2.981423969999719703e-01
-2.108185106778919515e-01
1.825741858350553859e-01
-1.054092553389459758e-01
-1.490711984999859852e-01
-2.236067977499789916e-01
0.000000000000000000e+00
2.236067977499789916e-01
1.825741858350553859e-01
1.290994448735805766e-01
-2.236067977499789916e-01
-2.108185106778919515e-01
1.490711984999859852e-01
0.000000000000000000e+00
0.000000000000000000e+00
0.000000000000000000e+00
-1.380131118684708447e-01
1.690308509457033315e-01
-1.380131118684708447e-01
2.070196678027062809e-01
-8.451542547285166573e-02
-8.451542547285166573e-02
2.070196678027062809e-01
-1.690308509457033315e-01
-8.451542547285166573e-02
1.690308509457033315e-01
-8.451542547285166573e-02
-1.690308509457033315e-01
1.690308509457033315e-01
-6.900655593423542233e-02
-6.900655593423542233e-02
1.690308509457033315e-01
1.951800145897066574e-01
-2.390457218668787520e-01
1.951800145897066574e-01
-1.195228609334393760e-01
4.879500364742666435e-02
4.879500364742666435e-02
-1.195228609334393760e-01
0.000000000000000000e+00
0.000000000000000000e+00
0.000000000000000000e+00
0.000000000000000000e+00
0.000000000000000000e+00
1.195228609334393760e-01
-4.879500364742666435e-02
-4.879500364742666435e-02
1.195228609334393760e-01
-1.951800145897066574e-01
2.390457218668787520e-01
-1.951800145897066574e-01
-1.690308509457033315e-01
6.900655593423542233e-02
6.900655593423542233e-02
-1.690308509457033315e-01
1.690308509457033315e-01
8.451542547285166573e-02
-1.690308509457033315e-01
8.451542547285166573e-02
1.690308509457033315e-01
-2.070196678027062809e-01
8.451542547285166573e-02
8.451542547285166573e-02
-2.070196678027062809e-01
1.380131118684708447e-01
-1.690308509457033315e-01
1.380131118684708447e-01
0.000000000000000000e+00
0.000000000000000000e+00
4.472135954999580387e-01
-4.472135954999580387e-01
4.472135954999580387e-01
-4.472135954999580387e-01
4.472135954999580387e-01
4.472135954999580387e-01
-3.162277660168379967e-01
-3.162277660168379967e-01
1.825741858350554137e-01
3.651483716701108273e-01
1.825741858350554137e-01
-3.162277660168379967e-01
-3.162277660168379967e-01
4.472135954999580387e-01
-3.651483716701108273e-01
2.581988897471611533e-01
2.581988897471611533e-01
1.825741858350554137e-01
-3.162277660168379967e-01
-3.162277660168379967e-01
0.000000000000000000e+00
3.162277660168379967e-01
3.162277660168379967e-01
-1.825741858350554137e-01
-2.581988897471611533e-01
-2.581988897471611533e-01
3.651483716701108273e-01
4.472135954999580387e-01
-4.472135954999580387e-01
4.472135954999580387e-01
-4.472135954999580387e-01
4.472135954999580387e-01
-2.581988897471611533e-01
3.651483716701108273e-01
3.162277660168379967e-01
-1.825741858350554137e-01
-2.581988897471611533e-01
-3.162277660168379967e-01
0.000000000000000000e+00
3.162277660168379967e-01
2.581988897471611533e-01
1.825741858350554137e-01
-3.162277660168379967e-01
-3.651483716701108273e-01
2.581988897471611533e-01
2.390457218668787798e-01
-2.927700218845600277e-01
2.390457218668787798e-01
-2.927700218845600277e-01
1.195228609334393899e-01
1.195228609334393899e-01
-2.927700218845600277e-01
2.390457218668787798e-01
1.195228609334393899e-01
-2.390457218668787798e-01
1.195228609334393899e-01
2.390457218668787798e-01
-2.927700218845600277e-01
1.195228609334393899e-01
1.195228609334393899e-01
-2.927700218845600277e-01
2.390457218668787798e-01
-2.927700218845600277e-01
2.390457218668787798e-01
4.472135954999579832e-01
-3.162277660168379412e-01
-3.162277660168379412e-01
1.825741858350553859e-01
3.651483716701107718e-01
1.825741858350553859e-01
-3.162277660168379412e-01
-3.162277660168379412e-01
4.472135954999579832e-01
4.472135954999579832e-01
-3.162277660168379412e-01
-3.162277660168379412e-01
1.825741858350553859e-01
3.651483716701107718e-01
1.825741858350553859e-01
-3.162277660168379412e-01
-3.162277660168379412e-01
4.472135954999579832e-01
0.000000000000000000e+00
-3.162277660168379412e-01
3.162277660168379412e-01
0.000000000000000000e+00
2.236067977499789916e-01
-2.236067977499789916e-01
2.236067977499789916e-01
0.000000000000000000e+00
-2.236067977499789916e-01
-1.290994448735805766e-01
1.290994448735805766e-01
-2.581988897471611533e-01
0.000000000000000000e+00
2.581988897471611533e-01
-1.290994448735805766e-01
1.290994448735805766e-01
2.236067977499789916e-01
0.000000000000000000e+00
-2.236067977499789916e-01
2.236067977499789916e-01
-2.236067977499789916e-01
0.000000000000000000e+00
-3.162277660168379412e-01
3.162277660168379412e-01
0.000000000000000000e+00
0.000000000000000000e+00
0.000000000000000000e+00
0.000000000000000000e+00
3.464101615137754608e-01
-2.449489742783177992e-01
1.414213562373095312e-01
0.000000000000000000e+00
0.000000000000000000e+00
-2.449489742783177992e-01
1.732050807568877304e-01
-1.000000000000000194e-01
-1.732050807568877304e-01
2.000000000000000389e-01
-1.732050807568877304e-01
1.414213562373095312e-01
-1.000000000000000194e-01
5.773502691896258143e-02
2.000000000000000389e-01
-2.309401076758503257e-01
2.000000000000000389e-01
5.773502691896258143e-02
-1.000000000000000194e-01
1.414213562373095312e-01
-1.732050807568877304e-01
2.000000000000000389e-01
-1.732050807568877304e-01
-1.000000000000000194e-01
1.732050807568877304e-01
-2.449489742783177992e-01
0.000000000000000000e+00
0.000000000000000000e+00
1.414213562373095312e-01
-2.449489742783177992e-01
3.464101615137754608e-01
0.000000000000000000e+00
0.000000000000000000e+00
0.000000000000000000e+00
0.000000000000000000e+00
0.000000000000000000e+00
0.000000000000000000e+00
1.414213562373095312e-01
-2.449489742783177992e-01
3.464101615137754608e-01
0.000000000000000000e+00
0.000000000000000000e+00
-1.000000000000000194e-01
1.732050807568877304e-01
-2.449489742783177992e-01
-1.732050807568877304e-01
2.000000000000000389e-01
-1.732050807568877304e-01
5.773502691896258143e-02
-1.000000000000000194e-01
1.414213562373095312e-01
2.000000000000000389e-01
-2.309401076758503257e-01
2.000000000000000389e-01
1.414213562373095312e-01
-1.000000000000000194e-01
5.773502691896258143e-02
-1.732050807568877304e-01
2.000000000000000389e-01
-1.732050807568877304e-01
-2.449489742783177992e-01
1.732050807568877304e-01
-1.000000000000000194e-01
0.000000000000000000e+00
0.000000000000000000e+00
3.464101615137754608e-01
-2.449489742783177992e-01
1.414213562373095312e-01
0.000000000000000000e+00
0.000000000000000000e+00
0.000000000000000000e+00
0.000000000000000000e+00
0.000000000000000000e+00
0.000000000000000000e+00
0.000000000000000000e+00
0.000000000000000000e+00
-2.000000000000000389e-01
2.449489742783177992e-01
-2.449489742783177992e-01
2.000000000000000389e-01
0.000000000000000000e+00
0.000000000000000000e+00
0.000000000000000000e+00
1.414213562373095312e-01
-1.732050807568877304e-01
1.732050807568877304e-01
-1.414213562373095312e-01
2.000000000000000389e-01
-1.000000000000000194e-01
0.000000000000000000e+00
1.000000000000000194e-01
-2.000000000000000389e-01
-8.164965809277260900e-02
1.000000000000000194e-01
-1.000000000000000194e-01
8.164965809277260900e-02
-2.309401076758503257e-01
1.154700538379251629e-01
0.000000000000000000e+00
-1.154700538379251629e-01
2.309401076758503257e-01
-8.164965809277260900e-02
1.000000000000000194e-01
-1.000000000000000194e-01
8.164965809277260900e-02
2.000000000000000389e-01
-1.000000000000000194e-01
0.000000000000000000e+00
1.000000000000000194e-01
-2.000000000000000389e-01
1.414213562373095312e-01
-1.732050807568877304e-01
1.732050807568877304e-01
-1.414213562373095312e-01
0.000000000000000000e+00
0.000000000000000000e+00
0.000000000000000000e+00
-2.000000000000000389e-01
2.449489742783177992e-01
-2.449489742783177992e-01
2.000000000000000389e-01
0.000000000000000000e+00
0.000000000000000000e+00
0.000000000000000000e+00
0.000000000000000000e+00
0.000000000000000000e+00
-3.651483716701108273e-01
2.581988897471611533e-01
2.581988897471611533e-01
1.825741858350554137e-01
-3.162277660168379967e-01
-3.162277660168379967e-01
0.000000000000000000e+00
3.162277660168379967e-01
3.162277660168379967e-01
-1.825741858350554137e-01
-2.581988897471611533e-01
-2.581988897471611533e-01
3.651483716701108273e-01
-3.651483716701108273e-01
1.825741858350554137e-01
1.825741858350554137e-01
2.581988897471611533e-01
1.290994448735805766e-01
1.290994448735805766e-01
-1.290994448735805766e-01
-2.581988897471611533e-01
-1.290994448735805766e-01
-2.236067977499790194e-01
-2.236067977499790194e-01
0.000000000000000000e+00
0.000000000000000000e+00
0.000000000000000000e+00
2.236067977499790194e-01
2.236067977499790194e-01
1.290994448735805766e-01
2.581988897471611533e-01
1.290994448735805766e-01
-1.290994448735805766e-01
-1.290994448735805766e-01
-2.581988897471611533e-01
-1.825741858350554137e-01
-1.825741858350554137e-01
3.651483716701108273e-01
0.000000000000000000e+00
2.981423969999720258e-01
-2.108185106778920070e-01
-1.490711984999860129e-01
-1.054092553389460035e-01
1.825741858350554137e-01
-2.108185106778920070e-01
1.490711984999860129e-01
-1.054092553389460035e-01
-7.453559924999300645e-02
1.290994448735805766e-01
2.236067977499790194e-01
0.000000000000000000e+00
-2.236067977499790194e-01
1.825741858350554137e-01
1.290994448735805766e-01
-2.236067977499790194e-01
0.000000000000000000e+00
0.000000000000000000e+00
0.000000000000000000e+00
-2.236067977499790194e-01
1.290994448735805766e-01
1.825741858350554137e-01
-2.236067977499790194e-01
0.000000000000000000e+00
2.236067977499790194e-01
1.290994448735805766e-01
-7.453559924999300645e-02
-1.054092553389460035e-01
1.490711984999860129e-01
-2.108185106778920070e-01
1.825741858350554137e-01
-1.054092553389460035e-01
-1.490711984999860129e-01
-2.108185106778920070e-01
2.981423969999720258e-01
0.000000000000000000e+00
-3.651483716701108273e-01
2.581988897471611533e-01
2.581988897471611533e-01
1.825741858350554137e-01
-3.162277660168379967e-01
-3.162277660168379967e-01
0.000000000000000000e+00
3.162277660168379967e-01
3.162277660168379967e-01
-1.825741858350554137e-01
-2.581988897471611533e-01
-2.581988897471611533e-01
3.651483716701108273e-01
0.000000000000000000e+00
2.108185106778920070e-01
-2.981423969999720258e-01
-1.825741858350554137e-01
1.054092553389460035e-01
1.490711984999860129e-01
-1.490711984999860129e-01
2.108185106778920070e-01
-1.290994448735805766e-01
7.453559924999300645e-02
1.054092553389460035e-01
2.236067977499790194e-01
0.000000000000000000e+00
-2.236067977499790194e-01
2.236067977499790194e-01
-1.290994448735805766e-01
-1.825741858350554137e-01
0.000000000000000000e+00
0.000000000000000000e+00
0.000000000000000000e+00
-1.825741858350554137e-01
-1.290994448735805766e-01
2.236067977499790194e-01
-2.236067977499790194e-01
0.000000000000000000e+00
2.236067977499790194e-01
1.054092553389460035e-01
7.453559924999300645e-02
-1.290994448735805766e-01
2.108185106778920070e-01
-1.490711984999860129e-01
1.490711984999860129e-01
1.054092553389460035e-01
-1.825741858350554137e-01
-2.981423969999720258e-01
2.108185106778920070e-01
0.000000000000000000e+00
0.000000000000000000e+00
0.000000000000000000e+00
-1.951800145897066574e-01
2.390457218668787798e-01
-1.951800145897066574e-01
1.690308509457033592e-01
-6.900655593423542233e-02
-6.900655593423542233e-02
1.690308509457033592e-01
1.380131118684708447e-01
-1.690308509457033592e-01
1.380131118684708447e-01
1.195228609334393899e-01
-4.879500364742666435e-02
-4.879500364742666435e-02
1.195228609334393899e-01
-1.690308509457033592e-01
-8.451542547285167961e-02
1.690308509457033592e-01
-8.451542547285167961e-02
-1.690308509457033592e-01
-2.070196678027063086e-01
8.451542547285167961e-02
8.451542547285167961e-02
-2.070196678027063086e-01
0.000000000000000000e+00
0.000000000000000000e+00
0.000000000000000000e+00
0.000000000000000000e+00
0.000000000000000000e+00
2.070196678027063086e-01
-8.451542547285167961e-02
-8.451542547285167961e-02
2.070196678027063086e-01
1.690308509457033592e-01
8.451542547285167961e-02
-1.690308509457033592e-01
8.451542547285167961e-02
1.690308509457033592e-01
-1.195228609334393899e-01
4.879500364742666435e-02
4.879500364742666435e-02
-1.195228609334393899e-01
-1.380131118684708447e-01
1.690308509457033592e-01
-1.380131118684708447e-01
-1.690308509457033592e-01
6.900655593423542233e-02
6.900655593423542233e-02
-1.690308509457033592e-01
1.951800145897066574e-01
-2.390457218668787798e-01
1.951800145897066574e-01
0.000000000000000000e+00
0.000000000000000000e+00
4.472135954999579832e-01
-4.472135954999579832e-01
4.472135954999579832e-01
-4.472135954999579832e-01
4.472135954999579832e-01
0.000000000000000000e+00
0.000000000000000000e+00
0.000000000000000000e+00
2.581988897471611533e-01
-2.581988897471611533e-01
2.581988897471611533e-01
0.000000000000000000e+00
0.000000000000000000e+00
0.000000000000000000e+00
-2.581988897471611533e-01
2.581988897471611533e-01
-2.581988897471611533e-01
0.000000000000000000e+00
0.000000000000000000e+00
0.000000000000000000e+00
0.000000000000000000e+00
0.000000000000000000e+00
2.581988897471611533e-01
-2.581988897471611533e-01
2.581988897471611533e-01
0.000000000000000000e+00
0.000000000000000000e+00
0.000000000000000000e+00
0.000000000000000000e+00
0.000000000000000000e+00
-2.581988897471611533e-01
2.581988897471611533e-01
-2.581988897471611533e-01
0.000000000000000000e+00
0.000000000000000000e+00
0.000000000000000000e+00
2.581988897471611533e-01
-2.581988897471611533e-01
2.581988897471611533e-01
0.000000000000000000e+00
0.000000000000000000e+00
0.000000000000000000e+00
0.000000000000000000e+00
0.000000000000000000e+00
0.000000000000000000e+00
0.000000000000000000e+00
0.000000000000000000e+00
0.000000000000000000e+00
0.000000000000000000e+00
0.000000000000000000e+00
0.000000000000000000e+00
0.000000000000000000e+00
2.000000000000000111e-01
-2.000000000000000111e-01
2.000000000000000111e-01
-2.000000000000000111e-01
2.000000000000000111e-01
0.000000000000000000e+00
0.000000000000000000e+00
0.000000000000000000e+00
0.000000000000000000e+00
0.000000000000000000e+00
0.000000000000000000e+00
0.000000000000000000e+00
0.000000000000000000e+00
0.000000000000000000e+00
-2.000000000000000111e-01
2.000000000000000111e-01
-2.000000000000000111e-01
2.000000000000000111e-01
-2.000000000000000111e-01
0.000000000000000000e+00
0.000000000000000000e+00
0.000000000000000000e+00
0.000000000000000000e+00
0.000000000000000000e+00
0.000000000000000000e+00
0.000000000000000000e+00
0.000000000000000000e+00
0.000000000000000000e+00
0.000000000000000000e+00
0.000000000000000000e+00
2.000000000000000111e-01
-2.000000000000000111e-01
2.000000000000000111e-01
-2.000000000000000111e-01
2.000000000000000111e-01
0.000000000000000000e+00
0.000000000000000000e+00
0.000000000000000000e+00
0.000000000000000000e+00
0.000000000000000000e+00
0.000000000000000000e+00
0.000000000000000000e+00
0.000000000000000000e+00
0.000000000000000000e+00
0.000000000000000000e+00
0.000000000000000000e+00
-2.000000000000000111e-01
2.000000000000000111e-01
-2.000000000000000111e-01
2.000000000000000111e-01
-2.000000000000000111e-01
0.000000000000000000e+00
0.000000000000000000e+00
0.000000000000000000e+00
0.000000000000000000e+00
0.000000000000000000e+00
0.000000000000000000e+00
0.000000000000000000e+00
0.000000000000000000e+00
0.000000000000000000e+00
2.000000000000000111e-01
-2.000000000000000111e-01
2.000000000000000111e-01
-2.000000000000000111e-01
2.000000000000000111e-01
0.000000000000000000e+00
0.000000000000000000e+00
0.000000000000000000e+00
0.000000000000000000e+00
0.000000000000000000e+00
0.000000000000000000e+00
0.000000000000000000e+00
0.000000000000000000e+00
0.000000000000000000e+00
0.000000000000000000e+00
-2.581988897471611533e-01
3.651483716701107718e-01
3.162277660168379412e-01
-1.825741858350553859e-01
-2.581988897471611533e-01
-3.162277660168379412e-01
0.000000000000000000e+00
3.162277660168379412e-01
2.581988897471611533e-01
1.825741858350553859e-01
-3.162277660168379412e-01
-3.651483716701107718e-01
2.581988897471611533e-01
-2.581988897471611533e-01
3.651483716701107718e-01
3.162277660168379412e-01
-1.825741858350553859e-01
-2.581988897471611533e-01
-3.162277660168379412e-01
0.000000000000000000e+00
3.162277660168379412e-01
2.581988897471611533e-01
1.825741858350553859e-01
-3.162277660168379412e-01
-3.651483716701107718e-01
2.581988897471611533e-01
0.000000000000000000e+00
1.825741858350553859e-01
-1.825741858350553859e-01
-2.581988897471611533e-01
0.000000000000000000e+00
2.581988897471611533e-01
0.000000000000000000e+00
-2.236067977499789916e-01
2.236067977499789916e-01
1.290994448735805766e-01
0.000000000000000000e+00
-1.290994448735805766e-01
1.825741858350553859e-01
-1.825741858350553859e-01
0.000000000000000000e+00
2.236067977499789916e-01
-2.236067977499789916e-01
0.000000000000000000e+00
0.000000000000000000e+00
0.000000000000000000e+00
-2.236067977499789916e-01
2.236067977499789916e-01
0.000000000000000000e+00
-1.825741858350553859e-01
1.825741858350553859e-01
-1.290994448735805766e-01
0.000000000000000000e+00
1.290994448735805766e-01
2.236067977499789916e-01
-2.236067977499789916e-01
0.000000000000000000e+00
2.581988897471611533e-01
0.000000000000000000e+00
-2.581988897471611533e-01
-1.825741858350553859e-01
1.825741858350553859e-01
0.000000000000000000e+00
0.000000000000000000e+00
0.000000000000000000e+00
0.000000000000000000e+00
-2.000000000000000389e-01
1.414213562373095312e-01
-8.164965809277260900e-02
2.000000000000000389e-01
-2.309401076758503257e-01
2.000000000000000389e-01
0.000000000000000000e+00
0.000000000000000000e+00
0.000000000000000000e+00
2.449489742783177992e-01
-1.732050807568877304e-01
1.000000000000000194e-01
-1.000000000000000194e-01
1.154700538379251629e-01
-1.000000000000000194e-01
-8.164965809277260900e-02
1.414213562373095312e-01
-2.000000000000000389e-01
0.000000000000000000e+00
0.000000000000000000e+00
-2.449489742783177992e-01
1.732050807568877304e-01
-1.000000000000000194e-01
0.000000000000000000e+00
0.000000000000000000e+00
0.000000000000000000e+00
1.000000000000000194e-01
-1.732050807568877304e-01
2.449489742783177992e-01
0.000000000000000000e+00
0.000000000000000000e+00
2.000000000000000389e-01
-1.414213562373095312e-01
8.164965809277260900e-02
1.000000000000000194e-01
-1.154700538379251629e-01
1.000000000000000194e-01
-1.000000000000000194e-01
1.732050807568877304e-01
-2.449489742783177992e-01
0.000000000000000000e+00
0.000000000000000000e+00
0.000000000000000000e+00
-2.000000000000000389e-01
2.309401076758503257e-01
-2.000000000000000389e-01
8.164965809277260900e-02
-1.414213562373095312e-01
2.000000000000000389e-01
0.000000000000000000e+00
0.000000000000000000e+00
0.000000000000000000e+00
0.000000000000000000e+00
0.000000000000000000e+00
0.000000000000000000e+00
-8.164965809277260900e-02
1.414213562373095312e-01
-2.000000000000000389e-01
2.000000000000000389e-01
-2.309401076758503257e-01
2.000000000000000389e-01
0.000000000000000000e+00
0.000000000000000000e+00
0.000000000000000000e+00
1.000000000000000194e-01
-1.732050807568877304e-01
2.449489742783177992e-01
-1.000000000000000194e-01
1.154700538379251629e-01
-1.000000000000000194e-01
-2.000000000000000389e-01
1.414213562373095312e-01
-8.164965809277260900e-02
0.000000000000000000e+00
0.000000000000000000e+00
-1.000000000000000194e-01
1.732050807568877304e-01
-2.449489742783177992e-01
0.000000000000000000e+00
0.000000000000000000e+00
0.000000000000000000e+00
2.449489742783177992e-01
-1.732050807568877304e-01
1.000000000000000194e-01
0.000000000000000000e+00
0.000000000000000000e+00
8.164965809277260900e-02
-1.414213562373095312e-01
2.000000000000000389e-01
1.000000000000000194e-01
-1.154700538379251629e-01
1.000000000000000194e-01
-2.449489742783177992e-01
1.732050807568877304e-01
-1.000000000000000194e-01
0.000000000000000000e+00
0.000000000000000000e+00
0.000000000000000000e+00
-2.000000000000000389e-01
2.309401076758503257e-01
-2.000000000000000389e-01
2.000000000000000389e-01
-1.414213562373095312e-01
8.164965809277260900e-02
0.000000000000000000e+00
0.000000000000000000e+00
0.000000000000000000e+00
0.000000000000000000e+00
0.000000000000000000e+00
0.000000000000000000e+00
0.000000000000000000e+00
0.000000000000000000e+00
0.000000000000000000e+00
1.154700538379251629e-01
-1.414213562373095312e-01
1.414213562373095312e-01
-1.154700538379251629e-01
-2.309401076758503257e-01
1.154700538379251629e-01
0.000000000000000000e+00
-1.154700538379251629e-01
2.309401076758503257e-01
0.000000000000000000e+00
0.000000000000000000e+00
0.000000000000000000e+00
0.000000000000000000e+00
0.000000000000000000e+00
-1.414213562373095312e-01
1.732050807568877304e-01
-1.732050807568877304e-01
1.414213562373095312e-01
1.154700538379251629e-01
-5.773502691896258143e-02
0.000000000000000000e+00
5.773502691896258143e-02
-1.154700538379251629e-01
1.154700538379251629e-01
-1.414213562373095312e-01
1.414213562373095312e-01
-1.154700538379251629e-01
0.000000000000000000e+00
0.000000000000000000e+00
0.000000000000000000e+00
1.414213562373095312e-01
-1.732050807568877304e-01
1.732050807568877304e-01
-1.414213562373095312e-01
0.000000000000000000e+00
0.000000000000000000e+00
0.000000000000000000e+00
0.000000000000000000e+00
0.000000000000000000e+00
-1.414213562373095312e-01
1.732050807568877304e-01
-1.732050807568877304e-01
1.414213562373095312e-01
0.000000000000000000e+00
0.000000000000000000e+00
0.000000000000000000e+00
-1.154700538379251629e-01
1.414213562373095312e-01
-1.414213562373095312e-01
1.154700538379251629e-01
-1.154700538379251629e-01
5.773502691896258143e-02
0.000000000000000000e+00
-5.773502691896258143e-02
1.154700538379251629e-01
1.414213562373095312e-01
-1.732050807568877304e-01
1.732050807568877304e-01
-1.414213562373095312e-01
0.000000000000000000e+00
0.000000000000000000e+00
0.000000000000000000e+00
0.000000000000000000e+00
0.000000000000000000e+00
2.309401076758503257e-01
-1.154700538379251629e-01
0.000000000000000000e+00
1.154700538379251629e-01
-2.309401076758503257e-01
-1.154700538379251629e-01
1.414213562373095312e-01
-1.414213562373095312e-01
1.154700538379251629e-01
0.000000000000000000e+00
0.000000000000000000e+00
0.000000000000000000e+00
0.000000000000000000e+00
0.000000000000000000e+00
0.000000000000000000e+00
2.390457218668787798e-01
-2.927700218845600277e-01
2.390457218668787798e-01
-2.927700218845600277e-01
1.195228609334393899e-01
1.195228609334393899e-01
-2.927700218845600277e-01
2.390457218668787798e-01
1.195228609334393899e-01
-2.390457218668787798e-01
1.195228609334393899e-01
2.390457218668787798e-01
-2.927700218845600277e-01
1.195228609334393899e-01
1.195228609334393899e-01
-2.927700218845600277e-01
2.390457218668787798e-01
-2.927700218845600277e-01
2.390457218668787798e-01
2.390457218668787798e-01
-2.070196678027063086e-01
-2.070196678027063086e-01
9.759000729485332870e-02
1.951800145897066574e-01
9.759000729485332870e-02
-2.927700218845600277e-01
8.451542547285167961e-02
8.451542547285167961e-02
4.879500364742666435e-02
9.759000729485332870e-02
4.879500364742666435e-02
-2.070196678027063086e-01
-2.070196678027063086e-01
2.390457218668787798e-01
8.451542547285167961e-02
8.451542547285167961e-02
-9.759000729485332870e-02
-1.951800145897066574e-01
-9.759000729485332870e-02
8.451542547285167961e-02
8.451542547285167961e-02
2.390457218668787798e-01
-2.070196678027063086e-01
-2.070196678027063086e-01
4.879500364742666435e-02
9.759000729485332870e-02
4.879500364742666435e-02
8.451542547285167961e-02
8.451542547285167961e-02
-2.927700218845600277e-01
9.759000729485332870e-02
1.951800145897066574e-01
9.759000729485332870e-02
-2.070196678027063086e-01
-2.070196678027063086e-01
2.390457218668787798e-01
0.000000000000000000e+00
-1.951800145897066574e-01
1.380131118684708447e-01
1.690308509457033592e-01
1.195228609334393899e-01
-2.070196678027063086e-01
-1.690308509457033592e-01
0.000000000000000000e+00
1.690308509457033592e-01
0.000000000000000000e+00
2.390457218668787798e-01
-1.690308509457033592e-01
-6.900655593423542233e-02
-4.879500364742666435e-02
8.451542547285167961e-02
-8.451542547285167961e-02
0.000000000000000000e+00
8.451542547285167961e-02
2.070196678027063086e-01
-1.195228609334393899e-01
-1.690308509457033592e-01
-1.951800145897066574e-01
1.380131118684708447e-01
-6.900655593423542233e-02
-4.879500364742666435e-02
8.451542547285167961e-02
1.690308509457033592e-01
0.000000000000000000e+00
-1.690308509457033592e-01
-8.451542547285167961e-02
4.879500364742666435e-02
6.900655593423542233e-02
-1.380131118684708447e-01
1.951800145897066574e-01
1.690308509457033592e-01
1.195228609334393899e-01
-2.070196678027063086e-01
-8.451542547285167961e-02
0.000000000000000000e+00
8.451542547285167961e-02
-8.451542547285167961e-02
4.879500364742666435e-02
6.900655593423542233e-02
1.690308509457033592e-01
-2.390457218668787798e-01
0.000000000000000000e+00
-1.690308509457033592e-01
0.000000000000000000e+00
1.690308509457033592e-01
2.070196678027063086e-01
-1.195228609334393899e-01
-1.690308509457033592e-01
-1.380131118684708447e-01
1.951800145897066574e-01
0.000000000000000000e+00
2.390457218668787798e-01
-2.927700218845600277e-01
2.390457218668787798e-01
-2.927700218845600277e-01
1.195228609334393899e-01
1.195228609334393899e-01
-2.927700218845600277e-01
2.390457218668787798e-01
1.195228609334393899e-01
-2.390457218668787798e-01
1.195228609334393899e-01
2.390457218668787798e-01
-2.927700218845600277e-01
1.195228609334393899e-01
1.195228609334393899e-01
-2.927700218845600277e-01
2.390457218668787798e-01
-2.927700218845600277e-01
2.390457218668787798e-01
0.000000000000000000e+00
-1.380131118684708447e-01
1.951800145897066574e-01
2.070196678027063086e-01
-1.195228609334393899e-01
-1.690308509457033592e-01
-1.690308509457033592e-01
0.000000000000000000e+00
1.690308509457033592e-01
0.000000000000000000e+00
1.690308509457033592e-01
-2.390457218668787798e-01
-8.451542547285167961e-02
4.879500364742666435e-02
6.900655593423542233e-02
-8.451542547285167961e-02
0.000000000000000000e+00
8.451542547285167961e-02
1.690308509457033592e-01
1.195228609334393899e-01
-2.070196678027063086e-01
-1.380131118684708447e-01
1.951800145897066574e-01
-8.451542547285167961e-02
4.879500364742666435e-02
6.900655593423542233e-02
1.690308509457033592e-01
0.000000000000000000e+00
-1.690308509457033592e-01
-6.900655593423542233e-02
-4.879500364742666435e-02
8.451542547285167961e-02
-1.951800145897066574e-01
1.380131118684708447e-01
2.070196678027063086e-01
-1.195228609334393899e-01
-1.690308509457033592e-01
-8.451542547285167961e-02
0.000000000000000000e+00
8.451542547285167961e-02
-6.900655593423542233e-02
-4.879500364742666435e-02
8.451542547285167961e-02
2.390457218668787798e-01
-1.690308509457033592e-01
0.000000000000000000e+00
-1.690308509457033592e-01
0.000000000000000000e+00
1.690308509457033592e-01
1.690308509457033592e-01
1.195228609334393899e-01
-2.070196678027063086e-01
-1.951800145897066574e-01
1.380131118684708447e-01
0.000000000000000000e+00
0.000000000000000000e+00
0.000000000000000000e+00
0.000000000000000000e+00
1.277753129999880111e-01
-1.564921592871903466e-01
1.277753129999880111e-01
-1.916629694999820166e-01
7.824607964359517331e-02
7.824607964359517331e-02
-1.916629694999820166e-01
1.277753129999880111e-01
6.388765649999400553e-02
-1.277753129999880111e-01
6.388765649999400553e-02
1.277753129999880111e-01
0.000000000000000000e+00
0.000000000000000000e+00
-1.564921592871903466e-01
1.916629694999820166e-01
-1.564921592871903466e-01
7.824607964359517331e-02
-3.194382824999700277e-02
-3.194382824999700277e-02
7.824607964359517331e-02
6.388765649999400553e-02
3.194382824999700277e-02
-6.388765649999400553e-02
3.194382824999700277e-02
6.388765649999400553e-02
-1.916629694999820166e-01
7.824607964359517331e-02
7.824607964359517331e-02
-1.916629694999820166e-01
1.277753129999880111e-01
-1.564921592871903466e-01
1.277753129999880111e-01
7.824607964359517331e-02
-3.194382824999700277e-02
-3.194382824999700277e-02
7.824607964359517331e-02
-1.277753129999880111e-01
-6.388765649999400553e-02
1.277753129999880111e-01
-6.388765649999400553e-02
-1.277753129999880111e-01
7.824607964359517331e-02
-3.194382824999700277e-02
-3.194382824999700277e-02
7.824607964359517331e-02
1.277753129999880111e-01
-1.564921592871903466e-01
1.277753129999880111e-01
-1.916629694999820166e-01
7.824607964359517331e-02
7.824607964359517331e-02
-1.916629694999820166e-01
6.388765649999400553e-02
3.194382824999700277e-02
-6.388765649999400553e-02
3.194382824999700277e-02
6.388765649999400553e-02
7.824607964359517331e-02
-3.194382824999700277e-02
-3.194382824999700277e-02
7.824607964359517331e-02
-1.564921592871903466e-01
1.916629694999820166e-01
-1.564921592871903466e-01
0.000000000000000000e+00
0.000000000000000000e+00
1.277753129999880111e-01
6.388765649999400553e-02
-1.277753129999880111e-01
6.388765649999400553e-02
1.277753129999880111e-01
-1.916629694999820166e-01
7.824607964359517331e-02
7.824607964359517331e-02
-1.916629694999820166e-01
1.277753129999880111e-01
-1.564921592871903466e-01
1.277753129999880111e-01
0.000000000000000000e+00
0.000000000000000000e+00
0.000000000000000000e+00
5.773502691896256200e-01
-5.773502691896256200e-01
5.773502691896256200e-01
5.773502691896256200e-01
-5.773502691896256200e-01
5.773502691896256200e-01
-4.082482904638629062e-01
4.082482904638629062e-01
4.082482904638629062e-01
0.000000000000000000e+00
-4.082482904638629062e-01
-4.082482904638629062e-01
4.082482904638629062e-01
4.472135954999578167e-01
-3.162277660168378857e-01
1.825741858350553581e-01
-3.162277660168378857e-01
3.651483716701107163e-01
-3.162277660168378857e-01
1.825741858350553581e-01
-3.162277660168378857e-01
4.472135954999578167e-01
1.825741858350553581e-01
-3.162277660168378857e-01
4.472135954999578167e-01
-3.162277660168378857e-01
3.651483716701107163e-01
-3.162277660168378857e-01
4.472135954999578167e-01
-3.162277660168378857e-01
1.825741858350553581e-01
-2.581988897471610978e-01
3.162277660168378857e-01
-3.162277660168378857e-01
2.581988897471610978e-01
3.651483716701107163e-01
-1.825741858350553581e-01
0.000000000000000000e+00
1.825741858350553581e-01
-3.651483716701107163e-01
-2.581988897471610978e-01
3.162277660168378857e-01
-3.162277660168378857e-01
2.581988897471610978e-01
5.773502691896257311e-01
-5.773502691896257311e-01
5.773502691896257311e-01
0.000000000000000000e+00
0.000000000000000000e+00
0.000000000000000000e+00
3.333333333333333148e-01
-3.333333333333333148e-01
3.333333333333333148e-01
0.000000000000000000e+00
0.000000000000000000e+00
-3.333333333333333148e-01
3.333333333333333148e-01
-3.333333333333333148e-01
0.000000000000000000e+00
0.000000000000000000e+00
3.333333333333333148e-01
-3.333333333333333148e-01
3.333333333333333148e-01
0.000000000000000000e+00
0.000000000000000000e+00
0.000000000000000000e+00
0.000000000000000000e+00
0.000000000000000000e+00
0.000000000000000000e+00
0.000000000000000000e+00
0.000000000000000000e+00
0.000000000000000000e+00
0.000000000000000000e+00
2.581988897471610978e-01
-2.581988897471610978e-01
2.581988897471610978e-01
-2.581988897471610978e-01
2.581988897471610978e-01
0.000000000000000000e+00
0.000000000000000000e+00
0.000000000000000000e+00
0.000000000000000000e+00
-2.581988897471610978e-01
2.581988897471610978e-01
-2.581988897471610978e-01
2.581988897471610978e-01
-2.581988897471610978e-01
0.000000000000000000e+00
0.000000000000000000e+00
0.000000000000000000e+00
0.000000000000000000e+00
2.581988897471610978e-01
-2.581988897471610978e-01
2.581988897471610978e-01
-2.581988897471610978e-01
2.581988897471610978e-01
0.000000000000000000e+00
0.000000000000000000e+00
0.000000000000000000e+00
0.000000000000000000e+00
0.000000000000000000e+00
0.000000000000000000e+00
0.000000000000000000e+00
-4.082482904638629062e-01
4.082482904638629062e-01
4.082482904638629062e-01
0.000000000000000000e+00
-4.082482904638629062e-01
-4.082482904638629062e-01
4.082482904638629062e-01
-4.082482904638629062e-01
4.082482904638629062e-01
4.082482904638629062e-01
0.000000000000000000e+00
-4.082482904638629062e-01
-4.082482904638629062e-01
4.082482904638629062e-01
0.000000000000000000e+00
2.886751345948128100e-01
-2.886751345948128100e-01
-2.886751345948128100e-01
0.000000000000000000e+00
2.886751345948128100e-01
-2.886751345948128100e-01
2.886751345948128100e-01
0.000000000000000000e+00
0.000000000000000000e+00
0.000000000000000000e+00
2.886751345948128100e-01
-2.886751345948128100e-01
2.886751345948128100e-01
0.000000000000000000e+00
-2.886751345948128100e-01
-2.886751345948128100e-01
2.886751345948128100e-01
0.000000000000000000e+00
0.000000000000000000e+00
0.000000000000000000e+00
-3.162277660168378857e-01
2.236067977499789083e-01
-1.290994448735805489e-01
2.236067977499789083e-01
-2.581988897471610978e-01
2.236067977499789083e-01
3.162277660168378857e-01
-2.236067977499789083e-01
1.290994448735805489e-01
0.000000000000000000e+00
0.000000000000000000e+00
0.000000000000000000e+00
-1.290994448735805489e-01
2.236067977499789083e-01
-3.162277660168378857e-01
-2.236067977499789083e-01
2.581988897471610978e-01
-2.236067977499789083e-01
1.290994448735805489e-01
-2.236067977499789083e-01
3.162277660168378857e-01
0.000000000000000000e+00
0.000000000000000000e+00
0.000000000000000000e+00
0.000000000000000000e+00
-1.290994448735805489e-01
2.236067977499789083e-01
-3.162277660168378857e-01
2.236067977499789083e-01
-2.581988897471610978e-01
2.236067977499789083e-01
1.290994448735805489e-01
-2.236067977499789083e-01
3.162277660168378857e-01
0.000000000000000000e+00
0.000000000000000000e+00
0.000000000000000000e+00
-3.162277660168378857e-01
2.236067977499789083e-01
-1.290994448735805489e-01
-2.236067977499789083e-01
2.581988897471610978e-01
-2.236067977499789083e-01
3.162277660168378857e-01
-2.236067977499789083e-01
1.290994448735805489e-01
0.000000000000000000e+00
0.000000000000000000e+00
0.000000000000000000e+00
0.000000000000000000e+00
0.000000000000000000e+00
1.825741858350553581e-01
-2.236067977499789083e-01
2.236067977499789083e-01
-1.825741858350553581e-01
-2.581988897471610978e-01
1.290994448735805489e-01
0.000000000000000000e+00
-1.290994448735805489e-01
2.581988897471610978e-01
-1.825741858350553581e-01
2.236067977499789083e-01
-2.236067977499789083e-01
1.825741858350553581e-01
0.000000000000000000e+00
0.000000000000000000e+00
0.000000000000000000e+00
0.000000000000000000e+00
0.000000000000000000e+00
1.825741858350553581e-01
-2.236067977499789083e-01
2.236067977499789083e-01
-1.825741858350553581e-01
2.581988897471610978e-01
-1.290994448735805489e-01
0.000000000000000000e+00
1.290994448735805489e-01
-2.581988897471610978e-01
-1.825741858350553581e-01
2.236067977499789083e-01
-2.236067977499789083e-01
1.825741858350553581e-01
0.000000000000000000e+00
0.000000000000000000e+00
0.000000000000000000e+00
4.472135954999579832e-01
-3.162277660168379412e-01
1.825741858350553859e-01
-3.162277660168379412e-01
3.651483716701107718e-01
-3.162277660168379412e-01
1.825741858350553859e-01
-3.162277660168379412e-01
4.472135954999579832e-01
4.472135954999579832e-01
-2.236067977499789916e-01
-2.236067977499789916e-01
7.453559924999299258e-02
1.490711984999859852e-01
7.453559924999299258e-02
-2.236067977499789916e-01
-2.236067977499789916e-01
1.490711984999859852e-01
2.981423969999719703e-01
1.490711984999859852e-01
-2.236067977499789916e-01
-2.236067977499789916e-01
7.453559924999299258e-02
1.490711984999859852e-01
7.453559924999299258e-02
-2.236067977499789916e-01
-2.236067977499789916e-01
4.472135954999579832e-01
-3.651483716701107718e-01
2.581988897471611533e-01
1.825741858350553859e-01
1.290994448735805766e-01
-2.236067977499789916e-01
-1.290994448735805766e-01
0.000000000000000000e+00
1.290994448735805766e-01
1.825741858350553859e-01
1.290994448735805766e-01
-2.236067977499789916e-01
-2.581988897471611533e-01
0.000000000000000000e+00
2.581988897471611533e-01
2.236067977499789916e-01
-1.290994448735805766e-01
-1.825741858350553859e-01
-1.290994448735805766e-01
0.000000000000000000e+00
1.290994448735805766e-01
2.236067977499789916e-01
-1.290994448735805766e-01
-1.825741858350553859e-01
-2.581988897471611533e-01
3.651483716701107718e-01
4.472135954999579832e-01
-3.162277660168379412e-01
1.825741858350553859e-01
-3.162277660168379412e-01
3.651483716701107718e-01
-3.162277660168379412e-01
1.825741858350553859e-01
-3.162277660168379412e-01
4.472135954999579832e-01
-2.581988897471611533e-01
3.651483716701107718e-01
2.236067977499789916e-01
-1.290994448735805766e-01
-1.825741858350553859e-01
-1.290994448735805766e-01
0.000000000000000000e+00
1.290994448735805766e-01
2.236067977499789916e-01
-1.290994448735805766e-01
-1.825741858350553859e-01
-2.581988897471611533e-01
0.000000000000000000e+00
2.581988897471611533e-01
1.825741858350553859e-01
1.290994448735805766e-01
-2.236067977499789916e-01
-1.290994448735805766e-01
0.000000000000000000e+00
1.290994448735805766e-01
1.825741858350553859e-01
1.290994448735805766e-01
-2.236067977499789916e-01
-3.651483716701107718e-01
2.581988897471611533e-01
2.390457218668787520e-01
-2.927700218845599722e-01
2.390457218668787520e-01
-2.070196678027062809e-01
8.451542547285166573e-02
8.451542547285166573e-02
-2.070196678027062809e-01
9.759000729485332870e-02
4.879500364742666435e-02
-9.759000729485332870e-02
4.879500364742666435e-02
9.759000729485332870e-02
-2.070196678027062809e-01
8.451542547285166573e-02
8.451542547285166573e-02
-2.070196678027062809e-01
1.951800145897066574e-01
9.759000729485332870e-02
-1.951800145897066574e-01
9.759000729485332870e-02
1.951800145897066574e-01
-2.070196678027062809e-01
8.451542547285166573e-02
8.451542547285166573e-02
-2.070196678027062809e-01
9.759000729485332870e-02
4.879500364742666435e-02
-9.759000729485332870e-02
4.879500364742666435e-02
9.759000729485332870e-02
-2.070196678027062809e-01
8.451542547285166573e-02
8.451542547285166573e-02
-2.070196678027062809e-01
2.390457218668787520e-01
-2.927700218845599722e-01
2.390457218668787520e-01
1.825741858350553581e-01
-3.162277660168378857e-01
4.472135954999578167e-01
-3.162277660168378857e-01
3.651483716701107163e-01
-3.162277660168378857e-01
4.472135954999578167e-01
-3.162277660168378857e-01
1.825741858350553581e-01
1.825741858350553581e-01
-3.162277660168378857e-01
4.472135954999578167e-01
-3.162277660168378857e-01
3.651483716701107163e-01
-3.162277660168378857e-01
4.472135954999578167e-01
-3.162277660168378857e-01
1.825741858350553581e-01
0.000000000000000000e+00
-1.290994448735805489e-01
1.290994448735805489e-01
2.236067977499789083e-01
0.000000000000000000e+00
-2.236067977499789083e-01
-3.162277660168378857e-01
3.162277660168378857e-01
0.000000000000000000e+00
2.236067977499789083e-01
-2.236067977499789083e-01
-2.581988897471610978e-01
0.000000000000000000e+00
2.581988897471610978e-01
2.236067977499789083e-01
-2.236067977499789083e-01
0.000000000000000000e+00
-3.162277660168378857e-01
3.162277660168378857e-01
2.236067977499789083e-01
0.000000000000000000e+00
-2.236067977499789083e-01
-1.290994448735805489e-01
1.290994448735805489e-01
0.000000000000000000e+00
0.000000000000000000e+00
0.000000000000000000e+00
0.000000000000000000e+00
1.414213562373094757e-01
-9.999999999999997780e-02
5.773502691896257449e-02
-1.732050807568877027e-01
1.999999999999999556e-01
-1.732050807568877027e-01
1.414213562373094757e-01
-2.449489742783177437e-01
3.464101615137754053e-01
0.000000000000000000e+00
0.000000000000000000e+00
-2.449489742783177437e-01
1.732050807568877027e-01
-9.999999999999997780e-02
1.999999999999999556e-01
-2.309401076758502980e-01
1.999999999999999556e-01
-9.999999999999997780e-02
1.732050807568877027e-01
-2.449489742783177437e-01
0.000000000000000000e+00
0.000000000000000000e+00
3.464101615137754053e-01
-2.449489742783177437e-01
1.414213562373094757e-01
-1.732050807568877027e-01
1.999999999999999556e-01
-1.732050807568877027e-01
5.773502691896257449e-02
-9.999999999999997780e-02
1.414213562373094757e-01
0.000000000000000000e+00
0.000000000000000000e+00
0.000000000000000000e+00
0.000000000000000000e+00
0.000000000000000000e+00
0.000000000000000000e+00
5.773502691896257449e-02
-9.999999999999997780e-02
1.414213562373094757e-01
-1.732050807568877027e-01
1.999999999999999556e-01
-1.732050807568877027e-01
3.464101615137754053e-01
-2.449489742783177437e-01
1.414213562373094757e-01
0.000000000000000000e+00
0.000000000000000000e+00
-9.999999999999997780e-02
1.732050807568877027e-01
-2.449489742783177437e-01
1.999999999999999556e-01
-2.309401076758502980e-01
1.999999999999999556e-01
-2.449489742783177437e-01
1.732050807568877027e-01
-9.999999999999997780e-02
0.000000000000000000e+00
0.000000000000000000e+00
1.414213562373094757e-01
-2.449489742783177437e-01
3.464101615137754053e-01
-1.732050807568877027e-01
1.999999999999999556e-01
-1.732050807568877027e-01
1.414213562373094757e-01
-9.999999999999997780e-02
5.773502691896257449e-02
0.000000000000000000e+00
0.000000000000000000e+00
0.000000000000000000e+00
0.000000000000000000e+00
0.000000000000000000e+00
0.000000000000000000e+00
0.000000000000000000e+00
0.000000000000000000e+00
-8.164965809277260900e-02
9.999999999999997780e-02
-9.999999999999997780e-02
8.164965809277260900e-02
1.999999999999999556e-01
-9.999999999999997780e-02
0.000000000000000000e+00
9.999999999999997780e-02
-1.999999999999999556e-01
-1.999999999999999556e-01
2.449489742783177437e-01
-2.449489742783177437e-01
1.999999999999999556e-01
0.000000000000000000e+00
0.000000000000000000e+00
0.000000000000000000e+00
1.414213562373094757e-01
-1.732050807568877027e-01
1.732050807568877027e-01
-1.414213562373094757e-01
-2.309401076758502980e-01
1.154700538379251490e-01
0.000000000000000000e+00
-1.154700538379251490e-01
2.309401076758502980e-01
1.414213562373094757e-01
-1.732050807568877027e-01
1.732050807568877027e-01
-1.414213562373094757e-01
0.000000000000000000e+00
0.000000000000000000e+00
0.000000000000000000e+00
-1.999999999999999556e-01
2.449489742783177437e-01
-2.449489742783177437e-01
1.999999999999999556e-01
1.999999999999999556e-01
-9.999999999999997780e-02
0.000000000000000000e+00
9.999999999999997780e-02
-1.999999999999999556e-01
-8.164965809277260900e-02
9.999999999999997780e-02
-9.999999999999997780e-02
8.164965809277260900e-02
0.000000000000000000e+00
0.000000000000000000e+00
0.000000000000000000e+00
0.000000000000000000e+00
0.000000000000000000e+00
-2.581988897471611533e-01
3.162277660168379412e-01
-3.162277660168379412e-01
2.581988897471611533e-01
3.651483716701107718e-01
-1.825741858350553859e-01
0.000000000000000000e+00
1.825741858350553859e-01
-3.651483716701107718e-01
-2.581988897471611533e-01
3.162277660168379412e-01
-3.162277660168379412e-01
2.581988897471611533e-01
-2.581988897471611533e-01
2.236067977499789916e-01
2.236067977499789916e-01
-1.290994448735805766e-01
-2.581988897471611533e-01
-1.290994448735805766e-01
1.825741858350553859e-01
1.825741858350553859e-01
3.651483716701107718e-01
-1.290994448735805766e-01
-1.290994448735805766e-01
0.000000000000000000e+00
0.000000000000000000e+00
0.000000000000000000e+00
1.290994448735805766e-01
1.290994448735805766e-01
-3.651483716701107718e-01
-1.825741858350553859e-01
-1.825741858350553859e-01
1.290994448735805766e-01
2.581988897471611533e-01
1.290994448735805766e-01
-2.236067977499789916e-01
-2.236067977499789916e-01
2.581988897471611533e-01
0.000000000000000000e+00
2.108185106778919515e-01
-1.490711984999859852e-01
-1.825741858350553859e-01
-1.290994448735805766e-01
2.236067977499789916e-01
2.236067977499789916e-01
0.000000000000000000e+00
-2.236067977499789916e-01
-1.825741858350553859e-01
1.054092553389459758e-01
1.490711984999859852e-01
-2.981423969999719703e-01
2.108185106778919515e-01
1.054092553389459758e-01
7.453559924999299258e-02
-1.290994448735805766e-01
0.000000000000000000e+00
0.000000000000000000e+00
0.000000000000000000e+00
-1.290994448735805766e-01
7.453559924999299258e-02
1.054092553389459758e-01
2.108185106778919515e-01
-2.981423969999719703e-01
1.490711984999859852e-01
1.054092553389459758e-01
-1.825741858350553859e-01
-2.236067977499789916e-01
0.000000000000000000e+00
2.236067977499789916e-01
2.236067977499789916e-01
-1.290994448735805766e-01
-1.825741858350553859e-01
-1.490711984999859852e-01
2.108185106778919515e-01
0.000000000000000000e+00
-2.581988897471611533e-01
3.162277660168379412e-01
-3.162277660168379412e-01
2.581988897471611533e-01
3.651483716701107718e-01
-1.825741858350553859e-01
0.000000000000000000e+00
1.825741858350553859e-01
-3.651483716701107718e-01
-2.581988897471611533e-01
3.162277660168379412e-01
-3.162277660168379412e-01
2.581988897471611533e-01
0.000000000000000000e+00
1.490711984999859852e-01
-2.108185106778919515e-01
-2.236067977499789916e-01
1.290994448735805766e-01
1.825741858350553859e-01
2.236067977499789916e-01
0.000000000000000000e+00
-2.236067977499789916e-01
-1.490711984999859852e-01
-1.054092553389459758e-01
1.825741858350553859e-01
-2.108185106778919515e-01
2.981423969999719703e-01
1.290994448735805766e-01
-7.453559924999299258e-02
-1.054092553389459758e-01
0.000000000000000000e+00
0.000000000000000000e+00
0.000000000000000000e+00
-1.054092553389459758e-01
-7.453559924999299258e-02
1.290994448735805766e-01
2.981423969999719703e-01
-2.108185106778919515e-01
1.825741858350553859e-01
-1.054092553389459758e-01
-1.490711984999859852e-01
-2.236067977499789916e-01
0.000000000000000000e+00
2.236067977499789916e-01
1.825741858350553859e-01
1.290994448735805766e-01
-2.236067977499789916e-01
-2.108185106778919515e-01
1.490711984999859852e-01
0.000000000000000000e+00
0.000000000000000000e+00
0.000000000000000000e+00
-1.380131118684708447e-01
1.690308509457033315e-01
-1.380131118684708447e-01
2.070196678027062809e-01
-8.451542547285166573e-02
-8.451542547285166573e-02
2.070196678027062809e-01
-1.690308509457033315e-01
-8.451542547285166573e-02
1.690308509457033315e-01
-8.451542547285166573e-02
-1.690308509457033315e-01
1.690308509457033315e-01
-6.900655593423542233e-02
-6.900655593423542233e-02
1.690308509457033315e-01
1.951800145897066574e-01
-2.390457218668787520e-01
1.951800145897066574e-01
-1.195228609334393760e-01
4.879500364742666435e-02
4.879500364742666435e-02
-1.195228609334393760e-01
0.000000000000000000e+00
0.000000000000000000e+00
0.000000000000000000e+00
0.000000000000000000e+00
0.000000000000000000e+00
1.195228609334393760e-01
-4.879500364742666435e-02
-4.879500364742666435e-02
1.195228609334393760e-01
-1.951800145897066574e-01
2.390457218668787520e-01
-1.951800145897066574e-01
-1.690308509457033315e-01
6.900655593423542233e-02
6.900655593423542233e-02
-1.690308509457033315e-01
1.690308509457033315e-01
8.451542547285166573e-02
-1.690308509457033315e-01
8.451542547285166573e-02
1.690308509457033315e-01
-2.070196678027062809e-01
8.451542547285166573e-02
8.451542547285166573e-02
-2.070196678027062809e-01
1.380131118684708447e-01
-1.690308509457033315e-01
1.380131118684708447e-01
0.000000000000000000e+00
0.000000000000000000e+00
5.773502691896257311e-01
-5.773502691896257311e-01
5.773502691896257311e-01
0.000000000000000000e+00
0.000000000000000000e+00
0.000000000000000000e+00
3.333333333333333148e-01
-3.333333333333333148e-01
3.333333333333333148e-01
0.000000000000000000e+00
0.000000000000000000e+00
-3.333333333333333148e-01
3.333333333333333148e-01
-3.333333333333333148e-01
0.000000000000000000e+00
0.000000000000000000e+00
3.333333333333333148e-01
-3.333333333333333148e-01
3.333333333333333148e-01
0.000000000000000000e+00
0.000000000000000000e+00
0.000000000000000000e+00
0.000000000000000000e+00
0.000000000000000000e+00
0.000000000000000000e+00
0.000000000000000000e+00
0.000000000000000000e+00
0.000000000000000000e+00
0.000000000000000000e+00
2.581988897471610978e-01
-2.581988897471610978e-01
2.581988897471610978e-01
-2.581988897471610978e-01
2.581988897471610978e-01
0.000000000000000000e+00
0.000000000000000000e+00
0.000000000000000000e+00
0.000000000000000000e+00
-2.581988897471610978e-01
2.581988897471610978e-01
-2.581988897471610978e-01
2.581988897471610978e-01
-2.581988897471610978e-01
0.000000000000000000e+00
0.000000000000000000e+00
0.000000000000000000e+00
0.000000000000000000e+00
2.581988897471610978e-01
-2.581988897471610978e-01
2.581988897471610978e-01
-2.581988897471610978e-01
2.581988897471610978e-01
0.000000000000000000e+00
0.000000000000000000e+00
0.000000000000000000e+00
0.000000000000000000e+00
0.000000000000000000e+00
0.000000000000000000e+00
0.000000000000000000e+00
0.000000000000000000e+00
0.000000000000000000e+00
0.000000000000000000e+00
3.333333333333333148e-01
-3.333333333333333148e-01
3.333333333333333148e-01
0.000000000000000000e+00
0.000000000000000000e+00
-3.333333333333333148e-01
3.333333333333333148e-01
-3.333333333333333148e-01
0.000000000000000000e+00
0.000000000000000000e+00
3.333333333333333148e-01
-3.333333333333333148e-01
3.333333333333333148e-01
0.000000000000000000e+00
0.000000000000000000e+00
0.000000000000000000e+00
0.000000000000000000e+00
0.000000000000000000e+00
0.000000000000000000e+00
3.333333333333333148e-01
-3.333333333333333148e-01
3.333333333333333148e-01
0.000000000000000000e+00
0.000000000000000000e+00
-3.333333333333333148e-01
3.333333333333333148e-01
-3.333333333333333148e-01
0.000000000000000000e+00
0.000000000000000000e+00
3.333333333333333148e-01
-3.333333333333333148e-01
3.333333333333333148e-01
0.000000000000000000e+00
0.000000000000000000e+00
0.000000000000000000e+00
0.000000000000000000e+00
0.000000000000000000e+00
0.000000000000000000e+00
0.000000000000000000e+00
0.000000000000000000e+00
0.000000000000000000e+00
0.000000000000000000e+00
0.000000000000000000e+00
0.000000000000000000e+00
-2.357022603955158113e-01
2.357022603955158113e-01
2.357022603955158113e-01
0.000000000000000000e+00
-2.357022603955158113e-01
-2.357022603955158113e-01
2.357022603955158113e-01
0.000000000000000000e+00
0.000000000000000000e+00
0.000000000000000000e+00
0.000000000000000000e+00
0.000000000000000000e+00
0.000000000000000000e+00
2.357022603955158113e-01
-2.357022603955158113e-01
-2.357022603955158113e-01
0.000000000000000000e+00
2.357022603955158113e-01
2.357022603955158113e-01
-2.357022603955158113e-01
0.000000000000000000e+00
0.000000000000000000e+00
0.000000000000000000e+00
0.000000000000000000e+00
0.000000000000000000e+00
0.000000000000000000e+00
-2.357022603955158113e-01
2.357022603955158113e-01
2.357022603955158113e-01
0.000000000000000000e+00
-2.357022603955158113e-01
-2.357022603955158113e-01
2.357022603955158113e-01
0.000000000000000000e+00
0.000000000000000000e+00
0.000000000000000000e+00
0.000000000000000000e+00
0.000000000000000000e+00
0.000000000000000000e+00
0.000000000000000000e+00
0.000000000000000000e+00
0.000000000000000000e+00
0.000000000000000000e+00
0.000000000000000000e+00
0.000000000000000000e+00
0.000000000000000000e+00
0.000000000000000000e+00
0.000000000000000000e+00
0.000000000000000000e+00
0.000000000000000000e+00
0.000000000000000000e+00
0.000000000000000000e+00
0.000000000000000000e+00
0.000000000000000000e+00
0.000000000000000000e+00
0.000000000000000000e+00
2.581988897471610978e-01
-1.825741858350553581e-01
1.054092553389459758e-01
-1.825741858350553581e-01
2.108185106778919515e-01
-1.825741858350553581e-01
1.054092553389459758e-01
-1.825741858350553581e-01
2.581988897471610978e-01
0.000000000000000000e+00
0.000000000000000000e+00
0.000000000000000000e+00
0.000000000000000000e+00
0.000000000000000000e+00
0.000000000000000000e+00
0.000000000000000000e+00
0.000000000000000000e+00
-2.581988897471610978e-01
1.825741858350553581e-01
-1.054092553389459758e-01
1.825741858350553581e-01
-2.108185106778919515e-01
1.825741858350553581e-01
-1.054092553389459758e-01
1.825741858350553581e-01
-2.581988897471610978e-01
0.000000000000000000e+00
0.000000000000000000e+00
0.000000000000000000e+00
0.000000000000000000e+00
0.000000000000000000e+00
0.000000000000000000e+00
0.000000000000000000e+00
0.000000000000000000e+00
2.581988897471610978e-01
-1.825741858350553581e-01
1.054092553389459758e-01
-1.825741858350553581e-01
2.108185106778919515e-01
-1.825741858350553581e-01
1.054092553389459758e-01
-1.825741858350553581e-01
2.581988897471610978e-01
0.000000000000000000e+00
0.000000000000000000e+00
0.000000000000000000e+00
0.000000000000000000e+00
0.000000000000000000e+00
0.000000000000000000e+00
0.000000000000000000e+00
0.000000000000000000e+00
0.000000000000000000e+00
0.000000000000000000e+00
0.000000000000000000e+00
0.000000000000000000e+00
0.000000000000000000e+00
0.000000000000000000e+00
0.000000000000000000e+00
0.000000000000000000e+00
0.000000000000000000e+00
0.000000000000000000e+00
0.000000000000000000e+00
0.000000000000000000e+00
0.000000000000000000e+00
0.000000000000000000e+00
0.000000000000000000e+00
0.000000000000000000e+00
0.000000000000000000e+00
0.000000000000000000e+00
0.000000000000000000e+00
0.000000000000000000e+00
1.054092553389459758e-01
-1.825741858350553581e-01
2.581988897471610978e-01
-1.825741858350553581e-01
2.108185106778919515e-01
-1.825741858350553581e-01
2.581988897471610978e-01
-1.825741858350553581e-01
1.054092553389459758e-01
0.000000000000000000e+00
0.000000000000000000e+00
0.000000000000000000e+00
0.000000000000000000e+00
0.000000000000000000e+00
0.000000000000000000e+00
0.000000000000000000e+00
0.000000000000000000e+00
-1.054092553389459758e-01
1.825741858350553581e-01
-2.581988897471610978e-01
1.825741858350553581e-01
-2.108185106778919515e-01
1.825741858350553581e-01
-2.581988897471610978e-01
1.825741858350553581e-01
-1.054092553389459758e-01
0.000000000000000000e+00
0.000000000000000000e+00
0.000000000000000000e+00
0.000000000000000000e+00
0.000000000000000000e+00
0.000000000000000000e+00
0.000000000000000000e+00
0.000000000000000000e+00
1.054092553389459758e-01
-1.825741858350553581e-01
2.581988897471610978e-01
-1.825741858350553581e-01
2.108185106778919515e-01
-1.825741858350553581e-01
2.581988897471610978e-01
-1.825741858350553581e-01
1.054092553389459758e-01
0.000000000000000000e+00
0.000000000000000000e+00
0.000000000000000000e+00
0.000000000000000000e+00
0.000000000000000000e+00
0.000000000000000000e+00
0.000000000000000000e+00
0.000000000000000000e+00
0.000000000000000000e+00
0.000000000000000000e+00
0.000000000000000000e+00
0.000000000000000000e+00
0.000000000000000000e+00
0.000000000000000000e+00
0.000000000000000000e+00
0.000000000000000000e+00
0.000000000000000000e+00
0.000000000000000000e+00
0.000000000000000000e+00
0.000000000000000000e+00
0.000000000000000000e+00
0.000000000000000000e+00
0.000000000000000000e+00
0.000000000000000000e+00
0.000000000000000000e+00
0.000000000000000000e+00
0.000000000000000000e+00
0.000000000000000000e+00
0.000000000000000000e+00
0.000000000000000000e+00
0.000000000000000000e+00
0.000000000000000000e+00
0.000000000000000000e+00
0.000000000000000000e+00
0.000000000000000000e+00
-1.490711984999859852e-01
1.825741858350553581e-01
-1.825741858350553581e-01
1.490711984999859852e-01
2.108185106778919515e-01
-1.054092553389459758e-01
0.000000000000000000e+00
1.054092553389459758e-01
-2.108185106778919515e-01
-1.490711984999859852e-01
1.825741858350553581e-01
-1.825741858350553581e-01
1.490711984999859852e-01
0.000000000000000000e+00
0.000000000000000000e+00
0.000000000000000000e+00
0.000000000000000000e+00
0.000000000000000000e+00
0.000000000000000000e+00
0.000000000000000000e+00
0.000000000000000000e+00
0.000000000000000000e+00
0.000000000000000000e+00
0.000000000000000000e+00
0.000000000000000000e+00
1.490711984999859852e-01
-1.825741858350553581e-01
1.825741858350553581e-01
-1.490711984999859852e-01
-2.108185106778919515e-01
1.054092553389459758e-01
0.000000000000000000e+00
-1.054092553389459758e-01
2.108185106778919515e-01
1.490711984999859852e-01
-1.825741858350553581e-01
1.825741858350553581e-01
-1.490711984999859852e-01
0.000000000000000000e+00
0.000000000000000000e+00
0.000000000000000000e+00
0.000000000000000000e+00
0.000000000000000000e+00
0.000000000000000000e+00
0.000000000000000000e+00
0.000000000000000000e+00
0.000000000000000000e+00
0.000000000000000000e+00
0.000000000000000000e+00
0.000000000000000000e+00
-1.490711984999859852e-01
1.825741858350553581e-01
-1.825741858350553581e-01
1.490711984999859852e-01
2.108185106778919515e-01
-1.054092553389459758e-01
0.000000000000000000e+00
1.054092553389459758e-01
-2.108185106778919515e-01
-1.490711984999859852e-01
1.825741858350553581e-01
-1.825741858350553581e-01
1.490711984999859852e-01
0.000000000000000000e+00
0.000000000000000000e+00
0.000000000000000000e+00
0.000000000000000000e+00
0.000000000000000000e+00
0.000000000000000000e+00
0.000000000000000000e+00
0.000000000000000000e+00
0.000000000000000000e+00
0.000000000000000000e+00
0.000000000000000000e+00
0.000000000000000000e+00
0.000000000000000000e+00
0.000000000000000000e+00
0.000000000000000000e+00
0.000000000000000000e+00
0.000000000000000000e+00
0.000000000000000000e+00
0.000000000000000000e+00
0.000000000000000000e+00
0.000000000000000000e+00
0.000000000000000000e+00
0.000000000000000000e+00
0.000000000000000000e+00
0.000000000000000000e+00
0.000000000000000000e+00
0.000000000000000000e+00
0.000000000000000000e+00
2.581988897471611533e-01
-2.581988897471611533e-01
2.581988897471611533e-01
-2.581988897471611533e-01
2.581988897471611533e-01
0.000000000000000000e+00
0.000000000000000000e+00
0.000000000000000000e+00
0.000000000000000000e+00
-2.581988897471611533e-01
2.581988897471611533e-01
-2.581988897471611533e-01
2.581988897471611533e-01
-2.581988897471611533e-01
0.000000000000000000e+00
0.000000000000000000e+00
0.000000000000000000e+00
0.000000000000000000e+00
2.581988897471611533e-01
-2.581988897471611533e-01
2.581988897471611533e-01
-2.581988897471611533e-01
2.581988897471611533e-01
0.000000000000000000e+00
0.000000000000000000e+00
0.000000000000000000e+00
0.000000000000000000e+00
0.000000000000000000e+00
0.000000000000000000e+00
0.000000000000000000e+00
0.000000000000000000e+00
0.000000000000000000e+00
0.000000000000000000e+00
0.000000000000000000e+00
0.000000000000000000e+00
0.000000000000000000e+00
0.000000000000000000e+00
0.000000000000000000e+00
0.000000000000000000e+00
0.000000000000000000e+00
0.000000000000000000e+00
0.000000000000000000e+00
0.000000000000000000e+00
0.000000000000000000e+00
2.581988897471611533e-01
-1.825741858350553859e-01
-1.825741858350553859e-01
1.054092553389459758e-01
2.108185106778919515e-01
1.054092553389459758e-01
-1.825741858350553859e-01
-1.825741858350553859e-01
2.581988897471611533e-01
0.000000000000000000e+00
0.000000000000000000e+00
0.000000000000000000e+00
0.000000000000000000e+00
0.000000000000000000e+00
0.000000000000000000e+00
0.000000000000000000e+00
0.000000000000000000e+00
-2.581988897471611533e-01
1.825741858350553859e-01
1.825741858350553859e-01
-1.054092553389459758e-01
-2.108185106778919515e-01
-1.054092553389459758e-01
1.825741858350553859e-01
1.825741858350553859e-01
-2.581988897471611533e-01
0.000000000000000000e+00
0.000000000000000000e+00
0.000000000000000000e+00
0.000000000000000000e+00
0.000000000000000000e+00
0.000000000000000000e+00
0.000000000000000000e+00
0.000000000000000000e+00
2.581988897471611533e-01
-1.825741858350553859e-01
-1.825741858350553859e-01
1.054092553389459758e-01
2.108185106778919515e-01
1.054092553389459758e-01
-1.825741858350553859e-01
-1.825741858350553859e-01
2.581988897471611533e-01
0.000000000000000000e+00
0.000000000000000000e+00
0.000000000000000000e+00
0.000000000000000000e+00
0.000000000000000000e+00
0.000000000000000000e+00
0.000000000000000000e+00
0.000000000000000000e+00
0.000000000000000000e+00
0.000000000000000000e+00
0.000000000000000000e+00
0.000000000000000000e+00
0.000000000000000000e+00
0.000000000000000000e+00
0.000000000000000000e+00
0.000000000000000000e+00
0.000000000000000000e+00
0.000000000000000000e+00
0.000000000000000000e+00
0.000000000000000000e+00
0.000000000000000000e+00
0.000000000000000000e+00
0.000000000000000000e+00
0.000000000000000000e+00
0.000000000000000000e+00
0.000000000000000000e+00
0.000000000000000000e+00
0.000000000000000000e+00
0.000000000000000000e+00
0.000000000000000000e+00
0.000000000000000000e+00
0.000000000000000000e+00
0.000000000000000000e+00
0.000000000000000000e+00
0.000000000000000000e+00
-2.108185106778919515e-01
1.490711984999859852e-01
1.490711984999859852e-01
1.054092553389459758e-01
-1.825741858350553859e-01
-1.825741858350553859e-01
0.000000000000000000e+00
1.825741858350553859e-01
1.825741858350553859e-01
-1.054092553389459758e-01
-1.490711984999859852e-01
-1.490711984999859852e-01
2.108185106778919515e-01
0.000000000000000000e+00
0.000000000000000000e+00
0.000000000000000000e+00
0.000000000000000000e+00
0.000000000000000000e+00
0.000000000000000000e+00
0.000000000000000000e+00
0.000000000000000000e+00
0.000000000000000000e+00
0.000000000000000000e+00
0.000000000000000000e+00
0.000000000000000000e+00
2.108185106778919515e-01
-1.490711984999859852e-01
-1.490711984999859852e-01
-1.054092553389459758e-01
1.825741858350553859e-01
1.825741858350553859e-01
0.000000000000000000e+00
-1.825741858350553859e-01
-1.825741858350553859e-01
1.054092553389459758e-01
1.490711984999859852e-01
1.490711984999859852e-01
-2.108185106778919515e-01
0.000000000000000000e+00
0.000000000000000000e+00
0.000000000000000000e+00
0.000000000000000000e+00
0.000000000000000000e+00
0.000000000000000000e+00
0.000000000000000000e+00
0.000000000000000000e+00
0.000000000000000000e+00
0.000000000000000000e+00
0.000000000000000000e+00
0.000000000000000000e+00
-2.108185106778919515e-01
1.490711984999859852e-01
1.490711984999859852e-01
1.054092553389459758e-01
-1.825741858350553859e-01
-1.825741858350553859e-01
0.000000000000000000e+00
1.825741858350553859e-01
1.825741858350553859e-01
-1.054092553389459758e-01
-1.490711984999859852e-01
-1.490711984999859852e-01
2.108185106778919515e-01
0.000000000000000000e+00
0.000000000000000000e+00
0.000000000000000000e+00
0.000000000000000000e+00
0.000000000000000000e+00
0.000000000000000000e+00
0.000000000000000000e+00
0.000000000000000000e+00
0.000000000000000000e+00
0.000000000000000000e+00
0.000000000000000000e+00
0.000000000000000000e+00
0.000000000000000000e+00
0.000000000000000000e+00
0.000000000000000000e+00
0.000000000000000000e+00
0.000000000000000000e+00
0.000000000000000000e+00
0.000000000000000000e+00
0.000000000000000000e+00
0.000000000000000000e+00
0.000000000000000000e+00
0.000000000000000000e+00
0.000000000000000000e+00
0.000000000000000000e+00
0.000000000000000000e+00
0.000000000000000000e+00
0.000000000000000000e+00
2.581988897471611533e-01
-2.581988897471611533e-01
2.581988897471611533e-01
-2.581988897471611533e-01
2.581988897471611533e-01
0.000000000000000000e+00
0.000000000000000000e+00
0.000000000000000000e+00
0.000000000000000000e+00
-2.581988897471611533e-01
2.581988897471611533e-01
-2.581988897471611533e-01
2.581988897471611533e-01
-2.581988897471611533e-01
0.000000000000000000e+00
0.000000000000000000e+00
0.000000000000000000e+00
0.000000000000000000e+00
2.581988897471611533e-01
-2.581988897471611533e-01
2.581988897471611533e-01
-2.581988897471611533e-01
2.581988897471611533e-01
0.000000000000000000e+00
0.000000000000000000e+00
0.000000000000000000e+00
0.000000000000000000e+00
0.000000000000000000e+00
0.000000000000000000e+00
0.000000000000000000e+00
0.000000000000000000e+00
0.000000000000000000e+00
0.000000000000000000e+00
0.000000000000000000e+00
0.000000000000000000e+00
0.000000000000000000e+00
0.000000000000000000e+00
0.000000000000000000e+00
0.000000000000000000e+00
0.000000000000000000e+00
0.000000000000000000e+00
0.000000000000000000e+00
0.000000000000000000e+00
0.000000000000000000e+00
0.000000000000000000e+00
0.000000000000000000e+00
0.000000000000000000e+00
0.000000000000000000e+00
0.000000000000000000e+00
0.000000000000000000e+00
0.000000000000000000e+00
-1.490711984999859852e-01
2.108185106778919515e-01
1.825741858350553859e-01
-1.054092553389459758e-01
-1.490711984999859852e-01
-1.825741858350553859e-01
0.000000000000000000e+00
1.825741858350553859e-01
1.490711984999859852e-01
1.054092553389459758e-01
-1.825741858350553859e-01
-2.108185106778919515e-01
1.490711984999859852e-01
0.000000000000000000e+00
0.000000000000000000e+00
0.000000000000000000e+00
0.000000000000000000e+00
0.000000000000000000e+00
0.000000000000000000e+00
0.000000000000000000e+00
0.000000000000000000e+00
0.000000000000000000e+00
0.000000000000000000e+00
0.000000000000000000e+00
0.000000000000000000e+00
1.490711984999859852e-01
-2.108185106778919515e-01
-1.825741858350553859e-01
1.054092553389459758e-01
1.490711984999859852e-01
1.825741858350553859e-01
0.000000000000000000e+00
-1.825741858350553859e-01
-1.490711984999859852e-01
-1.054092553389459758e-01
1.825741858350553859e-01
2.108185106778919515e-01
-1.490711984999859852e-01
0.000000000000000000e+00
0.000000000000000000e+00
0.000000000000000000e+00
0.000000000000000000e+00
0.000000000000000000e+00
0.000000000000000000e+00
0.000000000000000000e+00
0.000000000000000000e+00
0.000000000000000000e+00
0.000000000000000000e+00
0.000000000000000000e+00
0.000000000000000000e+00
-1.490711984999859852e-01
2.108185106778919515e-01
1.825741858350553859e-01
-1.054092553389459758e-01
-1.490711984999859852e-01
-1.825741858350553859e-01
0.000000000000000000e+00
1.825741858350553859e-01
1.490711984999859852e-01
1.054092553389459758e-01
-1.825741858350553859e-01
-2.108185106778919515e-01
1.490711984999859852e-01
0.000000000000000000e+00
0.000000000000000000e+00
0.000000000000000000e+00
0.000000000000000000e+00
0.000000000000000000e+00
0.000000000000000000e+00
0.000000000000000000e+00
0.000000000000000000e+00
0.000000000000000000e+00
0.000000000000000000e+00
0.000000000000000000e+00
0.000000000000000000e+00
0.000000000000000000e+00
0.000000000000000000e+00
0.000000000000000000e+00
0.000000000000000000e+00
0.000000000000000000e+00
0.000000000000000000e+00
0.000000000000000000e+00
0.000000000000000000e+00
0.000000000000000000e+00
0.000000000000000000e+00
0.000000000000000000e+00
0.000000000000000000e+00
0.000000000000000000e+00
0.000000000000000000e+00
0.000000000000000000e+00
0.000000000000000000e+00
0.000000000000000000e+00
0.000000000000000000e+00
0.000000000000000000e+00
0.000000000000000000e+00
0.000000000000000000e+00
0.000000000000000000e+00
0.000000000000000000e+00
0.000000000000000000e+00
0.000000000000000000e+00
0.000000000000000000e+00
0.000000000000000000e+00
0.000000000000000000e+00
0.000000000000000000e+00
0.000000000000000000e+00
0.000000000000000000e+00
0.000000000000000000e+00
0.000000000000000000e+00
0.000000000000000000e+00
0.000000000000000000e+00
0.000000000000000000e+00
0.000000000000000000e+00
0.000000000000000000e+00
0.000000000000000000e+00
0.000000000000000000e+00
0.000000000000000000e+00
0.000000000000000000e+00
1.380131118684708447e-01
-1.690308509457033037e-01
1.380131118684708447e-01
-1.690308509457033037e-01
6.900655593423542233e-02
6.900655593423542233e-02
-1.690308509457033037e-01
1.380131118684708447e-01
6.900655593423542233e-02
-1.380131118684708447e-01
6.900655593423542233e-02
1.380131118684708447e-01
-1.690308509457033037e-01
6.900655593423542233e-02
6.900655593423542233e-02
-1.690308509457033037e-01
1.380131118684708447e-01
-1.690308509457033037e-01
1.380131118684708447e-01
0.000000000000000000e+00
0.000000000000000000e+00
0.000000000000000000e+00
0.000000000000000000e+00
0.000000000000000000e+00
0.000000000000000000e+00
0.000000000000000000e+00
0.000000000000000000e+00
0.000000000000000000e+00
0.000000000000000000e+00
0.000000000000000000e+00
0.000000000000000000e+00
0.000000000000000000e+00
0.000000000000000000e+00
0.000000000000000000e+00
0.000000000000000000e+00
0.000000000000000000e+00
0.000000000000000000e+00
-1.380131118684708447e-01
1.690308509457033037e-01
-1.380131118684708447e-01
1.690308509457033037e-01
-6.900655593423542233e-02
-6.900655593423542233e-02
1.690308509457033037e-01
-1.380131118684708447e-01
-6.900655593423542233e-02
1.380131118684708447e-01
-6.900655593423542233e-02
-1.380131118684708447e-01
1.690308509457033037e-01
-6.900655593423542233e-02
-6.900655593423542233e-02
1.690308509457033037e-01
-1.380131118684708447e-01
1.690308509457033037e-01
-1.380131118684708447e-01
0.000000000000000000e+00
0.000000000000000000e+00
0.000000000000000000e+00
0.000000000000000000e+00
0.000000000000000000e+00
0.000000000000000000e+00
0.000000000000000000e+00
0.000000000000000000e+00
0.000000000000000000e+00
0.000000000000000000e+00
0.000000000000000000e+00
0.000000000000000000e+00
0.000000000000000000e+00
0.000000000000000000e+00
0.000000000000000000e+00
0.000000000000000000e+00
0.000000000000000000e+00
0.000000000000000000e+00
1.380131118684708447e-01
-1.690308509457033037e-01
1.380131118684708447e-01
-1.690308509457033037e-01
6.900655593423542233e-02
6.900655593423542233e-02
-1.690308509457033037e-01
1.380131118684708447e-01
6.900655593423542233e-02
-1.380131118684708447e-01
6.900655593423542233e-02
1.380131118684708447e-01
-1.690308509457033037e-01
6.900655593423542233e-02
6.900655593423542233e-02
-1.690308509457033037e-01
1.380131118684708447e-01
-1.690308509457033037e-01
1.380131118684708447e-01
0.000000000000000000e+00
0.000000000000000000e+00
0.000000000000000000e+00
0.000000000000000000e+00
0.000000000000000000e+00
0.000000000000000000e+00
0.000000000000000000e+00
0.000000000000000000e+00
0.000000000000000000e+00
0.000000000000000000e+00
0.000000000000000000e+00
0.000000000000000000e+00
0.000000000000000000e+00
0.000000000000000000e+00
0.000000000000000000e+00
0.000000000000000000e+00
0.000000000000000000e+00
0.000000000000000000e+00
0.000000000000000000e+00
0.000000000000000000e+00
0.000000000000000000e+00
0.000000000000000000e+00
0.000000000000000000e+00
0.000000000000000000e+00
0.000000000000000000e+00
0.000000000000000000e+00
0.000000000000000000e+00
0.000000000000000000e+00
0.000000000000000000e+00
0.000000000000000000e+00
0.000000000000000000e+00
0.000000000000000000e+00
0.000000000000000000e+00
-4.082482904638629062e-01
4.082482904638629062e-01
4.082482904638629062e-01
0.000000000000000000e+00
-4.082482904638629062e-01
-4.082482904638629062e-01
4.082482904638629062e-01
-4.082482904638629062e-01
4.082482904638629062e-01
4.082482904638629062e-01
0.000000000000000000e+00
-4.082482904638629062e-01
-4.082482904638629062e-01
4.082482904638629062e-01
0.000000000000000000e+00
2.886751345948128100e-01
-2.886751345948128100e-01
-2.886751345948128100e-01
0.000000000000000000e+00
2.886751345948128100e-01
-2.886751345948128100e-01
2.886751345948128100e-01
0.000000000000000000e+00
0.000000000000000000e+00
0.000000000000000000e+00
2.886751345948128100e-01
-2.886751345948128100e-01
2.886751345948128100e-01
0.000000000000000000e+00
-2.886751345948128100e-01
-2.886751345948128100e-01
2.886751345948128100e-01
0.000000000000000000e+00
0.000000000000000000e+00
0.000000000000000000e+00
-3.162277660168378857e-01
2.236067977499789083e-01
-1.290994448735805489e-01
2.236067977499789083e-01
-2.581988897471610978e-01
2.236067977499789083e-01
3.162277660168378857e-01
-2.236067977499789083e-01
1.290994448735805489e-01
0.000000000000000000e+00
0.000000000000000000e+00
0.000000000000000000e+00
-1.290994448735805489e-01
2.236067977499789083e-01
-3.162277660168378857e-01
-2.236067977499789083e-01
2.581988897471610978e-01
-2.236067977499789083e-01
1.290994448735805489e-01
-2.236067977499789083e-01
3.162277660168378857e-01
0.000000000000000000e+00
0.000000000000000000e+00
0.000000000000000000e+00
0.000000000000000000e+00
-1.290994448735805489e-01
2.236067977499789083e-01
-3.162277660168378857e-01
2.236067977499789083e-01
-2.581988897471610978e-01
2.236067977499789083e-01
1.290994448735805489e-01
-2.236067977499789083e-01
3.162277660168378857e-01
0.000000000000000000e+00
0.000000000000000000e+00
0.000000000000000000e+00
-3.162277660168378857e-01
2.236067977499789083e-01
-1.290994448735805489e-01
-2.236067977499789083e-01
2.581988897471610978e-01
-2.236067977499789083e-01
3.162277660168378857e-01
-2.236067977499789083e-01
1.290994448735805489e-01
0.000000000000000000e+00
0.000000000000000000e+00
0.000000000000000000e+00
0.000000000000000000e+00
0.000000000000000000e+00
1.825741858350553581e-01
-2.236067977499789083e-01
2.236067977499789083e-01
-1.825741858350553581e-01
-2.581988897471610978e-01
1.290994448735805489e-01
0.000000000000000000e+00
-1.290994448735805489e-01
2.581988897471610978e-01
-1.825741858350553581e-01
2.236067977499789083e-01
-2.236067977499789083e-01
1.825741858350553581e-01
0.000000000000000000e+00
0.000000000000000000e+00
0.000000000000000000e+00
0.000000000000000000e+00
0.000000000000000000e+00
1.825741858350553581e-01
-2.236067977499789083e-01
2.236067977499789083e-01
-1.825741858350553581e-01
2.581988897471610978e-01
-1.290994448735805489e-01
0.000000000000000000e+00
1.290994448735805489e-01
-2.581988897471610978e-01
-1.825741858350553581e-01
2.236067977499789083e-01
-2.236067977499789083e-01
1.825741858350553581e-01
0.000000000000000000e+00
0.000000000000000000e+00
0.000000000000000000e+00
-4.082482904638630172e-01
4.082482904638630172e-01
4.082482904638630172e-01
0.000000000000000000e+00
-4.082482904638630172e-01
-4.082482904638630172e-01
4.082482904638630172e-01
0.000000000000000000e+00
0.000000000000000000e+00
0.000000000000000000e+00
0.000000000000000000e+00
0.000000000000000000e+00
0.000000000000000000e+00
-2.357022603955158113e-01
2.357022603955158113e-01
-2.357022603955158113e-01
0.000000000000000000e+00
0.000000000000000000e+00
2.357022603955158113e-01
-2.357022603955158113e-01
2.357022603955158113e-01
0.000000000000000000e+00
0.000000000000000000e+00
0.000000000000000000e+00
0.000000000000000000e+00
0.000000000000000000e+00
2.357022603955158113e-01
-2.357022603955158113e-01
2.357022603955158113e-01
0.000000000000000000e+00
0.000000000000000000e+00
0.000000000000000000e+00
0.000000000000000000e+00
0.000000000000000000e+00
0.000000000000000000e+00
0.000000000000000000e+00
-2.357022603955158113e-01
2.357022603955158113e-01
-2.357022603955158113e-01
0.000000000000000000e+00
0.000000000000000000e+00
0.000000000000000000e+00
0.000000000000000000e+00
0.000000000000000000e+00
-2.357022603955158113e-01
2.357022603955158113e-01
-2.357022603955158113e-01
0.000000000000000000e+00
0.000000000000000000e+00
2.357022603955158113e-01
-2.357022603955158113e-01
2.357022603955158113e-01
0.000000000000000000e+00
0.000000000000000000e+00
0.000000000000000000e+00
0.000000000000000000e+00
0.000000000000000000e+00
0.000000000000000000e+00
0.000000000000000000e+00
0.000000000000000000e+00
0.000000000000000000e+00
0.000000000000000000e+00
0.000000000000000000e+00
0.000000000000000000e+00
0.000000000000000000e+00
0.000000000000000000e+00
0.000000000000000000e+00
0.000000000000000000e+00
0.000000000000000000e+00
0.000000000000000000e+00
0.000000000000000000e+00
0.000000000000000000e+00
0.000000000000000000e+00
0.000000000000000000e+00
-1.825741858350553581e-01
1.825741858350553581e-01
-1.825741858350553581e-01
1.825741858350553581e-01
-1.825741858350553581e-01
0.000000000000000000e+00
0.000000000000000000e+00
0.000000000000000000e+00
0.000000000000000000e+00
1.825741858350553581e-01
-1.825741858350553581e-01
1.825741858350553581e-01
-1.825741858350553581e-01
1.825741858350553581e-01
0.000000000000000000e+00
0.000000000000000000e+00
0.000000000000000000e+00
0.000000000000000000e+00
0.000000000000000000e+00
0.000000000000000000e+00
0.000000000000000000e+00
0.000000000000000000e+00
0.000000000000000000e+00
0.000000000000000000e+00
0.000000000000000000e+00
1.825741858350553581e-01
-1.825741858350553581e-01
1.825741858350553581e-01
-1.825741858350553581e-01
1.825741858350553581e-01
0.000000000000000000e+00
0.000000000000000000e+00
0.000000000000000000e+00
0.000000000000000000e+00
0.000000000000000000e+00
0.000000000000000000e+00
0.000000000000000000e+00
0.000000000000000000e+00
0.000000000000000000e+00
0.000000000000000000e+00
0.000000000000000000e+00
0.000000000000000000e+00
0.000000000000000000e+00
-1.825741858350553581e-01
1.825741858350553581e-01
-1.825741858350553581e-01
1.825741858350553581e-01
-1.825741858350553581e-01
0.000000000000000000e+00
0.000000000000000000e+00
0.000000000000000000e+00
0.000000000000000000e+00
0.000000000000000000e+00
0.000000000000000000e+00
0.000000000000000000e+00
0.000000000000000000e+00
0.000000000000000000e+00
0.000000000000000000e+00
0.000000000000000000e+00
-1.825741858350553581e-01
1.825741858350553581e-01
-1.825741858350553581e-01
1.825741858350553581e-01
-1.825741858350553581e-01
0.000000000000000000e+00
0.000000000000000000e+00
0.000000000000000000e+00
0.000000000000000000e+00
1.825741858350553581e-01
-1.825741858350553581e-01
1.825741858350553581e-01
-1.825741858350553581e-01
1.825741858350553581e-01
0.000000000000000000e+00
0.000000000000000000e+00
0.000000000000000000e+00
0.000000000000000000e+00
0.000000000000000000e+00
0.000000000000000000e+00
0.000000000000000000e+00
0.000000000000000000e+00
0.000000000000000000e+00
0.000000000000000000e+00
0.000000000000000000e+00
0.000000000000000000e+00
0.000000000000000000e+00
0.000000000000000000e+00
0.000000000000000000e+00
0.000000000000000000e+00
0.000000000000000000e+00
2.886751345948128100e-01
-2.886751345948128100e-01
-2.886751345948128100e-01
0.000000000000000000e+00
2.886751345948128100e-01
-2.886751345948128100e-01
2.886751345948128100e-01
0.000000000000000000e+00
0.000000000000000000e+00
0.000000000000000000e+00
2.886751345948128100e-01
-2.886751345948128100e-01
2.886751345948128100e-01
0.000000000000000000e+00
-2.886751345948128100e-01
-2.886751345948128100e-01
2.886751345948128100e-01
0.000000000000000000e+00
0.000000000000000000e+00
2.886751345948128100e-01
-2.886751345948128100e-01
-2.886751345948128100e-01
0.000000000000000000e+00
2.886751345948128100e-01
-2.886751345948128100e-01
2.886751345948128100e-01
0.000000000000000000e+00
0.000000000000000000e+00
0.000000000000000000e+00
2.886751345948128100e-01
-2.886751345948128100e-01
2.886751345948128100e-01
0.000000000000000000e+00
-2.886751345948128100e-01
-2.886751345948128100e-01
2.886751345948128100e-01
0.000000000000000000e+00
0.000000000000000000e+00
0.000000000000000000e+00
0.000000000000000000e+00
0.000000000000000000e+00
-2.041241452319314531e-01
2.041241452319314531e-01
2.041241452319314531e-01
0.000000000000000000e+00
-2.041241452319314531e-01
2.041241452319314531e-01
-2.041241452319314531e-01
0.000000000000000000e+00
0.000000000000000000e+00
0.000000000000000000e+00
-2.041241452319314531e-01
2.041241452319314531e-01
0.000000000000000000e+00
2.041241452319314531e-01
-2.041241452319314531e-01
-2.041241452319314531e-01
0.000000000000000000e+00
2.041241452319314531e-01
0.000000000000000000e+00
0.000000000000000000e+00
0.000000000000000000e+00
0.000000000000000000e+00
0.000000000000000000e+00
0.000000000000000000e+00
0.000000000000000000e+00
-2.041241452319314531e-01
0.000000000000000000e+00
2.041241452319314531e-01
2.041241452319314531e-01
-2.041241452319314531e-01
0.000000000000000000e+00
-2.041241452319314531e-01
2.041241452319314531e-01
0.000000000000000000e+00
0.000000000000000000e+00
0.000000000000000000e+00
2.041241452319314531e-01
-2.041241452319314531e-01
2.041241452319314531e-01
0.000000000000000000e+00
-2.041241452319314531e-01
-2.041241452319314531e-01
2.041241452319314531e-01
0.000000000000000000e+00
0.000000000000000000e+00
0.000000000000000000e+00
0.000000000000000000e+00
0.000000000000000000e+00
0.000000000000000000e+00
0.000000000000000000e+00
0.000000000000000000e+00
0.000000000000000000e+00
0.000000000000000000e+00
0.000000000000000000e+00
0.000000000000000000e+00
2.236067977499789083e-01
-1.581138830084189428e-01
9.128709291752767907e-02
-1.581138830084189428e-01
1.825741858350553581e-01
-1.581138830084189428e-01
-2.236067977499789083e-01
1.581138830084189428e-01
-9.128709291752767907e-02
0.000000000000000000e+00
0.000000000000000000e+00
0.000000000000000000e+00
9.128709291752767907e-02
-1.581138830084189428e-01
2.236067977499789083e-01
0.000000000000000000e+00
0.000000000000000000e+00
-2.236067977499789083e-01
1.581138830084189428e-01
-9.128709291752767907e-02
1.581138830084189428e-01
-1.825741858350553581e-01
1.581138830084189428e-01
0.000000000000000000e+00
0.000000000000000000e+00
0.000000000000000000e+00
0.000000000000000000e+00
0.000000000000000000e+00
0.000000000000000000e+00
0.000000000000000000e+00
0.000000000000000000e+00
0.000000000000000000e+00
1.581138830084189428e-01
-1.825741858350553581e-01
1.581138830084189428e-01
-9.128709291752767907e-02
1.581138830084189428e-01
-2.236067977499789083e-01
0.000000000000000000e+00
0.000000000000000000e+00
2.236067977499789083e-01
-1.581138830084189428e-01
9.128709291752767907e-02
0.000000000000000000e+00
0.000000000000000000e+00
0.000000000000000000e+00
-9.128709291752767907e-02
1.581138830084189428e-01
-2.236067977499789083e-01
-1.581138830084189428e-01
1.825741858350553581e-01
-1.581138830084189428e-01
9.128709291752767907e-02
-1.581138830084189428e-01
2.236067977499789083e-01
0.000000000000000000e+00
0.000000000000000000e+00
0.000000000000000000e+00
0.000000000000000000e+00
0.000000000000000000e+00
0.000000000000000000e+00
0.000000000000000000e+00
0.000000000000000000e+00
0.000000000000000000e+00
0.000000000000000000e+00
0.000000000000000000e+00
0.000000000000000000e+00
0.000000000000000000e+00
0.000000000000000000e+00
0.000000000000000000e+00
0.000000000000000000e+00
9.128709291752767907e-02
-1.581138830084189428e-01
2.236067977499789083e-01
-1.581138830084189428e-01
1.825741858350553581e-01
