1.000000000000000000e+00
5.773502691896257311e-01
-5.773502691896257311e-01
5.773502691896257311e-01
4.472135954999579832e-01
-4.472135954999579832e-01
4.472135954999579832e-01
-4.472135954999579832e-01
4.472135954999579832e-01
3.779644730092271976e-01
-3.779644730092271976e-01
3.779644730092271976e-01
-3.779644730092271976e-01
3.779644730092271976e-01
-3.779644730092271976e-01
3.779644730092271976e-01
3.333333333333333148e-01
-3.333333333333333148e-01
3.333333333333333148e-01
-3.333333333333333148e-01
3.333333333333333148e-01
-3.333333333333333148e-01
3.333333333333333148e-01
-3.333333333333333148e-01
3.333333333333333148e-01
3.015113445777636292e-01
-3.015113445777636292e-01
3.015113445777636292e-01
-3.015113445777636292e-01
3.015113445777636292e-01
-3.015113445777636292e-01
3.015113445777636292e-01
-3.015113445777636292e-01
3.015113445777636292e-01
-3.015113445777636292e-01
3.015113445777636292e-01
2.773500981126145737e-01
-2.773500981126145737e-01
2.773500981126145737e-01
-2.773500981126145737e-01
2.773500981126145737e-01
-2.773500981126145737e-01
2.773500981126145737e-01
-2.773500981126145737e-01
2.773500981126145737e-01
-2.773500981126145737e-01
2.773500981126145737e-01
-2.773500981126145737e-01
2.773500981126145737e-01
2.581988897471610978e-01
-2.581988897471610978e-01
2.581988897471610978e-01
-2.581988897471610978e-01
2.581988897471610978e-01
-2.581988897471610978e-01
2.581988897471610978e-01
-2.581988897471610978e-01
2.581988897471610978e-01
-2.581988897471610978e-01
2.581988897471610978e-01
-2.581988897471610978e-01
2.581988897471610978e-01
-2.581988897471610978e-01
2.581988897471610978e-01
2.425356250363329691e-01
-2.425356250363329691e-01
2.425356250363329691e-01
-2.425356250363329691e-01
2.425356250363329691e-01
-2.425356250363329691e-01
2.425356250363329691e-01
-2.425356250363329691e-01
2.425356250363329691e-01
-2.425356250363329691e-01
2.425356250363329691e-01
-2.425356250363329691e-01
2.425356250363329691e-01
-2.425356250363329691e-01
2.425356250363329691e-01
-2.425356250363329691e-01
2.425356250363329691e-01
2.294157338705617444e-01
-2.294157338705617444e-01
2.294157338705617444e-01
-2.294157338705617444e-01
2.294157338705617444e-01
-2.294157338705617444e-01
2.294157338705617444e-01
-2.294157338705617444e-01
2.294157338705617444e-01
-2.294157338705617444e-01
2.294157338705617444e-01
-2.294157338705617444e-01
2.294157338705617444e-01
-2.294157338705617444e-01
2.294157338705617444e-01
-2.294157338705617444e-01
2.294157338705617444e-01
-2.294157338705617444e-01
2.294157338705617444e-01
2.182178902359923622e-01
-2.182178902359923622e-01
2.182178902359923622e-01
-2.182178902359923622e-01
2.182178902359923622e-01
-2.182178902359923622e-01
2.182178902359923622e-01
-2.182178902359923622e-01
2.182178902359923622e-01
-2.182178902359923622e-01
2.182178902359923622e-01
-2.182178902359923622e-01
2.182178902359923622e-01
-2.182178902359923622e-01
2.182178902359923622e-01
-2.182178902359923622e-01
2.182178902359923622e-01
-2.182178902359923622e-01
2.182178902359923622e-01
-2.182178902359923622e-01
2.182178902359923622e-01
5.773502691896257311e-01
-5.773502691896257311e-01
5.773502691896257311e-01
5.773502691896257311e-01
-5.773502691896257311e-01
5.773502691896257311e-01
4.472135954999579832e-01
-3.162277660168379412e-01
1.825741858350553581e-01
-3.162277660168379412e-01
3.651483716701107163e-01
-3.162277660168379412e-01
1.825741858350553581e-01
-3.162277660168379412e-01
4.472135954999579832e-01
1.825741858350553581e-01
-3.162277660168379412e-01
4.472135954999579832e-01
-3.162277660168379412e-01
3.651483716701107163e-01
-3.162277660168379412e-01
4.472135954999579832e-01
-3.162277660168379412e-01
1.825741858350553581e-01
3.779644730092271976e-01
-3.086066999241838249e-01
2.390457218668787243e-01
-1.690308509457033037e-01
9.759000729485332870e-02
-2.182178902359923622e-01
2.760262237369416893e-01
-2.927700218845599167e-01
2.760262237369416893e-01
-2.182178902359923622e-01
9.759000729485332870e-02
-1.690308509457033037e-01
2.390457218668787243e-01
-3.086066999241838249e-01
3.779644730092271976e-01
9.759000729485332870e-02
-1.690308509457033037e-01
2.390457218668787243e-01
-3.086066999241838249e-01
3.779644730092271976e-01
-2.182178902359923622e-01
2.760262237369416893e-01
-2.927700218845599167e-01
2.760262237369416893e-01
-2.182178902359923622e-01
3.779644730092271976e-01
-3.086066999241838249e-01
2.390457218668787243e-01
-1.690308509457033037e-01
9.759000729485332870e-02
3.333333333333333148e-01
-2.886751345948128655e-01
2.439750182371332732e-01
-1.992047682223989369e-01
1.543033499620919125e-01
-1.091089451179961811e-01
6.299407883487119497e-02
-1.666666666666666574e-01
2.182178902359923622e-01
-2.439750182371332732e-01
2.519763153394847799e-01
-2.439750182371332732e-01
2.182178902359923622e-01
-1.666666666666666574e-01
6.299407883487119497e-02
-1.091089451179961811e-01
1.543033499620919125e-01
-1.992047682223989369e-01
2.439750182371332732e-01
-2.886751345948128655e-01
3.333333333333333148e-01
6.299407883487119497e-02
-1.091089451179961811e-01
1.543033499620919125e-01
-1.992047682223989369e-01
2.439750182371332732e-01
-2.886751345948128655e-01
3.333333333333333148e-01
-1.666666666666666574e-01
2.182178902359923622e-01
-2.439750182371332732e-01
2.519763153394847799e-01
-2.439750182371332732e-01
2.182178902359923622e-01
-1.666666666666666574e-01
3.333333333333333148e-01
-2.886751345948128655e-01
2.439750182371332732e-01
-1.992047682223989369e-01
1.543033499620919125e-01
-1.091089451179961811e-01
6.299407883487119497e-02
3.015113445777636292e-01
-2.696799449852967934e-01
2.378353560042252568e-01
-2.059714602177749043e-01
1.740776559556978520e-01
-1.421338109037403041e-01
1.100963765126360544e-01
-7.784989441615229600e-02
4.494665749754947481e-02
-1.348399724926483967e-01
1.797866299901978993e-01
-2.059714602177749043e-01
2.201927530252721088e-01
-2.247332874877473741e-01
2.201927530252721088e-01
-2.059714602177749043e-01
1.797866299901978993e-01
-1.348399724926483967e-01
4.494665749754947481e-02
-7.784989441615229600e-02
1.100963765126360544e-01
-1.421338109037403041e-01
1.740776559556978520e-01
-2.059714602177749043e-01
2.378353560042252568e-01
-2.696799449852967934e-01
3.015113445777636292e-01
4.494665749754947481e-02
-7.784989441615229600e-02
1.100963765126360544e-01
-1.421338109037403041e-01
1.740776559556978520e-01
-2.059714602177749043e-01
2.378353560042252568e-01
-2.696799449852967934e-01
3.015113445777636292e-01
-1.348399724926483967e-01
1.797866299901978993e-01
-2.059714602177749043e-01
2.201927530252721088e-01
-2.247332874877473741e-01
2.201927530252721088e-01
-2.059714602177749043e-01
1.797866299901978993e-01
-1.348399724926483967e-01
3.015113445777636292e-01
-2.696799449852967934e-01
2.378353560042252568e-01
-2.059714602177749043e-01
1.740776559556978520e-01
-1.421338109037403041e-01
1.100963765126360544e-01
-7.784989441615229600e-02
4.494665749754947481e-02
2.773500981126145737e-01
-2.531848417709166577e-01
2.290143062071722246e-01
-2.048366225996756662e-01
1.806489209323782208e-01
-1.564465546936859575e-01
1.322214713369862793e-01
-1.079583792718826207e-01
8.362420100070908080e-02
-5.913123959890825843e-02
3.413943709994594206e-02
-1.132277034144595768e-01
1.526762041381148349e-01
-1.773937187967248030e-01
1.931218198341070336e-01
-2.019716336333911844e-01
2.048366225996756662e-01
-2.019716336333911844e-01
1.931218198341070336e-01
-1.773937187967248030e-01
1.526762041381148349e-01
-1.132277034144595768e-01
3.413943709994594206e-02
-5.913123959890825843e-02
8.362420100070908080e-02
-1.079583792718826207e-01
1.322214713369862793e-01
-1.564465546936859575e-01
1.806489209323782208e-01
-2.048366225996756662e-01
2.290143062071722246e-01
-2.531848417709166577e-01
2.773500981126145737e-01
3.413943709994594206e-02
-5.913123959890825843e-02
8.362420100070908080e-02
-1.079583792718826207e-01
1.322214713369862793e-01
-1.564465546936859575e-01
1.806489209323782208e-01
-2.048366225996756662e-01
2.290143062071722246e-01
-2.531848417709166577e-01
2.773500981126145737e-01
-1.132277034144595768e-01
1.526762041381148349e-01
-1.773937187967248030e-01
1.931218198341070336e-01
-2.019716336333911844e-01
2.048366225996756662e-01
-2.019716336333911844e-01
1.931218198341070336e-01
-1.773937187967248030e-01
1.526762041381148349e-01
-1.132277034144595768e-01
2.773500981126145737e-01
-2.531848417709166577e-01
2.290143062071722246e-01
-2.048366225996756662e-01
1.806489209323782208e-01
-1.564465546936859575e-01
1.322214713369862793e-01
-1.079583792718826207e-01
8.362420100070908080e-02
-5.913123959890825843e-02
3.413943709994594206e-02
2.581988897471610978e-01
-2.390457218668787243e-01
2.198900824313101132e-01
-2.007312638654982773e-01
1.815682598006407300e-01
-1.623995885882300316e-01
1.432229748078865661e-01
-1.240347345892084674e-01
1.048284836721918439e-01
-8.559209850218257865e-02
6.629935441317959255e-02
-4.688072309384954534e-02
2.706659809803833860e-02
-9.759000729485332870e-02
1.325987088263591851e-01
-1.554857684028482789e-01
1.711841970043651573e-01
-1.815682598006407300e-01
1.875228923753981813e-01
-1.894661866862683564e-01
1.875228923753981813e-01
-1.815682598006407300e-01
1.711841970043651573e-01
-1.554857684028482789e-01
1.325987088263591851e-01
-9.759000729485332870e-02
2.706659809803833860e-02
-4.688072309384954534e-02
6.629935441317959255e-02
-8.559209850218257865e-02
1.048284836721918439e-01
-1.240347345892084674e-01
1.432229748078865661e-01
-1.623995885882300316e-01
1.815682598006407300e-01
-2.007312638654982773e-01
2.198900824313101132e-01
-2.390457218668787243e-01
2.581988897471610978e-01
2.706659809803833860e-02
-4.688072309384954534e-02
6.629935441317959255e-02
-8.559209850218257865e-02
1.048284836721918439e-01
-1.240347345892084674e-01
1.432229748078865661e-01
-1.623995885882300316e-01
1.815682598006407300e-01
-2.007312638654982773e-01
2.198900824313101132e-01
-2.390457218668787243e-01
2.581988897471610978e-01
-9.759000729485332870e-02
1.325987088263591851e-01
-1.554857684028482789e-01
1.711841970043651573e-01
-1.815682598006407300e-01
1.875228923753981813e-01
-1.894661866862683564e-01
1.875228923753981813e-01
-1.815682598006407300e-01
1.711841970043651573e-01
-1.554857684028482789e-01
1.325987088263591851e-01
-9.759000729485332870e-02
2.581988897471610978e-01
-2.390457218668787243e-01
2.198900824313101132e-01
-2.007312638654982773e-01
1.815682598006407300e-01
-1.623995885882300316e-01
1.432229748078865661e-01
-1.240347345892084674e-01
1.048284836721918439e-01
-8.559209850218257865e-02
6.629935441317959255e-02
-4.688072309384954534e-02
2.706659809803833860e-02
2.425356250363329691e-01
-2.268713032432575216e-01
2.112056891687695559e-01
-1.955384722187607227e-01
1.798692335461253566e-01
-1.641973943572963279e-01
1.485221314465011433e-01
-1.328422328310142897e-01
1.171558372258012237e-01
-1.014599312391784719e-01
8.574929257125442350e-02
-7.001400420140048431e-02
5.423261445466404096e-02
-3.834824944236851774e-02
2.214037213850238162e-02
-8.574929257125442350e-02
1.171558372258012237e-01
-1.382665796887430354e-01
1.533929977694740709e-01
-1.641973943572963279e-01
1.714985851425088470e-01
-1.757337558387018217e-01
1.771229771080190529e-01
-1.757337558387018217e-01
1.714985851425088470e-01
-1.641973943572963279e-01
1.533929977694740709e-01
-1.382665796887430354e-01
1.171558372258012237e-01
-8.574929257125442350e-02
2.214037213850238162e-02
-3.834824944236851774e-02
5.423261445466404096e-02
-7.001400420140048431e-02
8.574929257125442350e-02
-1.014599312391784719e-01
1.171558372258012237e-01
-1.328422328310142897e-01
1.485221314465011433e-01
-1.641973943572963279e-01
1.798692335461253566e-01
-1.955384722187607227e-01
2.112056891687695559e-01
-2.268713032432575216e-01
2.425356250363329691e-01
2.214037213850238162e-02
-3.834824944236851774e-02
5.423261445466404096e-02
-7.001400420140048431e-02
8.574929257125442350e-02
-1.014599312391784719e-01
1.171558372258012237e-01
-1.328422328310142897e-01
1.485221314465011433e-01
-1.641973943572963279e-01
1.798692335461253566e-01
-1.955384722187607227e-01
2.112056891687695559e-01
-2.268713032432575216e-01
2.425356250363329691e-01
-8.574929257125442350e-02
1.171558372258012237e-01
-1.382665796887430354e-01
1.533929977694740709e-01
-1.641973943572963279e-01
1.714985851425088470e-01
-1.757337558387018217e-01
1.771229771080190529e-01
-1.757337558387018217e-01
1.714985851425088470e-01
-1.641973943572963279e-01
1.533929977694740709e-01
-1.382665796887430354e-01
1.171558372258012237e-01
-8.574929257125442350e-02
2.425356250363329691e-01
-2.268713032432575216e-01
2.112056891687695559e-01
-1.955384722187607227e-01
1.798692335461253566e-01
-1.641973943572963279e-01
1.485221314465011433e-01
-1.328422328310142897e-01
1.171558372258012237e-01
-1.014599312391784719e-01
8.574929257125442350e-02
-7.001400420140048431e-02
5.423261445466404096e-02
-3.834824944236851774e-02
2.214037213850238162e-02
2.294157338705617444e-01
-2.162952281743500405e-01
2.031739888928744964e-01
-1.900518640853376406e-01
1.769286567235602847e-01
-1.638041066204301011e-01
1.506778629044527029e-01
-1.375494407157327181e-01
1.244181504483598821e-01
-1.112829768149314474e-01
9.814236060242509385e-02
-8.499377746907317566e-02
7.183285265343591908e-02
-5.865127858981556558e-02
4.543108504242546197e-02
-3.212462831016177356e-02
1.854716280248857457e-02
-7.647191129018725275e-02
1.049185967152844873e-01
-1.244181504483598821e-01
1.387942574072604796e-01
-1.495320070133181467e-01
1.573778950729267656e-01
-1.627506930790010853e-01
1.658908672644798243e-01
-1.669244652223971503e-01
1.658908672644798243e-01
-1.627506930790010853e-01
1.573778950729267656e-01
-1.495320070133181467e-01
1.387942574072604796e-01
-1.244181504483598821e-01
1.049185967152844873e-01
-7.647191129018725275e-02
1.854716280248857457e-02
-3.212462831016177356e-02
4.543108504242546197e-02
-5.865127858981556558e-02
7.183285265343591908e-02
-8.499377746907317566e-02
9.814236060242509385e-02
-1.112829768149314474e-01
1.244181504483598821e-01
-1.375494407157327181e-01
1.506778629044527029e-01
-1.638041066204301011e-01
1.769286567235602847e-01
-1.900518640853376406e-01
2.031739888928744964e-01
-2.162952281743500405e-01
2.294157338705617444e-01
1.854716280248857457e-02
-3.212462831016177356e-02
4.543108504242546197e-02
-5.865127858981556558e-02
7.183285265343591908e-02
-8.499377746907317566e-02
9.814236060242509385e-02
-1.112829768149314474e-01
1.244181504483598821e-01
-1.375494407157327181e-01
1.506778629044527029e-01
-1.638041066204301011e-01
1.769286567235602847e-01
-1.900518640853376406e-01
2.031739888928744964e-01
-2.162952281743500405e-01
2.294157338705617444e-01
-7.647191129018725275e-02
1.049185967152844873e-01
-1.244181504483598821e-01
1.387942574072604796e-01
-1.495320070133181467e-01
1.573778950729267656e-01
-1.627506930790010853e-01
1.658908672644798243e-01
-1.669244652223971503e-01
1.658908672644798243e-01
-1.627506930790010853e-01
1.573778950729267656e-01
-1.495320070133181467e-01
1.387942574072604796e-01
-1.244181504483598821e-01
1.049185967152844873e-01
-7.647191129018725275e-02
2.294157338705617444e-01
-2.162952281743500405e-01
2.031739888928744964e-01
-1.900518640853376406e-01
1.769286567235602847e-01
-1.638041066204301011e-01
1.506778629044527029e-01
-1.375494407157327181e-01
1.244181504483598821e-01
-1.112829768149314474e-01
9.814236060242509385e-02
-8.499377746907317566e-02
7.183285265343591908e-02
-5.865127858981556558e-02
4.543108504242546197e-02
-3.212462831016177356e-02
1.854716280248857457e-02
2.182178902359923622e-01
-2.070196678027062531e-01
1.958210015847486607e-01
-1.846218108257565993e-01
1.734219939048239900e-01
-1.622214211307625165e-01
1.510199243274199521e-01
-1.398172814084551185e-01
1.286131928826069193e-01
-1.174072448909444649e-01
1.061988488107182965e-01
-9.498713802919553362e-02
8.377078165833910794e-02
-7.254762501100116279e-02
6.131393394849657397e-02
-5.006261743217588212e-02
3.877833671647407110e-02
-2.742042485535409191e-02
1.583118967153258894e-02
-6.900655593423542233e-02
9.498713802919553362e-02
-1.130573079779367829e-01
1.266495173722607115e-01
-1.371021242767704318e-01
1.450952500220023256e-01
-1.510199243274199521e-01
1.551133468658962844e-01
-1.575183483762700454e-01
1.583118967153258616e-01
-1.575183483762700454e-01
1.551133468658962844e-01
-1.510199243274199521e-01
1.450952500220023256e-01
-1.371021242767704318e-01
1.266495173722607115e-01
-1.130573079779367829e-01
9.498713802919553362e-02
-6.900655593423542233e-02
1.583118967153258894e-02
-2.742042485535409191e-02
3.877833671647407110e-02
-5.006261743217588212e-02
6.131393394849657397e-02
-7.254762501100116279e-02
8.377078165833910794e-02
-9.498713802919553362e-02
1.061988488107182965e-01
-1.174072448909444649e-01
1.286131928826069193e-01
-1.398172814084551185e-01
1.510199243274199521e-01
-1.622214211307625165e-01
1.734219939048239900e-01
-1.846218108257565993e-01
1.958210015847486607e-01
-2.070196678027062531e-01
2.182178902359923622e-01
1.583118967153258894e-02
-2.742042485535409191e-02
3.877833671647407110e-02
-5.006261743217588212e-02
6.131393394849657397e-02
-7.254762501100116279e-02
8.377078165833910794e-02
-9.498713802919553362e-02
1.061988488107182965e-01
-1.174072448909444649e-01
1.286131928826069193e-01
-1.398172814084551185e-01
1.510199243274199521e-01
-1.622214211307625165e-01
1.734219939048239900e-01
-1.846218108257565993e-01
1.958210015847486607e-01
-2.070196678027062531e-01
2.182178902359923622e-01
-6.900655593423542233e-02
9.498713802919553362e-02
-1.130573079779367829e-01
1.266495173722607115e-01
-1.371021242767704318e-01
1.450952500220023256e-01
-1.510199243274199521e-01
1.551133468658962844e-01
-1.575183483762700454e-01
1.583118967153258616e-01
-1.575183483762700454e-01
1.551133468658962844e-01
-1.510199243274199521e-01
1.450952500220023256e-01
-1.371021242767704318e-01
1.266495173722607115e-01
-1.130573079779367829e-01
9.498713802919553362e-02
-6.900655593423542233e-02
2.182178902359923622e-01
-2.070196678027062531e-01
1.958210015847486607e-01
-1.846218108257565993e-01
1.734219939048239900e-01
-1.622214211307625165e-01
1.510199243274199521e-01
-1.398172814084551185e-01
1.286131928826069193e-01
-1.174072448909444649e-01
1.061988488107182965e-01
-9.498713802919553362e-02
8.377078165833910794e-02
-7.254762501100116279e-02
6.131393394849657397e-02
-5.006261743217588212e-02
3.877833671647407110e-02
-2.742042485535409191e-02
1.583118967153258894e-02
4.472135954999579832e-01
-4.472135954999579832e-01
4.472135954999579832e-01
-4.472135954999579832e-01
4.472135954999579832e-01
4.472135954999579832e-01
-3.162277660168379412e-01
-3.162277660168379412e-01
1.825741858350553581e-01
3.651483716701107163e-01
1.825741858350553581e-01
-3.162277660168379412e-01
-3.162277660168379412e-01
4.472135954999579832e-01
3.779644730092271976e-01
-2.182178902359923622e-01
9.759000729485332870e-02
-3.086066999241838249e-01
2.760262237369416893e-01
-1.690308509457033037e-01
2.390457218668787243e-01
-2.927700218845599167e-01
2.390457218668787243e-01
-1.690308509457033037e-01
2.760262237369416893e-01
-3.086066999241838249e-01
9.759000729485332870e-02
-2.182178902359923622e-01
3.779644730092271976e-01
4.472135954999579832e-01
-4.472135954999579832e-01
4.472135954999579832e-01
-4.472135954999579832e-01
4.472135954999579832e-01
2.390457218668787243e-01
-2.927700218845599167e-01
2.390457218668787243e-01
-2.927700218845599167e-01
1.195228609334393621e-01
1.195228609334393621e-01
-2.927700218845599167e-01
2.390457218668787243e-01
1.195228609334393621e-01
-2.390457218668787243e-01
1.195228609334393621e-01
2.390457218668787243e-01
-2.927700218845599167e-01
1.195228609334393621e-01
1.195228609334393621e-01
-2.927700218845599167e-01
2.390457218668787243e-01
-2.927700218845599167e-01
2.390457218668787243e-01
3.333333333333333148e-01
-2.357022603955158391e-01
1.543033499620919125e-01
-8.908708063747479422e-02
3.984095364447979432e-02
-2.357022603955158391e-01
2.519763153394847799e-01
-2.182178902359923622e-01
1.593638145779191773e-01
-8.908708063747479422e-02
1.543033499620919125e-01
-2.182178902359923622e-01
2.390457218668787243e-01
-2.182178902359923622e-01
1.543033499620919125e-01
-8.908708063747479422e-02
1.593638145779191773e-01
-2.182178902359923622e-01
2.519763153394847799e-01
-2.357022603955158391e-01
3.984095364447979432e-02
-8.908708063747479422e-02
1.543033499620919125e-01
-2.357022603955158391e-01
3.333333333333333148e-01
9.759000729485332870e-02
-2.182178902359923622e-01
3.779644730092271976e-01
-1.690308509457033037e-01
2.760262237369416893e-01
-3.086066999241838249e-01
2.390457218668787243e-01
-2.927700218845599167e-01
2.390457218668787243e-01
-3.086066999241838249e-01
2.760262237369416893e-01
-1.690308509457033037e-01
3.779644730092271976e-01
-2.182178902359923622e-01
9.759000729485332870e-02
1.543033499620919125e-01
-2.182178902359923622e-01
2.390457218668787243e-01
-2.182178902359923622e-01
1.543033499620919125e-01
-2.439750182371332732e-01
1.889822365046135988e-01
-6.900655593423542233e-02
-6.900655593423542233e-02
1.889822365046135988e-01
-2.439750182371332732e-01
2.439750182371332732e-01
0.000000000000000000e+00
-1.463850109422799584e-01
1.951800145897066574e-01
-1.463850109422799584e-01
0.000000000000000000e+00
2.439750182371332732e-01
-2.439750182371332732e-01
1.889822365046135988e-01
-6.900655593423542233e-02
-6.900655593423542233e-02
1.889822365046135988e-01
-2.439750182371332732e-01
1.543033499620919125e-01
-2.182178902359923622e-01
2.390457218668787243e-01
-2.182178902359923622e-01
1.543033499620919125e-01
3.015113445777636292e-01
-2.335496832484568741e-01
1.740776559556978520e-01
-1.230914909793327378e-01
8.058229640253802839e-02
-4.652421051992354506e-02
2.080625946441197471e-02
-1.906925178491184480e-01
2.201927530252721088e-01
-2.132007163556104423e-01
1.860968420796941802e-01
-1.471224715841249198e-01
1.019294382875251120e-01
-5.504818825631802720e-02
1.100963765126360544e-01
-1.651445647689540885e-01
1.973855084879307109e-01
-2.080625946441197471e-01
1.973855084879307109e-01
-1.651445647689540885e-01
1.100963765126360544e-01
-5.504818825631802720e-02
1.019294382875251120e-01
-1.471224715841249198e-01
1.860968420796941802e-01
-2.132007163556104423e-01
2.201927530252721088e-01
-1.906925178491184480e-01
2.080625946441197471e-02
-4.652421051992354506e-02
8.058229640253802839e-02
-1.230914909793327378e-01
1.740776559556978520e-01
-2.335496832484568741e-01
3.015113445777636292e-01
3.984095364447979432e-02
-8.908708063747479422e-02
1.543033499620919125e-01
-2.357022603955158391e-01
3.333333333333333148e-01
-8.908708063747479422e-02
1.593638145779191773e-01
-2.182178902359923622e-01
2.519763153394847799e-01
-2.357022603955158391e-01
1.543033499620919125e-01
-2.182178902359923622e-01
2.390457218668787243e-01
-2.182178902359923622e-01
1.543033499620919125e-01
-2.357022603955158391e-01
2.519763153394847799e-01
-2.182178902359923622e-01
1.593638145779191773e-01
-8.908708063747479422e-02
3.333333333333333148e-01
-2.357022603955158391e-01
1.543033499620919125e-01
-8.908708063747479422e-02
3.984095364447979432e-02
1.100963765126360544e-01
-1.651445647689540885e-01
1.973855084879307109e-01
-2.080625946441197471e-01
1.973855084879307109e-01
-1.651445647689540885e-01
1.100963765126360544e-01
-2.059714602177749043e-01
1.946247360403807469e-01
-1.324102244257124306e-01
4.652421051992354506e-02
4.652421051992354506e-02
-1.324102244257124306e-01
1.946247360403807469e-01
-2.059714602177749043e-01
2.378353560042252568e-01
-5.945883900105631420e-02
-6.795295885835006544e-02
1.444000375739939168e-01
-1.698823971458751914e-01
1.444000375739939168e-01
-6.795295885835006544e-02
-5.945883900105631420e-02
2.378353560042252568e-01
-2.059714602177749043e-01
1.946247360403807469e-01
-1.324102244257124306e-01
4.652421051992354506e-02
4.652421051992354506e-02
-1.324102244257124306e-01
1.946247360403807469e-01
-2.059714602177749043e-01
1.100963765126360544e-01
-1.651445647689540885e-01
1.973855084879307109e-01
-2.080625946441197471e-01
1.973855084879307109e-01
-1.651445647689540885e-01
1.100963765126360544e-01
2.773500981126145737e-01
-2.264554068289191535e-01
1.806489209323782208e-01
-1.399300524562882564e-01
1.042977031291239809e-01
-7.374961314478496732e-02
4.828045495852675839e-02
-2.787473366690302462e-02
1.246595986677942816e-02
-1.601281538050871311e-01
1.931218198341070336e-01
-1.978909779672614611e-01
1.865734032750510085e-01
-1.649091483060512175e-01
1.365577483997837682e-01
-1.042977031291239809e-01
7.051811804639268599e-02
-3.739787960033828795e-02
8.362420100070908080e-02
-1.295500551262591393e-01
1.615773069067129586e-01
-1.806489209323782208e-01
1.869893980016914259e-01
-1.806489209323782208e-01
1.615773069067129586e-01
-1.295500551262591393e-01
8.362420100070908080e-02
-3.739787960033828795e-02
7.051811804639268599e-02
-1.042977031291239809e-01
1.365577483997837682e-01
-1.649091483060512175e-01
1.865734032750510085e-01
-1.978909779672614611e-01
1.931218198341070336e-01
-1.601281538050871311e-01
1.246595986677942816e-02
-2.787473366690302462e-02
4.828045495852675839e-02
-7.374961314478496732e-02
1.042977031291239809e-01
-1.399300524562882564e-01
1.806489209323782208e-01
-2.264554068289191535e-01
2.773500981126145737e-01
2.080625946441197471e-02
-4.652421051992354506e-02
8.058229640253802839e-02
-1.230914909793327378e-01
1.740776559556978520e-01
-2.335496832484568741e-01
3.015113445777636292e-01
-5.504818825631802720e-02
1.019294382875251120e-01
-1.471224715841249198e-01
1.860968420796941802e-01
-2.132007163556104423e-01
2.201927530252721088e-01
-1.906925178491184480e-01
1.100963765126360544e-01
-1.651445647689540885e-01
1.973855084879307109e-01
-2.080625946441197471e-01
1.973855084879307109e-01
-1.651445647689540885e-01
1.100963765126360544e-01
-1.906925178491184480e-01
2.201927530252721088e-01
-2.132007163556104423e-01
1.860968420796941802e-01
-1.471224715841249198e-01
1.019294382875251120e-01
-5.504818825631802720e-02
3.015113445777636292e-01
-2.335496832484568741e-01
1.740776559556978520e-01
-1.230914909793327378e-01
8.058229640253802839e-02
-4.652421051992354506e-02
2.080625946441197471e-02
8.362420100070908080e-02
-1.295500551262591393e-01
1.615773069067129586e-01
-1.806489209323782208e-01
1.869893980016914259e-01
-1.806489209323782208e-01
1.615773069067129586e-01
-1.295500551262591393e-01
8.362420100070908080e-02
-1.773937187967248030e-01
1.851100598717808077e-01
-1.526762041381148349e-01
9.894548898363073053e-02
-3.413943709994594206e-02
-3.413943709994594206e-02
9.894548898363073053e-02
-1.526762041381148349e-01
1.851100598717808077e-01
-1.773937187967248030e-01
2.290143062071722246e-01
-9.160572248286889818e-02
-1.526762041381148245e-02
9.160572248286889818e-02
-1.374085837243033403e-01
1.526762041381148349e-01
-1.374085837243033403e-01
9.160572248286889818e-02
-1.526762041381148245e-02
-9.160572248286889818e-02
2.290143062071722246e-01
-1.773937187967248030e-01
1.851100598717808077e-01
-1.526762041381148349e-01
9.894548898363073053e-02
-3.413943709994594206e-02
-3.413943709994594206e-02
9.894548898363073053e-02
-1.526762041381148349e-01
1.851100598717808077e-01
-1.773937187967248030e-01
8.362420100070908080e-02
-1.295500551262591393e-01
1.615773069067129586e-01
-1.806489209323782208e-01
1.869893980016914259e-01
-1.806489209323782208e-01
1.615773069067129586e-01
-1.295500551262591393e-01
8.362420100070908080e-02
2.581988897471610978e-01
-2.182178902359923622e-01
1.815682598006407300e-01
-1.482498633322202330e-01
1.182624791978165169e-01
-9.160572248286889818e-02
6.827887419989188411e-02
-4.828045495852675839e-02
3.160697706205069929e-02
-1.824829671504529793e-02
8.160886385685479222e-03
-1.380131118684708447e-01
1.711841970043651573e-01
-1.815682598006407300e-01
1.787960625070696696e-01
-1.672484020014181616e-01
1.495915184013531518e-01
-1.277380770053170855e-01
1.032279548185018325e-01
-7.742096611387637439e-02
5.161397740925091626e-02
-2.706659809803833860e-02
6.629935441317959255e-02
-1.048284836721918439e-01
1.340970468803022730e-01
-1.548419322277527488e-01
1.672484020014181616e-01
-1.713786140993950602e-01
1.672484020014181616e-01
-1.548419322277527488e-01
1.340970468803022730e-01
-1.048284836721918439e-01
6.629935441317959255e-02
-2.706659809803833860e-02
5.161397740925091626e-02
-7.742096611387637439e-02
1.032279548185018325e-01
-1.277380770053170855e-01
1.495915184013531518e-01
-1.672484020014181616e-01
1.787960625070696696e-01
-1.815682598006407300e-01
1.711841970043651573e-01
-1.380131118684708447e-01
8.160886385685479222e-03
-1.824829671504529793e-02
3.160697706205069929e-02
-4.828045495852675839e-02
6.827887419989188411e-02
-9.160572248286889818e-02
1.182624791978165169e-01
-1.482498633322202330e-01
1.815682598006407300e-01
-2.182178902359923622e-01
2.581988897471610978e-01
1.246595986677942816e-02
-2.787473366690302462e-02
4.828045495852675839e-02
-7.374961314478496732e-02
1.042977031291239809e-01
-1.399300524562882564e-01
1.806489209323782208e-01
-2.264554068289191535e-01
2.773500981126145737e-01
-3.739787960033828795e-02
7.051811804639268599e-02
-1.042977031291239809e-01
1.365577483997837682e-01
-1.649091483060512175e-01
1.865734032750510085e-01
-1.978909779672614611e-01
1.931218198341070336e-01
-1.601281538050871311e-01
8.362420100070908080e-02
-1.295500551262591393e-01
1.615773069067129586e-01
-1.806489209323782208e-01
1.869893980016914259e-01
-1.806489209323782208e-01
1.615773069067129586e-01
-1.295500551262591393e-01
8.362420100070908080e-02
-1.601281538050871311e-01
1.931218198341070336e-01
-1.978909779672614611e-01
1.865734032750510085e-01
-1.649091483060512175e-01
1.365577483997837682e-01
-1.042977031291239809e-01
7.051811804639268599e-02
-3.739787960033828795e-02
2.773500981126145737e-01
-2.264554068289191535e-01
1.806489209323782208e-01
-1.399300524562882564e-01
1.042977031291239809e-01
-7.374961314478496732e-02
4.828045495852675839e-02
-2.787473366690302462e-02
1.246595986677942816e-02
6.629935441317959255e-02
-1.048284836721918439e-01
1.340970468803022730e-01
-1.548419322277527488e-01
1.672484020014181616e-01
-1.713786140993950602e-01
1.672484020014181616e-01
-1.548419322277527488e-01
1.340970468803022730e-01
-1.048284836721918439e-01
6.629935441317959255e-02
-1.554857684028482789e-01
1.722507755289643672e-01
-1.564465546936859575e-01
1.224132957852821779e-01
-7.742096611387637439e-02
2.644429426739725378e-02
2.644429426739725378e-02
-7.742096611387637439e-02
1.224132957852821779e-01
-1.564465546936859575e-01
1.722507755289643672e-01
-1.554857684028482789e-01
2.198900824313101132e-01
-1.099450412156550566e-01
1.999000749375546421e-02
4.997501873438865705e-02
-9.995003746877731410e-02
1.299350487094105278e-01
-1.399300524562882564e-01
1.299350487094105278e-01
-9.995003746877731410e-02
4.997501873438865705e-02
1.999000749375546421e-02
-1.099450412156550566e-01
2.198900824313101132e-01
-1.554857684028482789e-01
1.722507755289643672e-01
-1.564465546936859575e-01
1.224132957852821779e-01
-7.742096611387637439e-02
2.644429426739725378e-02
2.644429426739725378e-02
-7.742096611387637439e-02
1.224132957852821779e-01
-1.564465546936859575e-01
1.722507755289643672e-01
-1.554857684028482789e-01
6.629935441317959255e-02
-1.048284836721918439e-01
1.340970468803022730e-01
-1.548419322277527488e-01
1.672484020014181616e-01
-1.713786140993950602e-01
1.672484020014181616e-01
-1.548419322277527488e-01
1.340970468803022730e-01
-1.048284836721918439e-01
6.629935441317959255e-02
2.425356250363329691e-01
-2.100420126042014668e-01
1.798692335461253566e-01
-1.520172480262650672e-01
1.264859959646828513e-01
-1.032753832404016830e-01
8.238525545716346432e-02
-6.381534447172755586e-02
4.756514941544941200e-02
-3.363363969981562895e-02
2.201838568875384358e-02
-1.271232090452303551e-02
5.685122738861024365e-03
-1.212678125181664845e-01
1.533929977694740709e-01
-1.665265517476861579e-01
1.686479946195771074e-01
-1.632927186332250591e-01
1.525478508542764400e-01
-1.378569000336139494e-01
1.203313675192373700e-01
-1.009009190994468730e-01
8.039977681052935810e-02
-5.962607031450768008e-02
3.938768572388969685e-02
-2.049800154226969623e-02
5.423261445466404096e-02
-8.696565534786726559e-02
1.131325140715179617e-01
-1.333279464544214477e-01
1.477038214645863823e-01
-1.563150317156718483e-01
1.591834366881086926e-01
-1.563150317156718483e-01
1.477038214645863823e-01
-1.333279464544214477e-01
1.131325140715179617e-01
-8.696565534786726559e-02
5.423261445466404096e-02
-2.049800154226969623e-02
3.938768572388969685e-02
-5.962607031450768008e-02
8.039977681052935810e-02
-1.009009190994468730e-01
1.203313675192373700e-01
-1.378569000336139494e-01
1.525478508542764400e-01
-1.632927186332250591e-01
1.686479946195771074e-01
-1.665265517476861579e-01
1.533929977694740709e-01
-1.212678125181664845e-01
5.685122738861024365e-03
-1.271232090452303551e-02
2.201838568875384358e-02
-3.363363969981562895e-02
4.756514941544941200e-02
-6.381534447172755586e-02
8.238525545716346432e-02
-1.032753832404016830e-01
1.264859959646828513e-01
-1.520172480262650672e-01
1.798692335461253566e-01
-2.100420126042014668e-01
2.425356250363329691e-01
8.160886385685479222e-03
-1.824829671504529793e-02
3.160697706205069929e-02
-4.828045495852675839e-02
6.827887419989188411e-02
-9.160572248286889818e-02
1.182624791978165169e-01
-1.482498633322202330e-01
1.815682598006407300e-01
-2.182178902359923622e-01
2.581988897471610978e-01
-2.706659809803833860e-02
5.161397740925091626e-02
-7.742096611387637439e-02
1.032279548185018325e-01
-1.277380770053170855e-01
1.495915184013531518e-01
-1.672484020014181616e-01
1.787960625070696696e-01
-1.815682598006407300e-01
1.711841970043651573e-01
-1.380131118684708447e-01
6.629935441317959255e-02
-1.048284836721918439e-01
1.340970468803022730e-01
-1.548419322277527488e-01
1.672484020014181616e-01
-1.713786140993950602e-01
1.672484020014181616e-01
-1.548419322277527488e-01
1.340970468803022730e-01
-1.048284836721918439e-01
6.629935441317959255e-02
-1.380131118684708447e-01
1.711841970043651573e-01
-1.815682598006407300e-01
1.787960625070696696e-01
-1.672484020014181616e-01
1.495915184013531518e-01
-1.277380770053170855e-01
1.032279548185018325e-01
-7.742096611387637439e-02
5.161397740925091626e-02
-2.706659809803833860e-02
2.581988897471610978e-01
-2.182178902359923622e-01
1.815682598006407300e-01
-1.482498633322202330e-01
1.182624791978165169e-01
-9.160572248286889818e-02
6.827887419989188411e-02
-4.828045495852675839e-02
3.160697706205069929e-02
-1.824829671504529793e-02
8.160886385685479222e-03
5.423261445466404096e-02
-8.696565534786726559e-02
1.131325140715179617e-01
-1.333279464544214477e-01
1.477038214645863823e-01
-1.563150317156718483e-01
1.591834366881086926e-01
-1.563150317156718483e-01
1.477038214645863823e-01
-1.333279464544214477e-01
1.131325140715179617e-01
-8.696565534786726559e-02
5.423261445466404096e-02
-1.382665796887430354e-01
1.594370348044233110e-01
-1.534983139492476500e-01
1.319879330834376474e-01
-1.004997210131616941e-01
6.266542425886569012e-02
-2.127178149057585427e-02
-2.127178149057585427e-02
6.266542425886569012e-02
-1.004997210131616941e-01
1.319879330834376474e-01
-1.534983139492476500e-01
1.594370348044233110e-01
-1.382665796887430354e-01
2.112056891687695559e-01
-1.206889652392968831e-01
4.409789114512770863e-02
1.856753311373798496e-02
-6.730730753730018723e-02
1.021214321255589086e-01
-1.230099068785141386e-01
1.299727317961658912e-01
-1.230099068785141386e-01
1.021214321255589086e-01
-6.730730753730018723e-02
1.856753311373798496e-02
4.409789114512770863e-02
-1.206889652392968831e-01
2.112056891687695559e-01
-1.382665796887430354e-01
1.594370348044233110e-01
-1.534983139492476500e-01
1.319879330834376474e-01
-1.004997210131616941e-01
6.266542425886569012e-02
-2.127178149057585427e-02
-2.127178149057585427e-02
6.266542425886569012e-02
-1.004997210131616941e-01
1.319879330834376474e-01
-1.534983139492476500e-01
1.594370348044233110e-01
-1.382665796887430354e-01
5.423261445466404096e-02
-8.696565534786726559e-02
1.131325140715179617e-01
-1.333279464544214477e-01
1.477038214645863823e-01
-1.563150317156718483e-01
1.591834366881086926e-01
-1.563150317156718483e-01
1.477038214645863823e-01
-1.333279464544214477e-01
1.131325140715179617e-01
-8.696565534786726559e-02
5.423261445466404096e-02
2.294157338705617444e-01
-2.023256595556279791e-01
1.769286567235602847e-01
-1.532247113800596361e-01
1.312138036317135881e-01
-1.108959044184548021e-01
9.227096991223671107e-02
-7.533893145222635146e-02
6.009967640704203667e-02
-4.655300916738572964e-02
3.469856435181511989e-02
-2.453559015060627346e-02
1.606231415508088678e-02
-9.273581401244287287e-03
4.147271681611995262e-03
-1.081476140871750202e-01
1.387942574072604796e-01
-1.532247113800596361e-01
1.582498014406424069e-01
-1.568304920402092129e-01
1.506778629044527029e-01
-1.409462346899391649e-01
1.284985132406470942e-01
-1.140311184512026038e-01
9.814236060242509385e-02
-8.137534653950054264e-02
6.424925662032354712e-02
-4.728617252583573738e-02
3.103533944492381860e-02
-1.606231415508088678e-02
4.543108504242546197e-02
-7.360677045181883427e-02
9.690781635658204940e-02
-1.158269945775103615e-01
1.304908570632049569e-01
-1.409462346899391649e-01
1.472135409036376685e-01
-1.493017805380318364e-01
1.472135409036376685e-01
-1.409462346899391649e-01
1.304908570632049569e-01
-1.158269945775103615e-01
9.690781635658204940e-02
-7.360677045181883427e-02
4.543108504242546197e-02
-1.606231415508088678e-02
3.103533944492381860e-02
-4.728617252583573738e-02
6.424925662032354712e-02
-8.137534653950054264e-02
9.814236060242509385e-02
-1.140311184512026038e-01
1.284985132406470942e-01
-1.409462346899391649e-01
1.506778629044527029e-01
-1.568304920402092129e-01
1.582498014406424069e-01
-1.532247113800596361e-01
1.387942574072604796e-01
-1.081476140871750202e-01
4.147271681611995262e-03
-9.273581401244287287e-03
1.606231415508088678e-02
-2.453559015060627346e-02
3.469856435181511989e-02
-4.655300916738572964e-02
6.009967640704203667e-02
-7.533893145222635146e-02
9.227096991223671107e-02
-1.108959044184548021e-01
1.312138036317135881e-01
-1.532247113800596361e-01
1.769286567235602847e-01
-2.023256595556279791e-01
2.294157338705617444e-01
5.685122738861024365e-03
-1.271232090452303551e-02
2.201838568875384358e-02
-3.363363969981562895e-02
4.756514941544941200e-02
-6.381534447172755586e-02
8.238525545716346432e-02
-1.032753832404016830e-01
1.264859959646828513e-01
-1.520172480262650672e-01
1.798692335461253566e-01
-2.100420126042014668e-01
2.425356250363329691e-01
-2.049800154226969623e-02
3.938768572388969685e-02
-5.962607031450768008e-02
8.039977681052935810e-02
-1.009009190994468730e-01
1.203313675192373700e-01
-1.378569000336139494e-01
1.525478508542764400e-01
-1.632927186332250591e-01
1.686479946195771074e-01
-1.665265517476861579e-01
1.533929977694740709e-01
-1.212678125181664845e-01
5.423261445466404096e-02
-8.696565534786726559e-02
1.131325140715179617e-01
-1.333279464544214477e-01
1.477038214645863823e-01
-1.563150317156718483e-01
1.591834366881086926e-01
-1.563150317156718483e-01
1.477038214645863823e-01
-1.333279464544214477e-01
1.131325140715179617e-01
-8.696565534786726559e-02
5.423261445466404096e-02
-1.212678125181664845e-01
1.533929977694740709e-01
-1.665265517476861579e-01
1.686479946195771074e-01
-1.632927186332250591e-01
1.525478508542764400e-01
-1.378569000336139494e-01
1.203313675192373700e-01
-1.009009190994468730e-01
8.039977681052935810e-02
-5.962607031450768008e-02
3.938768572388969685e-02
-2.049800154226969623e-02
2.425356250363329691e-01
-2.100420126042014668e-01
1.798692335461253566e-01
-1.520172480262650672e-01
1.264859959646828513e-01
-1.032753832404016830e-01
8.238525545716346432e-02
-6.381534447172755586e-02
4.756514941544941200e-02
-3.363363969981562895e-02
2.201838568875384358e-02
-1.271232090452303551e-02
5.685122738861024365e-03
4.543108504242546197e-02
-7.360677045181883427e-02
9.690781635658204940e-02
-1.158269945775103615e-01
1.304908570632049569e-01
-1.409462346899391649e-01
1.472135409036376685e-01
-1.493017805380318364e-01
1.472135409036376685e-01
-1.409462346899391649e-01
1.304908570632049569e-01
-1.158269945775103615e-01
9.690781635658204940e-02
-7.360677045181883427e-02
4.543108504242546197e-02
-1.244181504483598821e-01
1.476510263878827445e-01
-1.478256580590749658e-01
1.345788063119863209e-01
-1.124361990855662213e-01
8.423148603968752535e-02
-5.204784652772269371e-02
1.759538357694467176e-02
1.759538357694467176e-02
-5.204784652772269371e-02
8.423148603968752535e-02
-1.124361990855662213e-01
1.345788063119863209e-01
-1.478256580590749658e-01
1.476510263878827445e-01
-1.244181504483598821e-01
2.031739888928744964e-01
-1.269837430580465776e-01
6.095219666786236279e-02
-5.079349722321862409e-03
-4.063479777857489927e-02
7.619024583482794655e-02
-1.015869944464372482e-01
1.168250436134028458e-01
-1.219043933357247256e-01
1.168250436134028458e-01
-1.015869944464372482e-01
7.619024583482794655e-02
-4.063479777857489927e-02
-5.079349722321862409e-03
6.095219666786236279e-02
-1.269837430580465776e-01
2.031739888928744964e-01
-1.244181504483598821e-01
1.476510263878827445e-01
-1.478256580590749658e-01
1.345788063119863209e-01
-1.124361990855662213e-01
8.423148603968752535e-02
-5.204784652772269371e-02
1.759538357694467176e-02
1.759538357694467176e-02
-5.204784652772269371e-02
8.423148603968752535e-02
-1.124361990855662213e-01
1.345788063119863209e-01
-1.478256580590749658e-01
1.476510263878827445e-01
-1.244181504483598821e-01
4.543108504242546197e-02
-7.360677045181883427e-02
9.690781635658204940e-02
-1.158269945775103615e-01
1.304908570632049569e-01
-1.409462346899391649e-01
1.472135409036376685e-01
-1.493017805380318364e-01
1.472135409036376685e-01
-1.409462346899391649e-01
1.304908570632049569e-01
-1.158269945775103615e-01
9.690781635658204940e-02
-7.360677045181883427e-02
4.543108504242546197e-02
2.182178902359923622e-01
-1.951800145897066574e-01
1.734219939048239900e-01
-1.529438225803745055e-01
1.337454929975018525e-01
-1.158269945775103615e-01
9.918831228239369247e-02
-8.382942414480581972e-02
6.975029703385762780e-02
-5.695087904683805713e-02
4.543108504242546197e-02
-3.519076715388934351e-02
2.622964917882112182e-02
-1.854716280248857457e-02
1.214196820986759850e-02
-7.010168614458935771e-03
3.135042711133139131e-03
-9.759000729485332870e-02
1.266495173722607115e-01
-1.415984650809577194e-01
1.483773024199085966e-01
-1.495320070133181467e-01
1.465108469587620144e-01
-1.402734564586590182e-01
1.315224213931110719e-01
-1.208110583056621612e-01
1.086010651916215208e-01
-9.529704794893290032e-02
8.126959555714979855e-02
-6.687274649875092625e-02
5.245929835764224364e-02
-3.839627482053895036e-02
2.508034168906511305e-02
-1.292611223882468921e-02
3.877833671647407110e-02
-6.332475868613035574e-02
8.412202337350724313e-02
-1.015869944464372482e-01
1.158269945775103615e-01
-1.268821153962619852e-01
1.347703776635000572e-01
-1.395005940677152556e-01
1.410769220009912839e-01
-1.395005940677152556e-01
1.347703776635000572e-01
-1.268821153962619852e-01
1.158269945775103615e-01
-1.015869944464372482e-01
8.412202337350724313e-02
-6.332475868613035574e-02
3.877833671647407110e-02
-1.292611223882468921e-02
2.508034168906511305e-02
-3.839627482053895036e-02
5.245929835764224364e-02
-6.687274649875092625e-02
8.126959555714979855e-02
-9.529704794893290032e-02
1.086010651916215208e-01
-1.208110583056621612e-01
1.315224213931110719e-01
-1.402734564586590182e-01
1.465108469587620144e-01
-1.495320070133181467e-01
1.483773024199085966e-01
-1.415984650809577194e-01
1.266495173722607115e-01
-9.759000729485332870e-02
3.135042711133139131e-03
-7.010168614458935771e-03
1.214196820986759850e-02
-1.854716280248857457e-02
2.622964917882112182e-02
-3.519076715388934351e-02
4.543108504242546197e-02
-5.695087904683805713e-02
6.975029703385762780e-02
-8.382942414480581972e-02
9.918831228239369247e-02
-1.158269945775103615e-01
1.337454929975018525e-01
-1.529438225803745055e-01
1.734219939048239900e-01
-1.951800145897066574e-01
2.182178902359923622e-01
4.147271681611995262e-03
-9.273581401244287287e-03
1.606231415508088678e-02
-2.453559015060627346e-02
3.469856435181511989e-02
-4.655300916738572964e-02
6.009967640704203667e-02
-7.533893145222635146e-02
9.227096991223671107e-02
-1.108959044184548021e-01
1.312138036317135881e-01
-1.532247113800596361e-01
1.769286567235602847e-01
-2.023256595556279791e-01
2.294157338705617444e-01
-1.606231415508088678e-02
3.103533944492381860e-02
-4.728617252583573738e-02
6.424925662032354712e-02
-8.137534653950054264e-02
9.814236060242509385e-02
-1.140311184512026038e-01
1.284985132406470942e-01
-1.409462346899391649e-01
1.506778629044527029e-01
-1.568304920402092129e-01
1.582498014406424069e-01
-1.532247113800596361e-01
1.387942574072604796e-01
-1.081476140871750202e-01
4.543108504242546197e-02
-7.360677045181883427e-02
9.690781635658204940e-02
-1.158269945775103615e-01
1.304908570632049569e-01
-1.409462346899391649e-01
1.472135409036376685e-01
-1.493017805380318364e-01
1.472135409036376685e-01
-1.409462346899391649e-01
1.304908570632049569e-01
-1.158269945775103615e-01
9.690781635658204940e-02
-7.360677045181883427e-02
4.543108504242546197e-02
-1.081476140871750202e-01
1.387942574072604796e-01
-1.532247113800596361e-01
1.582498014406424069e-01
-1.568304920402092129e-01
1.506778629044527029e-01
-1.409462346899391649e-01
1.284985132406470942e-01
-1.140311184512026038e-01
9.814236060242509385e-02
-8.137534653950054264e-02
6.424925662032354712e-02
-4.728617252583573738e-02
3.103533944492381860e-02
-1.606231415508088678e-02
2.294157338705617444e-01
-2.023256595556279791e-01
1.769286567235602847e-01
-1.532247113800596361e-01
1.312138036317135881e-01
-1.108959044184548021e-01
9.227096991223671107e-02
-7.533893145222635146e-02
6.009967640704203667e-02
-4.655300916738572964e-02
3.469856435181511989e-02
-2.453559015060627346e-02
1.606231415508088678e-02
-9.273581401244287287e-03
4.147271681611995262e-03
3.877833671647407110e-02
-6.332475868613035574e-02
8.412202337350724313e-02
-1.015869944464372482e-01
1.158269945775103615e-01
-1.268821153962619852e-01
1.347703776635000572e-01
-1.395005940677152556e-01
1.410769220009912839e-01
-1.395005940677152556e-01
1.347703776635000572e-01
-1.268821153962619852e-01
1.158269945775103615e-01
-1.015869944464372482e-01
8.412202337350724313e-02
-6.332475868613035574e-02
3.877833671647407110e-02
-1.130573079779367829e-01
1.371021242767704318e-01
-1.411813847491079910e-01
1.335616503085435836e-01
-1.180334213046950464e-01
9.690781635658204940e-02
-7.183285265343591908e-02
4.411396122005534215e-02
-1.487081329363505386e-02
-1.487081329363505386e-02
4.411396122005534215e-02
-7.183285265343591908e-02
9.690781635658204940e-02
-1.180334213046950464e-01
1.335616503085435836e-01
-1.411813847491079910e-01
1.371021242767704318e-01
-1.130573079779367829e-01
1.958210015847486607e-01
-1.305473343898324312e-01
7.295292215902400568e-02
-2.303776489232337368e-02
-1.919813741026947518e-02
5.375478474875453050e-02
-8.063217712313180963e-02
9.983031453340127093e-02
-1.113491969795629699e-01
1.151888244616168649e-01
-1.113491969795629699e-01
9.983031453340127093e-02
-8.063217712313180963e-02
5.375478474875453050e-02
-1.919813741026947518e-02
-2.303776489232337368e-02
7.295292215902400568e-02
-1.305473343898324312e-01
1.958210015847486607e-01
-1.130573079779367829e-01
1.371021242767704318e-01
-1.411813847491079910e-01
1.335616503085435836e-01
-1.180334213046950464e-01
9.690781635658204940e-02
-7.183285265343591908e-02
4.411396122005534215e-02
-1.487081329363505386e-02
-1.487081329363505386e-02
4.411396122005534215e-02
-7.183285265343591908e-02
9.690781635658204940e-02
-1.180334213046950464e-01
1.335616503085435836e-01
-1.411813847491079910e-01
1.371021242767704318e-01
-1.130573079779367829e-01
3.877833671647407110e-02
-6.332475868613035574e-02
8.412202337350724313e-02
-1.015869944464372482e-01
1.158269945775103615e-01
-1.268821153962619852e-01
1.347703776635000572e-01
-1.395005940677152556e-01
1.410769220009912839e-01
-1.395005940677152556e-01
1.347703776635000572e-01
-1.268821153962619852e-01
1.158269945775103615e-01
-1.015869944464372482e-01
8.412202337350724313e-02
-6.332475868613035574e-02
3.877833671647407110e-02
3.135042711133139131e-03
-7.010168614458935771e-03
1.214196820986759850e-02
-1.854716280248857457e-02
2.622964917882112182e-02
-3.519076715388934351e-02
4.543108504242546197e-02
-5.695087904683805713e-02
6.975029703385762780e-02
-8.382942414480581972e-02
9.918831228239369247e-02
-1.158269945775103615e-01
1.337454929975018525e-01
-1.529438225803745055e-01
1.734219939048239900e-01
-1.951800145897066574e-01
2.182178902359923622e-01
-1.292611223882468921e-02
2.508034168906511305e-02
-3.839627482053895036e-02
5.245929835764224364e-02
-6.687274649875092625e-02
8.126959555714979855e-02
-9.529704794893290032e-02
1.086010651916215208e-01
-1.208110583056621612e-01
1.315224213931110719e-01
-1.402734564586590182e-01
1.465108469587620144e-01
-1.495320070133181467e-01
1.483773024199085966e-01
-1.415984650809577194e-01
1.266495173722607115e-01
-9.759000729485332870e-02
3.877833671647407110e-02
-6.332475868613035574e-02
8.412202337350724313e-02
-1.015869944464372482e-01
1.158269945775103615e-01
-1.268821153962619852e-01
1.347703776635000572e-01
-1.395005940677152556e-01
1.410769220009912839e-01
-1.395005940677152556e-01
1.347703776635000572e-01
-1.268821153962619852e-01
1.158269945775103615e-01
-1.015869944464372482e-01
8.412202337350724313e-02
-6.332475868613035574e-02
3.877833671647407110e-02
-9.759000729485332870e-02
1.266495173722607115e-01
-1.415984650809577194e-01
1.483773024199085966e-01
-1.495320070133181467e-01
1.465108469587620144e-01
-1.402734564586590182e-01
1.315224213931110719e-01
-1.208110583056621612e-01
1.086010651916215208e-01
-9.529704794893290032e-02
8.126959555714979855e-02
-6.687274649875092625e-02
5.245929835764224364e-02
-3.839627482053895036e-02
2.508034168906511305e-02
-1.292611223882468921e-02
2.182178902359923622e-01
-1.951800145897066574e-01
1.734219939048239900e-01
-1.529438225803745055e-01
1.337454929975018525e-01
-1.158269945775103615e-01
9.918831228239369247e-02
-8.382942414480581972e-02
6.975029703385762780e-02
-5.695087904683805713e-02
4.543108504242546197e-02
-3.519076715388934351e-02
2.622964917882112182e-02
-1.854716280248857457e-02
1.214196820986759850e-02
-7.010168614458935771e-03
3.135042711133139131e-03
3.360514063549747965e-02
-5.521888072258639146e-02
7.386696533943110099e-02
-8.990800704635257268e-02
1.034344404323926658e-01
-1.144809470949802871e-01
1.230633203665415093e-01
-1.291895746931501221e-01
1.328639443998168024e-01
-1.340885227696315685e-01
1.328639443998168024e-01
-1.291895746931501221e-01
1.230633203665415093e-01
-1.144809470949802871e-01
1.034344404323926658e-01
-8.990800704635257268e-02
7.386696533943110099e-02
-5.521888072258639146e-02
3.360514063549747965e-02
-1.035779997526012214e-01
1.277437440525018286e-01
-1.343652795610204842e-01
1.306762700601633853e-01
-1.199324207661698338e-01
1.040788980096672284e-01
-8.447145968645400349e-02
6.215636310465289666e-02
-3.800424013344951696e-02
1.278483901080494818e-02
1.278483901080494818e-02
-3.800424013344951696e-02
6.215636310465289666e-02
-8.447145968645400349e-02
1.040788980096672284e-01
-1.199324207661698338e-01
1.306762700601633853e-01
-1.343652795610204842e-01
1.277437440525018286e-01
-1.035779997526012214e-01
1.891066897525473522e-01
-1.323746828267831355e-01
8.161446610373096489e-02
-3.682603958339079886e-02
-1.990596734237340491e-03
3.483544284915345707e-02
-6.170849876135756085e-02
8.260976447084962537e-02
-9.753923997762968534e-02
1.064969252816977130e-01
-1.094828203830537222e-01
1.064969252816977130e-01
-9.753923997762968534e-02
8.260976447084962537e-02
-6.170849876135756085e-02
3.483544284915345707e-02
-1.990596734237340491e-03
-3.682603958339079886e-02
8.161446610373096489e-02
-1.323746828267831355e-01
1.891066897525473522e-01
-1.035779997526012214e-01
1.277437440525018286e-01
-1.343652795610204842e-01
1.306762700601633853e-01
-1.199324207661698338e-01
1.040788980096672284e-01
-8.447145968645400349e-02
6.215636310465289666e-02
-3.800424013344951696e-02
1.278483901080494818e-02
1.278483901080494818e-02
-3.800424013344951696e-02
6.215636310465289666e-02
-8.447145968645400349e-02
1.040788980096672284e-01
-1.199324207661698338e-01
1.306762700601633853e-01
-1.343652795610204842e-01
1.277437440525018286e-01
-1.035779997526012214e-01
3.360514063549747965e-02
-5.521888072258639146e-02
7.386696533943110099e-02
-8.990800704635257268e-02
1.034344404323926658e-01
-1.144809470949802871e-01
1.230633203665415093e-01
-1.291895746931501221e-01
1.328639443998168024e-01
-1.340885227696315685e-01
1.328639443998168024e-01
-1.291895746931501221e-01
1.230633203665415093e-01
-1.144809470949802871e-01
1.034344404323926658e-01
-8.990800704635257268e-02
7.386696533943110099e-02
-5.521888072258639146e-02
3.360514063549747965e-02
3.779644730092271976e-01
-3.779644730092271976e-01
3.779644730092271976e-01
-3.779644730092271976e-01
3.779644730092271976e-01
-3.779644730092271976e-01
3.779644730092271976e-01
3.779644730092271976e-01
-2.182178902359923622e-01
-3.086066999241838249e-01
9.759000729485332870e-02
2.760262237369416893e-01
2.390457218668787243e-01
-1.690308509457033037e-01
-2.927700218845599167e-01
-1.690308509457033037e-01
2.390457218668787243e-01
2.760262237369416893e-01
9.759000729485332870e-02
-3.086066999241838249e-01
-2.182178902359923622e-01
3.779644730092271976e-01
3.333333333333333148e-01
-1.666666666666666574e-01
6.299407883487119497e-02
-2.886751345948128655e-01
2.182178902359923622e-01
-1.091089451179961811e-01
2.439750182371332732e-01
-2.439750182371332732e-01
1.543033499620919125e-01
-1.992047682223989369e-01
2.519763153394847799e-01
-1.992047682223989369e-01
1.543033499620919125e-01
-2.439750182371332732e-01
2.439750182371332732e-01
-1.091089451179961811e-01
2.182178902359923622e-01
-2.886751345948128655e-01
6.299407883487119497e-02
-1.666666666666666574e-01
3.333333333333333148e-01
3.779644730092271976e-01
-3.086066999241838249e-01
-2.182178902359923622e-01
2.390457218668787243e-01
2.760262237369416893e-01
9.759000729485332870e-02
-1.690308509457033037e-01
-2.927700218845599167e-01
-1.690308509457033037e-01
9.759000729485332870e-02
2.760262237369416893e-01
2.390457218668787243e-01
-2.182178902359923622e-01
-3.086066999241838249e-01
3.779644730092271976e-01
2.439750182371332732e-01
-2.439750182371332732e-01
1.543033499620919125e-01
-2.439750182371332732e-01
0.000000000000000000e+00
1.889822365046135988e-01
-2.182178902359923622e-01
1.543033499620919125e-01
1.889822365046135988e-01
-1.463850109422799584e-01
-6.900655593423542233e-02
2.390457218668787243e-01
-2.182178902359923622e-01
-6.900655593423542233e-02
1.951800145897066574e-01
-6.900655593423542233e-02
-2.182178902359923622e-01
2.390457218668787243e-01
-6.900655593423542233e-02
-1.463850109422799584e-01
1.889822365046135988e-01
1.543033499620919125e-01
-2.182178902359923622e-01
1.889822365046135988e-01
0.000000000000000000e+00
-2.439750182371332732e-01
1.543033499620919125e-01
-2.439750182371332732e-01
2.439750182371332732e-01
3.015113445777636292e-01
-1.906925178491184480e-01
1.100963765126360544e-01
-5.504818825631802720e-02
2.080625946441197471e-02
-2.335496832484568741e-01
2.201927530252721088e-01
-1.651445647689540885e-01
1.019294382875251120e-01
-4.652421051992354506e-02
1.740776559556978520e-01
-2.132007163556104423e-01
1.973855084879307109e-01
-1.471224715841249198e-01
8.058229640253802839e-02
-1.230914909793327378e-01
1.860968420796941802e-01
-2.080625946441197471e-01
1.860968420796941802e-01
-1.230914909793327378e-01
8.058229640253802839e-02
-1.471224715841249198e-01
1.973855084879307109e-01
-2.132007163556104423e-01
1.740776559556978520e-01
-4.652421051992354506e-02
1.019294382875251120e-01
-1.651445647689540885e-01
2.201927530252721088e-01
-2.335496832484568741e-01
2.080625946441197471e-02
-5.504818825631802720e-02
1.100963765126360544e-01
-1.906925178491184480e-01
3.015113445777636292e-01
3.779644730092271976e-01
-3.779644730092271976e-01
3.779644730092271976e-01
-3.779644730092271976e-01
3.779644730092271976e-01
-3.779644730092271976e-01
3.779644730092271976e-01
1.543033499620919125e-01
-2.439750182371332732e-01
2.439750182371332732e-01
-2.182178902359923622e-01
1.889822365046135988e-01
0.000000000000000000e+00
-2.439750182371332732e-01
2.390457218668787243e-01
-6.900655593423542233e-02
-1.463850109422799584e-01
1.889822365046135988e-01
1.543033499620919125e-01
-2.182178902359923622e-01
-6.900655593423542233e-02
1.951800145897066574e-01
-6.900655593423542233e-02
-2.182178902359923622e-01
1.543033499620919125e-01
1.889822365046135988e-01
-1.463850109422799584e-01
-6.900655593423542233e-02
2.390457218668787243e-01
-2.439750182371332732e-01
0.000000000000000000e+00
1.889822365046135988e-01
-2.182178902359923622e-01
2.439750182371332732e-01
-2.439750182371332732e-01
1.543033499620919125e-01
1.740776559556978520e-01
-2.132007163556104423e-01
1.973855084879307109e-01
-1.471224715841249198e-01
8.058229640253802839e-02
-2.247332874877473741e-01
1.005037815259212097e-01
4.652421051992354506e-02
-1.519474352795172623e-01
1.880253582725887329e-01
-1.471224715841249198e-01
1.740776559556978520e-01
1.005037815259212097e-01
-1.698823971458751914e-01
1.040312973220598736e-01
2.686076546751267613e-02
-1.519474352795172623e-01
1.973855084879307109e-01
-2.132007163556104423e-01
4.652421051992354506e-02
1.040312973220598736e-01
-1.611645928050760568e-01
1.040312973220598736e-01
4.652421051992354506e-02
-2.132007163556104423e-01
1.973855084879307109e-01
-1.519474352795172623e-01
2.686076546751267613e-02
1.040312973220598736e-01
-1.698823971458751914e-01
1.005037815259212097e-01
1.740776559556978520e-01
-1.471224715841249198e-01
1.880253582725887329e-01
-1.519474352795172623e-01
4.652421051992354506e-02
1.005037815259212097e-01
-2.247332874877473741e-01
8.058229640253802839e-02
-1.471224715841249198e-01
1.973855084879307109e-01
-2.132007163556104423e-01
1.740776559556978520e-01
2.773500981126145737e-01
-1.961161351381840445e-01
1.322214713369862793e-01
-8.362420100070908080e-02
4.828045495852675839e-02
-2.414022747926337920e-02
9.124148357522648967e-03
-1.961161351381840445e-01
2.048366225996756662e-01
-1.773937187967248030e-01
1.365577483997837682e-01
-9.349469900084571294e-02
5.474489014513589380e-02
-2.414022747926337920e-02
1.322214713369862793e-01
-1.773937187967248030e-01
1.869893980016914259e-01
-1.706971854997297311e-01
1.368622253628397345e-01
-9.349469900084571294e-02
4.828045495852675839e-02
-8.362420100070908080e-02
1.365577483997837682e-01
-1.706971854997297311e-01
1.824829671504529793e-01
-1.706971854997297311e-01
1.365577483997837682e-01
-8.362420100070908080e-02
4.828045495852675839e-02
-9.349469900084571294e-02
1.368622253628397345e-01
-1.706971854997297311e-01
1.869893980016914259e-01
-1.773937187967248030e-01
1.322214713369862793e-01
-2.414022747926337920e-02
5.474489014513589380e-02
-9.349469900084571294e-02
1.365577483997837682e-01
-1.773937187967248030e-01
2.048366225996756662e-01
-1.961161351381840445e-01
9.124148357522648967e-03
-2.414022747926337920e-02
4.828045495852675839e-02
-8.362420100070908080e-02
1.322214713369862793e-01
-1.961161351381840445e-01
2.773500981126145737e-01
6.299407883487119497e-02
-1.666666666666666574e-01
3.333333333333333148e-01
-1.091089451179961811e-01
2.182178902359923622e-01
-2.886751345948128655e-01
1.543033499620919125e-01
-2.439750182371332732e-01
2.439750182371332732e-01
-1.992047682223989369e-01
2.519763153394847799e-01
-1.992047682223989369e-01
2.439750182371332732e-01
-2.439750182371332732e-01
1.543033499620919125e-01
-2.886751345948128655e-01
2.182178902359923622e-01
-1.091089451179961811e-01
3.333333333333333148e-01
-1.666666666666666574e-01
6.299407883487119497e-02
8.058229640253802839e-02
-1.471224715841249198e-01
1.973855084879307109e-01
-2.132007163556104423e-01
1.740776559556978520e-01
-1.471224715841249198e-01
1.880253582725887329e-01
-1.519474352795172623e-01
4.652421051992354506e-02
1.005037815259212097e-01
-2.247332874877473741e-01
1.973855084879307109e-01
-1.519474352795172623e-01
2.686076546751267613e-02
1.040312973220598736e-01
-1.698823971458751914e-01
1.005037815259212097e-01
1.740776559556978520e-01
-2.132007163556104423e-01
4.652421051992354506e-02
1.040312973220598736e-01
-1.611645928050760568e-01
1.040312973220598736e-01
4.652421051992354506e-02
-2.132007163556104423e-01
1.740776559556978520e-01
1.005037815259212097e-01
-1.698823971458751914e-01
1.040312973220598736e-01
2.686076546751267613e-02
-1.519474352795172623e-01
1.973855084879307109e-01
-2.247332874877473741e-01
1.005037815259212097e-01
4.652421051992354506e-02
-1.519474352795172623e-01
1.880253582725887329e-01
-1.471224715841249198e-01
1.740776559556978520e-01
-2.132007163556104423e-01
1.973855084879307109e-01
-1.471224715841249198e-01
8.058229640253802839e-02
1.322214713369862793e-01
-1.773937187967248030e-01
1.869893980016914259e-01
-1.706971854997297311e-01
1.368622253628397345e-01
-9.349469900084571294e-02
4.828045495852675839e-02
-2.019716336333911844e-01
1.365577483997837682e-01
-3.413943709994594206e-02
-6.232979933389714428e-02
1.316957377585445954e-01
-1.632177277137095706e-01
1.533110351679666250e-01
-1.042977031291239809e-01
1.806489209323782208e-01
4.039432672667823965e-02
-1.374085837243033403e-01
1.410362360927853720e-01
-8.194819531574026872e-02
-9.124148357522648967e-03
1.013013339594314582e-01
-1.632517278656696325e-01
1.615773069067129586e-01
-1.978909779672614611e-01
9.894548898363073053e-02
2.159167585437652553e-02
-1.096417439724123588e-01
1.413506985480439127e-01
-1.096417439724123588e-01
2.159167585437652553e-02
9.894548898363073053e-02
-1.978909779672614611e-01
1.615773069067129586e-01
-1.632517278656696325e-01
1.013013339594314582e-01
-9.124148357522648967e-03
-8.194819531574026872e-02
1.410362360927853720e-01
-1.374085837243033403e-01
4.039432672667823965e-02
1.806489209323782208e-01
-1.042977031291239809e-01
1.533110351679666250e-01
-1.632177277137095706e-01
1.316957377585445954e-01
-6.232979933389714428e-02
-3.413943709994594206e-02
1.365577483997837682e-01
-2.019716336333911844e-01
4.828045495852675839e-02
-9.349469900084571294e-02
1.368622253628397345e-01
-1.706971854997297311e-01
1.869893980016914259e-01
-1.773937187967248030e-01
1.322214713369862793e-01
2.581988897471610978e-01
-1.951800145897066574e-01
1.432229748078865661e-01
-1.012739367083666658e-01
6.827887419989188411e-02
-4.318335170875305107e-02
2.493191973355885632e-02
-1.246595986677942816e-02
4.711689951601463235e-03
-1.690308509457033037e-01
1.875228923753981813e-01
-1.754116038614058626e-01
1.495915184013531518e-01
-1.182624791978165169e-01
8.636670341750610214e-02
-5.712620469979835108e-02
3.264354554274191689e-02
-1.413506985480439057e-02
1.048284836721918439e-01
-1.482498633322202330e-01
1.672484020014181616e-01
-1.672484020014181616e-01
1.526762041381148349e-01
-1.277380770053170855e-01
9.656090991705351678e-02
-6.321395412410139858e-02
3.160697706205069929e-02
-6.052275326688023871e-02
1.032279548185018325e-01
-1.365577483997837682e-01
1.576833055970887076e-01
-1.649091483060512175e-01
1.576833055970887076e-01
-1.365577483997837682e-01
1.032279548185018325e-01
-6.052275326688023871e-02
3.160697706205069929e-02
-6.321395412410139858e-02
9.656090991705351678e-02
-1.277380770053170855e-01
1.526762041381148349e-01
-1.672484020014181616e-01
1.672484020014181616e-01
-1.482498633322202330e-01
1.048284836721918439e-01
-1.413506985480439057e-02
3.264354554274191689e-02
-5.712620469979835108e-02
8.636670341750610214e-02
-1.182624791978165169e-01
1.495915184013531518e-01
-1.754116038614058626e-01
1.875228923753981813e-01
-1.690308509457033037e-01
4.711689951601463235e-03
-1.246595986677942816e-02
2.493191973355885632e-02
-4.318335170875305107e-02
6.827887419989188411e-02
-1.012739367083666658e-01
1.432229748078865661e-01
-1.951800145897066574e-01
2.581988897471610978e-01
2.080625946441197471e-02
-5.504818825631802720e-02
1.100963765126360544e-01
-1.906925178491184480e-01
3.015113445777636292e-01
-4.652421051992354506e-02
1.019294382875251120e-01
-1.651445647689540885e-01
2.201927530252721088e-01
-2.335496832484568741e-01
8.058229640253802839e-02
-1.471224715841249198e-01
1.973855084879307109e-01
-2.132007163556104423e-01
1.740776559556978520e-01
-1.230914909793327378e-01
1.860968420796941802e-01
-2.080625946441197471e-01
1.860968420796941802e-01
-1.230914909793327378e-01
1.740776559556978520e-01
-2.132007163556104423e-01
1.973855084879307109e-01
-1.471224715841249198e-01
8.058229640253802839e-02
-2.335496832484568741e-01
2.201927530252721088e-01
-1.651445647689540885e-01
1.019294382875251120e-01
-4.652421051992354506e-02
3.015113445777636292e-01
-1.906925178491184480e-01
1.100963765126360544e-01
-5.504818825631802720e-02
2.080625946441197471e-02
4.828045495852675839e-02
-9.349469900084571294e-02
1.368622253628397345e-01
-1.706971854997297311e-01
1.869893980016914259e-01
-1.773937187967248030e-01
1.322214713369862793e-01
-1.042977031291239809e-01
1.533110351679666250e-01
-1.632177277137095706e-01
1.316957377585445954e-01
-6.232979933389714428e-02
-3.413943709994594206e-02
1.365577483997837682e-01
-2.019716336333911844e-01
1.615773069067129586e-01
-1.632517278656696325e-01
1.013013339594314582e-01
-9.124148357522648967e-03
-8.194819531574026872e-02
1.410362360927853720e-01
-1.374085837243033403e-01
4.039432672667823965e-02
1.806489209323782208e-01
-1.978909779672614611e-01
9.894548898363073053e-02
2.159167585437652553e-02
-1.096417439724123588e-01
1.413506985480439127e-01
-1.096417439724123588e-01
2.159167585437652553e-02
9.894548898363073053e-02
-1.978909779672614611e-01
1.806489209323782208e-01
4.039432672667823965e-02
-1.374085837243033403e-01
1.410362360927853720e-01
-8.194819531574026872e-02
-9.124148357522648967e-03
1.013013339594314582e-01
-1.632517278656696325e-01
1.615773069067129586e-01
-2.019716336333911844e-01
1.365577483997837682e-01
-3.413943709994594206e-02
-6.232979933389714428e-02
1.316957377585445954e-01
-1.632177277137095706e-01
1.533110351679666250e-01
-1.042977031291239809e-01
1.322214713369862793e-01
-1.773937187967248030e-01
1.869893980016914259e-01
-1.706971854997297311e-01
1.368622253628397345e-01
-9.349469900084571294e-02
4.828045495852675839e-02
1.048284836721918439e-01
-1.482498633322202330e-01
1.672484020014181616e-01
-1.672484020014181616e-01
1.526762041381148349e-01
-1.277380770053170855e-01
9.656090991705351678e-02
-6.321395412410139858e-02
3.160697706205069929e-02
-1.815682598006407300e-01
1.482498633322202330e-01
-7.742096611387637439e-02
0.000000000000000000e+00
6.827887419989188411e-02
-1.182624791978165169e-01
1.448413648755802752e-01
-1.459863737203623835e-01
1.224132957852821779e-01
-7.742096611387637439e-02
1.815682598006407300e-01
0.000000000000000000e+00
-9.995003746877731410e-02
1.340970468803022730e-01
-1.182624791978165169e-01
6.827887419989188411e-02
0.000000000000000000e+00
-7.067534927402195633e-02
1.277380770053170855e-01
-1.548419322277527488e-01
1.340970468803022730e-01
-1.815682598006407300e-01
1.224132957852821779e-01
-3.160697706205069929e-02
-5.161397740925091626e-02
1.079583792718826207e-01
-1.277380770053170855e-01
1.079583792718826207e-01
-5.161397740925091626e-02
-3.160697706205069929e-02
1.224132957852821779e-01
-1.815682598006407300e-01
1.340970468803022730e-01
-1.548419322277527488e-01
1.277380770053170855e-01
-7.067534927402195633e-02
0.000000000000000000e+00
6.827887419989188411e-02
-1.182624791978165169e-01
1.340970468803022730e-01
-9.995003746877731410e-02
0.000000000000000000e+00
1.815682598006407300e-01
-7.742096611387637439e-02
1.224132957852821779e-01
-1.459863737203623835e-01
1.448413648755802752e-01
-1.182624791978165169e-01
6.827887419989188411e-02
0.000000000000000000e+00
-7.742096611387637439e-02
1.482498633322202330e-01
-1.815682598006407300e-01
3.160697706205069929e-02
-6.321395412410139858e-02
9.656090991705351678e-02
-1.277380770053170855e-01
1.526762041381148349e-01
-1.672484020014181616e-01
1.672484020014181616e-01
-1.482498633322202330e-01
1.048284836721918439e-01
2.425356250363329691e-01
-1.917412472118426026e-01
1.485221314465011433e-01
-1.122721782847679595e-01
8.238525545716346432e-02
-5.825517280354630678e-02
3.927562949192332092e-02
-2.484008914627189313e-02
1.434143215529437923e-02
-7.170716077647189615e-03
2.710275923386712849e-03
-1.485221314465011433e-01
1.714985851425088470e-01
-1.684082674271519531e-01
1.525478508542764400e-01
-1.302625264297265495e-01
1.053875728836432824e-01
-8.049108834116180944e-02
5.736572862117751692e-02
-3.726013371940783969e-02
2.099370702980733749e-02
-8.988968316207743975e-03
8.574929257125442350e-02
-1.255241113133584441e-01
1.477038214645863823e-01
-1.556934983129867334e-01
1.521138589340318703e-01
-1.394146545634071532e-01
1.199890300758523903e-01
-9.620525158181865433e-02
7.041503402754660523e-02
-4.494484158103871640e-02
2.201838568875384358e-02
-4.583492485141056616e-02
8.039977681052935810e-02
-1.100919284437692214e-01
1.327758614889592015e-01
-1.469559492086513486e-01
1.517754517096559230e-01
-1.469559492086513486e-01
1.327758614889592015e-01
-1.100919284437692214e-01
8.039977681052935810e-02
-4.583492485141056616e-02
2.201838568875384358e-02
-4.494484158103871640e-02
7.041503402754660523e-02
-9.620525158181865433e-02
1.199890300758523903e-01
-1.394146545634071532e-01
1.521138589340318703e-01
-1.556934983129867334e-01
1.477038214645863823e-01
-1.255241113133584441e-01
8.574929257125442350e-02
-8.988968316207743975e-03
2.099370702980733749e-02
-3.726013371940783969e-02
5.736572862117751692e-02
-8.049108834116180944e-02
1.053875728836432824e-01
-1.302625264297265495e-01
1.525478508542764400e-01
-1.684082674271519531e-01
1.714985851425088470e-01
-1.485221314465011433e-01
2.710275923386712849e-03
-7.170716077647189615e-03
1.434143215529437923e-02
-2.484008914627189313e-02
3.927562949192332092e-02
-5.825517280354630678e-02
8.238525545716346432e-02
-1.122721782847679595e-01
1.485221314465011433e-01
-1.917412472118426026e-01
2.425356250363329691e-01
9.124148357522648967e-03
-2.414022747926337920e-02
4.828045495852675839e-02
-8.362420100070908080e-02
1.322214713369862793e-01
-1.961161351381840445e-01
2.773500981126145737e-01
-2.414022747926337920e-02
5.474489014513589380e-02
-9.349469900084571294e-02
1.365577483997837682e-01
-1.773937187967248030e-01
2.048366225996756662e-01
-1.961161351381840445e-01
4.828045495852675839e-02
-9.349469900084571294e-02
1.368622253628397345e-01
-1.706971854997297311e-01
1.869893980016914259e-01
-1.773937187967248030e-01
1.322214713369862793e-01
-8.362420100070908080e-02
1.365577483997837682e-01
-1.706971854997297311e-01
1.824829671504529793e-01
-1.706971854997297311e-01
1.365577483997837682e-01
-8.362420100070908080e-02
1.322214713369862793e-01
-1.773937187967248030e-01
1.869893980016914259e-01
-1.706971854997297311e-01
1.368622253628397345e-01
-9.349469900084571294e-02
4.828045495852675839e-02
-1.961161351381840445e-01
2.048366225996756662e-01
-1.773937187967248030e-01
1.365577483997837682e-01
-9.349469900084571294e-02
5.474489014513589380e-02
-2.414022747926337920e-02
2.773500981126145737e-01
-1.961161351381840445e-01
1.322214713369862793e-01
-8.362420100070908080e-02
4.828045495852675839e-02
-2.414022747926337920e-02
9.124148357522648967e-03
3.160697706205069929e-02
-6.321395412410139858e-02
9.656090991705351678e-02
-1.277380770053170855e-01
1.526762041381148349e-01
-1.672484020014181616e-01
1.672484020014181616e-01
-1.482498633322202330e-01
1.048284836721918439e-01
-7.742096611387637439e-02
1.224132957852821779e-01
-1.459863737203623835e-01
1.448413648755802752e-01
-1.182624791978165169e-01
6.827887419989188411e-02
0.000000000000000000e+00
-7.742096611387637439e-02
1.482498633322202330e-01
-1.815682598006407300e-01
1.340970468803022730e-01
-1.548419322277527488e-01
1.277380770053170855e-01
-7.067534927402195633e-02
0.000000000000000000e+00
6.827887419989188411e-02
-1.182624791978165169e-01
1.340970468803022730e-01
-9.995003746877731410e-02
0.000000000000000000e+00
1.815682598006407300e-01
-1.815682598006407300e-01
1.224132957852821779e-01
-3.160697706205069929e-02
-5.161397740925091626e-02
1.079583792718826207e-01
-1.277380770053170855e-01
1.079583792718826207e-01
-5.161397740925091626e-02
-3.160697706205069929e-02
1.224132957852821779e-01
-1.815682598006407300e-01
1.815682598006407300e-01
0.000000000000000000e+00
-9.995003746877731410e-02
1.340970468803022730e-01
-1.182624791978165169e-01
6.827887419989188411e-02
0.000000000000000000e+00
-7.067534927402195633e-02
1.277380770053170855e-01
-1.548419322277527488e-01
1.340970468803022730e-01
-1.815682598006407300e-01
1.482498633322202330e-01
-7.742096611387637439e-02
0.000000000000000000e+00
6.827887419989188411e-02
-1.182624791978165169e-01
1.448413648755802752e-01
-1.459863737203623835e-01
1.224132957852821779e-01
-7.742096611387637439e-02
1.048284836721918439e-01
-1.482498633322202330e-01
1.672484020014181616e-01
-1.672484020014181616e-01
1.526762041381148349e-01
-1.277380770053170855e-01
9.656090991705351678e-02
-6.321395412410139858e-02
3.160697706205069929e-02
8.574929257125442350e-02
-1.255241113133584441e-01
1.477038214645863823e-01
-1.556934983129867334e-01
1.521138589340318703e-01
-1.394146545634071532e-01
1.199890300758523903e-01
-9.620525158181865433e-02
7.041503402754660523e-02
-4.494484158103871640e-02
2.201838568875384358e-02
-1.641973943572963279e-01
1.496962377130239552e-01
-1.004997210131616941e-01
4.019988840526467905e-02
1.916454484313376283e-02
-7.025838192242885027e-02
1.084336202159833368e-01
-1.309187649730777225e-01
1.364590956937476729e-01
-1.251822827156384155e-01
9.860588226489161445e-02
-5.962607031450768008e-02
1.798692335461253566e-01
-2.775442529128102284e-02
-6.730730753730018723e-02
1.144108881407073230e-01
-1.226530869960560932e-01
1.011336110639327185e-01
-5.895706767536022797e-02
5.236750598923109110e-03
5.089741357076769251e-02
-1.002802091653083594e-01
1.336599347564400297e-01
-1.415203561487950457e-01
1.131325140715179617e-01
-1.665265517476861579e-01
1.319879330834376474e-01
-6.431982144842349203e-02
-6.638793074447959554e-03
6.572069842571016951e-02
-1.042382126825476818e-01
1.175647593669210678e-01
-1.042382126825476818e-01
6.572069842571016951e-02
-6.638793074447959554e-03
-6.431982144842349203e-02
1.319879330834376474e-01
-1.665265517476861579e-01
1.131325140715179617e-01
-1.415203561487950457e-01
1.336599347564400297e-01
-1.002802091653083594e-01
5.089741357076769251e-02
5.236750598923109110e-03
-5.895706767536022797e-02
1.011336110639327185e-01
-1.226530869960560932e-01
1.144108881407073230e-01
-6.730730753730018723e-02
-2.775442529128102284e-02
1.798692335461253566e-01
-5.962607031450768008e-02
9.860588226489161445e-02
-1.251822827156384155e-01
1.364590956937476729e-01
-1.309187649730777225e-01
1.084336202159833368e-01
-7.025838192242885027e-02
1.916454484313376283e-02
4.019988840526467905e-02
-1.004997210131616941e-01
1.496962377130239552e-01
-1.641973943572963279e-01
2.201838568875384358e-02
-4.494484158103871640e-02
7.041503402754660523e-02
-9.620525158181865433e-02
1.199890300758523903e-01
-1.394146545634071532e-01
1.521138589340318703e-01
-1.556934983129867334e-01
1.477038214645863823e-01
-1.255241113133584441e-01
8.574929257125442350e-02
2.294157338705617444e-01
-1.873171623163387700e-01
1.506778629044527029e-01
-1.191213099361661254e-01
9.227096991223671107e-02
-6.975029703385762780e-02
5.118272511620991505e-02
-3.619165200927905446e-02
2.440040680697345629e-02
-1.543217226894252371e-02
8.909768813654645597e-03
-4.454884406827322799e-03
1.683788037143512739e-03
-1.324532357065043853e-01
1.573778950729267656e-01
-1.598180079516531849e-01
1.506778629044527029e-01
-1.350708694025755663e-01
1.160715103543465132e-01
-9.575411075314348153e-02
7.560189536327542592e-02
-5.670142152245657291e-02
3.984569746227888121e-02
-2.559136255810495753e-02
1.428741526973956871e-02
-6.070984104933799252e-03
7.183285265343591908e-02
-1.077492789801539064e-01
1.304908570632049569e-01
-1.423771976170951359e-01
1.450893879429331623e-01
-1.401696655036719641e-01
1.291148166001187536e-01
-1.134028430449131458e-01
9.450236920409429975e-02
-7.387590030925603179e-02
5.297915375397502930e-02
-3.325214940527552315e-02
1.606231415508088678e-02
-3.591642632671795954e-02
6.424925662032354712e-02
-9.004724626838371548e-02
1.116898629138806526e-01
-1.279568127905247876e-01
1.380295449353705906e-01
-1.414381951200550658e-01
1.380295449353705906e-01
-1.279568127905247876e-01
1.116898629138806526e-01
-9.004724626838371548e-02
6.424925662032354712e-02
-3.591642632671795954e-02
1.606231415508088678e-02
-3.325214940527552315e-02
5.297915375397502930e-02
-7.387590030925603179e-02
9.450236920409429975e-02
-1.134028430449131458e-01
1.291148166001187536e-01
-1.401696655036719641e-01
1.450893879429331623e-01
-1.423771976170951359e-01
1.304908570632049569e-01
-1.077492789801539064e-01
7.183285265343591908e-02
-6.070984104933799252e-03
1.428741526973956871e-02
-2.559136255810495753e-02
3.984569746227888121e-02
-5.670142152245657291e-02
7.560189536327542592e-02
-9.575411075314348153e-02
1.160715103543465132e-01
-1.350708694025755663e-01
1.506778629044527029e-01
-1.598180079516531849e-01
1.573778950729267656e-01
-1.324532357065043853e-01
1.683788037143512739e-03
-4.454884406827322799e-03
8.909768813654645597e-03
-1.543217226894252371e-02
2.440040680697345629e-02
-3.619165200927905446e-02
5.118272511620991505e-02
-6.975029703385762780e-02
9.227096991223671107e-02
-1.191213099361661254e-01
1.506778629044527029e-01
-1.873171623163387700e-01
2.294157338705617444e-01
4.711689951601463235e-03
-1.246595986677942816e-02
2.493191973355885632e-02
-4.318335170875305107e-02
6.827887419989188411e-02
-1.012739367083666658e-01
1.432229748078865661e-01
-1.951800145897066574e-01
2.581988897471610978e-01
-1.413506985480439057e-02
3.264354554274191689e-02
-5.712620469979835108e-02
8.636670341750610214e-02
-1.182624791978165169e-01
1.495915184013531518e-01
-1.754116038614058626e-01
1.875228923753981813e-01
-1.690308509457033037e-01
3.160697706205069929e-02
-6.321395412410139858e-02
9.656090991705351678e-02
-1.277380770053170855e-01
1.526762041381148349e-01
-1.672484020014181616e-01
1.672484020014181616e-01
-1.482498633322202330e-01
1.048284836721918439e-01
-6.052275326688023871e-02
1.032279548185018325e-01
-1.365577483997837682e-01
1.576833055970887076e-01
-1.649091483060512175e-01
1.576833055970887076e-01
-1.365577483997837682e-01
1.032279548185018325e-01
-6.052275326688023871e-02
1.048284836721918439e-01
-1.482498633322202330e-01
1.672484020014181616e-01
-1.672484020014181616e-01
1.526762041381148349e-01
-1.277380770053170855e-01
9.656090991705351678e-02
-6.321395412410139858e-02
3.160697706205069929e-02
-1.690308509457033037e-01
1.875228923753981813e-01
-1.754116038614058626e-01
1.495915184013531518e-01
-1.182624791978165169e-01
8.636670341750610214e-02
-5.712620469979835108e-02
3.264354554274191689e-02
-1.413506985480439057e-02
2.581988897471610978e-01
-1.951800145897066574e-01
1.432229748078865661e-01
-1.012739367083666658e-01
6.827887419989188411e-02
-4.318335170875305107e-02
2.493191973355885632e-02
-1.246595986677942816e-02
4.711689951601463235e-03
2.201838568875384358e-02
-4.494484158103871640e-02
7.041503402754660523e-02
-9.620525158181865433e-02
1.199890300758523903e-01
-1.394146545634071532e-01
1.521138589340318703e-01
-1.556934983129867334e-01
1.477038214645863823e-01
-1.255241113133584441e-01
8.574929257125442350e-02
-5.962607031450768008e-02
9.860588226489161445e-02
-1.251822827156384155e-01
1.364590956937476729e-01
-1.309187649730777225e-01
1.084336202159833368e-01
-7.025838192242885027e-02
1.916454484313376283e-02
4.019988840526467905e-02
-1.004997210131616941e-01
1.496962377130239552e-01
-1.641973943572963279e-01
1.131325140715179617e-01
-1.415203561487950457e-01
1.336599347564400297e-01
-1.002802091653083594e-01
5.089741357076769251e-02
5.236750598923109110e-03
-5.895706767536022797e-02
1.011336110639327185e-01
-1.226530869960560932e-01
1.144108881407073230e-01
-6.730730753730018723e-02
-2.775442529128102284e-02
1.798692335461253566e-01
-1.665265517476861579e-01
1.319879330834376474e-01
-6.431982144842349203e-02
-6.638793074447959554e-03
6.572069842571016951e-02
-1.042382126825476818e-01
1.175647593669210678e-01
-1.042382126825476818e-01
6.572069842571016951e-02
-6.638793074447959554e-03
-6.431982144842349203e-02
1.319879330834376474e-01
-1.665265517476861579e-01
1.798692335461253566e-01
-2.775442529128102284e-02
-6.730730753730018723e-02
1.144108881407073230e-01
-1.226530869960560932e-01
1.011336110639327185e-01
-5.895706767536022797e-02
5.236750598923109110e-03
5.089741357076769251e-02
-1.002802091653083594e-01
1.336599347564400297e-01
-1.415203561487950457e-01
1.131325140715179617e-01
-1.641973943572963279e-01
1.496962377130239552e-01
-1.004997210131616941e-01
4.019988840526467905e-02
1.916454484313376283e-02
-7.025838192242885027e-02
1.084336202159833368e-01
-1.309187649730777225e-01
1.364590956937476729e-01
-1.251822827156384155e-01
9.860588226489161445e-02
-5.962607031450768008e-02
8.574929257125442350e-02
-1.255241113133584441e-01
1.477038214645863823e-01
-1.556934983129867334e-01
1.521138589340318703e-01
-1.394146545634071532e-01
1.199890300758523903e-01
-9.620525158181865433e-02
7.041503402754660523e-02
-4.494484158103871640e-02
2.201838568875384358e-02
7.183285265343591908e-02
-1.077492789801539064e-01
1.304908570632049569e-01
-1.423771976170951359e-01
1.450893879429331623e-01
-1.401696655036719641e-01
1.291148166001187536e-01
-1.134028430449131458e-01
9.450236920409429975e-02
-7.387590030925603179e-02
5.297915375397502930e-02
-3.325214940527552315e-02
1.606231415508088678e-02
-1.495320070133181467e-01
1.466281964745389244e-01
-1.124361990855662213e-01
6.576121069655553597e-02
-1.612104310477035021e-02
-3.058752868129605701e-02
7.043790719171250103e-02
-1.008025271510339244e-01
1.200341302578907254e-01
-1.273089260310962256e-01
1.225623440516005885e-01
-1.064921058863539105e-01
8.061693906627775963e-02
-4.728617252583573738e-02
1.769286567235602847e-01
-4.728617252583573738e-02
-4.063479777857489927e-02
9.248375997842760154e-02
-1.139108844714876168e-01
1.105673232386812643e-01
-8.810572749672734849e-02
5.218113188431341282e-02
-8.452548863005501095e-03
-3.741395710402596608e-02
7.973881616941173867e-02
-1.128137984886153494e-01
1.308604127297620101e-01
-1.278851516801176313e-01
9.690781635658204940e-02
-1.532247113800596361e-01
1.345788063119863209e-01
-8.416582552350668212e-02
2.560243867312608085e-02
2.901787758858662830e-02
-7.240288559717104888e-02
1.000714200781436802e-01
-1.095575548435216706e-01
1.000714200781436802e-01
-7.240288559717104888e-02
2.901787758858662830e-02
2.560243867312608085e-02
-8.416582552350668212e-02
1.345788063119863209e-01
-1.532247113800596361e-01
9.690781635658204940e-02
-1.278851516801176313e-01
1.308604127297620101e-01
-1.128137984886153494e-01
7.973881616941173867e-02
-3.741395710402596608e-02
-8.452548863005501095e-03
5.218113188431341282e-02
-8.810572749672734849e-02
1.105673232386812643e-01
-1.139108844714876168e-01
9.248375997842760154e-02
-4.063479777857489927e-02
-4.728617252583573738e-02
1.769286567235602847e-01
-4.728617252583573738e-02
8.061693906627775963e-02
-1.064921058863539105e-01
1.225623440516005885e-01
-1.273089260310962256e-01
1.200341302578907254e-01
-1.008025271510339244e-01
7.043790719171250103e-02
-3.058752868129605701e-02
-1.612104310477035021e-02
6.576121069655553597e-02
-1.124361990855662213e-01
1.466281964745389244e-01
-1.495320070133181467e-01
1.606231415508088678e-02
-3.325214940527552315e-02
5.297915375397502930e-02
-7.387590030925603179e-02
9.450236920409429975e-02
-1.134028430449131458e-01
1.291148166001187536e-01
-1.401696655036719641e-01
1.450893879429331623e-01
-1.423771976170951359e-01
1.304908570632049569e-01
-1.077492789801539064e-01
7.183285265343591908e-02
2.182178902359923622e-01
-1.825741858350553581e-01
1.510199243274199521e-01
-1.233072518653023086e-01
9.918831228239369247e-02
-7.841524602010460643e-02
6.074018838492451638e-02
-4.591526658677836520e-02
3.369259441587501430e-02
-2.382426198723322508e-02
1.606231415508088678e-02
-1.015869944464372482e-02
5.865127858981557252e-03
-2.932563929490778626e-03
1.108404980175850757e-03
-1.195228609334393621e-01
1.450952500220023256e-01
-1.510199243274199521e-01
1.465108469587620144e-01
-1.358191901948343772e-01
1.214803767698490328e-01
-1.052050923439942637e-01
8.822792244011068430e-02
-7.147278596169968912e-02
5.564148840746572372e-02
-4.126483221471981960e-02
2.873314106137437110e-02
-1.831385586984525179e-02
1.015869944464372482e-02
-4.292834029074431811e-03
6.131393394849657397e-02
-9.365858115816938501e-02
1.158269945775103615e-01
-1.294985167524063396e-01
1.358191901948343772e-01
-1.358191901948343772e-01
1.304908570632049569e-01
-1.208110583056621612e-01
1.077492789801539064e-01
-9.227096991223671107e-02
7.533893145222635146e-02
-5.791349728875518077e-02
4.095102665510752527e-02
-2.539674861160931205e-02
1.214196820986759850e-02
-2.890366565080399949e-02
5.245929835764224364e-02
-7.476600350665907335e-02
9.457234505167147476e-02
-1.108959044184548021e-01
1.230279598829822629e-01
-1.304908570632049569e-01
1.330085976211020926e-01
-1.304908570632049569e-01
1.230279598829822629e-01
-1.108959044184548021e-01
9.457234505167147476e-02
-7.476600350665907335e-02
5.245929835764224364e-02
-2.890366565080399949e-02
1.214196820986759850e-02
-2.539674861160931205e-02
4.095102665510752527e-02
-5.791349728875518077e-02
7.533893145222635146e-02
-9.227096991223671107e-02
1.077492789801539064e-01
-1.208110583056621612e-01
1.304908570632049569e-01
-1.358191901948343772e-01
1.358191901948343772e-01
-1.294985167524063396e-01
1.158269945775103615e-01
-9.365858115816938501e-02
6.131393394849657397e-02
-4.292834029074431811e-03
1.015869944464372482e-02
-1.831385586984525179e-02
2.873314106137437110e-02
-4.126483221471981960e-02
5.564148840746572372e-02
-7.147278596169968912e-02
8.822792244011068430e-02
-1.052050923439942637e-01
1.214803767698490328e-01
-1.358191901948343772e-01
1.465108469587620144e-01
-1.510199243274199521e-01
1.450952500220023256e-01
-1.195228609334393621e-01
1.108404980175850757e-03
-2.932563929490778626e-03
5.865127858981557252e-03
-1.015869944464372482e-02
1.606231415508088678e-02
-2.382426198723322508e-02
3.369259441587501430e-02
-4.591526658677836520e-02
6.074018838492451638e-02
-7.841524602010460643e-02
9.918831228239369247e-02
-1.233072518653023086e-01
1.510199243274199521e-01
-1.825741858350553581e-01
2.182178902359923622e-01
2.710275923386712849e-03
-7.170716077647189615e-03
1.434143215529437923e-02
-2.484008914627189313e-02
3.927562949192332092e-02
-5.825517280354630678e-02
8.238525545716346432e-02
-1.122721782847679595e-01
1.485221314465011433e-01
-1.917412472118426026e-01
2.425356250363329691e-01
-8.988968316207743975e-03
2.099370702980733749e-02
-3.726013371940783969e-02
5.736572862117751692e-02
-8.049108834116180944e-02
1.053875728836432824e-01
-1.302625264297265495e-01
1.525478508542764400e-01
-1.684082674271519531e-01
1.714985851425088470e-01
-1.485221314465011433e-01
2.201838568875384358e-02
-4.494484158103871640e-02
7.041503402754660523e-02
-9.620525158181865433e-02
1.199890300758523903e-01
-1.394146545634071532e-01
1.521138589340318703e-01
-1.556934983129867334e-01
1.477038214645863823e-01
-1.255241113133584441e-01
8.574929257125442350e-02
-4.583492485141056616e-02
8.039977681052935810e-02
-1.100919284437692214e-01
1.327758614889592015e-01
-1.469559492086513486e-01
1.517754517096559230e-01
-1.469559492086513486e-01
1.327758614889592015e-01
-1.100919284437692214e-01
8.039977681052935810e-02
-4.583492485141056616e-02
8.574929257125442350e-02
-1.255241113133584441e-01
1.477038214645863823e-01
-1.556934983129867334e-01
1.521138589340318703e-01
-1.394146545634071532e-01
1.199890300758523903e-01
-9.620525158181865433e-02
7.041503402754660523e-02
-4.494484158103871640e-02
2.201838568875384358e-02
-1.485221314465011433e-01
1.714985851425088470e-01
-1.684082674271519531e-01
1.525478508542764400e-01
-1.302625264297265495e-01
1.053875728836432824e-01
-8.049108834116180944e-02
5.736572862117751692e-02
-3.726013371940783969e-02
2.099370702980733749e-02
-8.988968316207743975e-03
2.425356250363329691e-01
-1.917412472118426026e-01
1.485221314465011433e-01
-1.122721782847679595e-01
8.238525545716346432e-02
-5.825517280354630678e-02
3.927562949192332092e-02
-2.484008914627189313e-02
1.434143215529437923e-02
-7.170716077647189615e-03
2.710275923386712849e-03
1.606231415508088678e-02
-3.325214940527552315e-02
5.297915375397502930e-02
-7.387590030925603179e-02
9.450236920409429975e-02
-1.134028430449131458e-01
1.291148166001187536e-01
-1.401696655036719641e-01
1.450893879429331623e-01
-1.423771976170951359e-01
1.304908570632049569e-01
-1.077492789801539064e-01
7.183285265343591908e-02
-4.728617252583573738e-02
8.061693906627775963e-02
-1.064921058863539105e-01
1.225623440516005885e-01
-1.273089260310962256e-01
1.200341302578907254e-01
-1.008025271510339244e-01
7.043790719171250103e-02
-3.058752868129605701e-02
-1.612104310477035021e-02
6.576121069655553597e-02
-1.124361990855662213e-01
1.466281964745389244e-01
-1.495320070133181467e-01
9.690781635658204940e-02
-1.278851516801176313e-01
1.308604127297620101e-01
-1.128137984886153494e-01
7.973881616941173867e-02
-3.741395710402596608e-02
-8.452548863005501095e-03
5.218113188431341282e-02
-8.810572749672734849e-02
1.105673232386812643e-01
-1.139108844714876168e-01
9.248375997842760154e-02
-4.063479777857489927e-02
-4.728617252583573738e-02
1.769286567235602847e-01
-1.532247113800596361e-01
1.345788063119863209e-01
-8.416582552350668212e-02
2.560243867312608085e-02
2.901787758858662830e-02
-7.240288559717104888e-02
1.000714200781436802e-01
-1.095575548435216706e-01
1.000714200781436802e-01
-7.240288559717104888e-02
2.901787758858662830e-02
2.560243867312608085e-02
-8.416582552350668212e-02
1.345788063119863209e-01
-1.532247113800596361e-01
1.769286567235602847e-01
-4.728617252583573738e-02
-4.063479777857489927e-02
9.248375997842760154e-02
-1.139108844714876168e-01
1.105673232386812643e-01
-8.810572749672734849e-02
5.218113188431341282e-02
-8.452548863005501095e-03
-3.741395710402596608e-02
7.973881616941173867e-02
-1.128137984886153494e-01
1.308604127297620101e-01
-1.278851516801176313e-01
9.690781635658204940e-02
-1.495320070133181467e-01
1.466281964745389244e-01
-1.124361990855662213e-01
6.576121069655553597e-02
-1.612104310477035021e-02
-3.058752868129605701e-02
7.043790719171250103e-02
-1.008025271510339244e-01
1.200341302578907254e-01
-1.273089260310962256e-01
1.225623440516005885e-01
-1.064921058863539105e-01
8.061693906627775963e-02
-4.728617252583573738e-02
7.183285265343591908e-02
-1.077492789801539064e-01
1.304908570632049569e-01
-1.423771976170951359e-01
1.450893879429331623e-01
-1.401696655036719641e-01
1.291148166001187536e-01
-1.134028430449131458e-01
9.450236920409429975e-02
-7.387590030925603179e-02
5.297915375397502930e-02
-3.325214940527552315e-02
1.606231415508088678e-02
6.131393394849657397e-02
-9.365858115816938501e-02
1.158269945775103615e-01
-1.294985167524063396e-01
1.358191901948343772e-01
-1.358191901948343772e-01
1.304908570632049569e-01
-1.208110583056621612e-01
1.077492789801539064e-01
-9.227096991223671107e-02
7.533893145222635146e-02
-5.791349728875518077e-02
4.095102665510752527e-02
-2.539674861160931205e-02
1.214196820986759850e-02
-1.371021242767704318e-01
1.415984650809577194e-01
-1.180334213046950464e-01
8.190205331021505053e-02
-4.095102665510752527e-02
0.000000000000000000e+00
3.766946572611317573e-02
-6.975029703385762780e-02
9.463727629519563811e-02
-1.112829768149314474e-01
1.191213099361661254e-01
-1.180334213046950464e-01
1.083462324621917300e-01
-9.086217008485092395e-02
6.691865982135775104e-02
-3.839627482053895036e-02
1.734219939048239900e-01
-6.131393394849657397e-02
-1.919813741026947518e-02
7.183285265343591908e-02
-1.003091197481264102e-01
1.083462324621917300e-01
-9.966403833196658957e-02
7.798320280925379044e-02
-4.702564066699709000e-02
1.051525292168840539e-02
2.782074420373286186e-02
-6.424925662032354712e-02
9.502593204266882032e-02
-1.163825229184643345e-01
1.244921868431585199e-01
-1.153486979937421719e-01
8.412202337350724313e-02
-1.415984650809577194e-01
1.335616503085435836e-01
-9.599068705134737589e-02
4.818694246524266728e-02
0.000000000000000000e+00
-4.249688873453658783e-02
7.533893145222635146e-02
-9.599068705134737589e-02
1.030280166977863704e-01
-9.599068705134737589e-02
7.533893145222635146e-02
-4.249688873453658783e-02
0.000000000000000000e+00
4.818694246524266728e-02
-9.599068705134737589e-02
1.335616503085435836e-01
-1.415984650809577194e-01
8.412202337350724313e-02
-1.153486979937421719e-01
1.244921868431585199e-01
-1.163825229184643345e-01
9.502593204266882032e-02
-6.424925662032354712e-02
2.782074420373286186e-02
1.051525292168840539e-02
-4.702564066699709000e-02
7.798320280925379044e-02
-9.966403833196658957e-02
1.083462324621917300e-01
-1.003091197481264102e-01
7.183285265343591908e-02
-1.919813741026947518e-02
-6.131393394849657397e-02
1.734219939048239900e-01
-3.839627482053895036e-02
6.691865982135775104e-02
-9.086217008485092395e-02
1.083462324621917300e-01
-1.180334213046950464e-01
1.191213099361661254e-01
-1.112829768149314474e-01
9.463727629519563811e-02
-6.975029703385762780e-02
3.766946572611317573e-02
0.000000000000000000e+00
-4.095102665510752527e-02
8.190205331021505053e-02
-1.180334213046950464e-01
1.415984650809577194e-01
-1.371021242767704318e-01
1.214196820986759850e-02
-2.539674861160931205e-02
4.095102665510752527e-02
-5.791349728875518077e-02
7.533893145222635146e-02
-9.227096991223671107e-02
1.077492789801539064e-01
-1.208110583056621612e-01
1.304908570632049569e-01
-1.358191901948343772e-01
1.358191901948343772e-01
-1.294985167524063396e-01
1.158269945775103615e-01
-9.365858115816938501e-02
6.131393394849657397e-02
1.683788037143512739e-03
-4.454884406827322799e-03
8.909768813654645597e-03
-1.543217226894252371e-02
2.440040680697345629e-02
-3.619165200927905446e-02
5.118272511620991505e-02
-6.975029703385762780e-02
9.227096991223671107e-02
-1.191213099361661254e-01
1.506778629044527029e-01
-1.873171623163387700e-01
2.294157338705617444e-01
-6.070984104933799252e-03
1.428741526973956871e-02
-2.559136255810495753e-02
3.984569746227888121e-02
-5.670142152245657291e-02
7.560189536327542592e-02
-9.575411075314348153e-02
1.160715103543465132e-01
-1.350708694025755663e-01
1.506778629044527029e-01
-1.598180079516531849e-01
1.573778950729267656e-01
-1.324532357065043853e-01
1.606231415508088678e-02
-3.325214940527552315e-02
5.297915375397502930e-02
-7.387590030925603179e-02
9.450236920409429975e-02
-1.134028430449131458e-01
1.291148166001187536e-01
-1.401696655036719641e-01
1.450893879429331623e-01
-1.423771976170951359e-01
1.304908570632049569e-01
-1.077492789801539064e-01
7.183285265343591908e-02
-3.591642632671795954e-02
6.424925662032354712e-02
-9.004724626838371548e-02
1.116898629138806526e-01
-1.279568127905247876e-01
1.380295449353705906e-01
-1.414381951200550658e-01
1.380295449353705906e-01
-1.279568127905247876e-01
1.116898629138806526e-01
-9.004724626838371548e-02
6.424925662032354712e-02
-3.591642632671795954e-02
7.183285265343591908e-02
-1.077492789801539064e-01
1.304908570632049569e-01
-1.423771976170951359e-01
1.450893879429331623e-01
-1.401696655036719641e-01
1.291148166001187536e-01
-1.134028430449131458e-01
9.450236920409429975e-02
-7.387590030925603179e-02
5.297915375397502930e-02
-3.325214940527552315e-02
1.606231415508088678e-02
-1.324532357065043853e-01
1.573778950729267656e-01
-1.598180079516531849e-01
1.506778629044527029e-01
-1.350708694025755663e-01
1.160715103543465132e-01
-9.575411075314348153e-02
7.560189536327542592e-02
-5.670142152245657291e-02
3.984569746227888121e-02
-2.559136255810495753e-02
1.428741526973956871e-02
-6.070984104933799252e-03
2.294157338705617444e-01
-1.873171623163387700e-01
1.506778629044527029e-01
-1.191213099361661254e-01
9.227096991223671107e-02
-6.975029703385762780e-02
5.118272511620991505e-02
-3.619165200927905446e-02
2.440040680697345629e-02
-1.543217226894252371e-02
8.909768813654645597e-03
-4.454884406827322799e-03
1.683788037143512739e-03
1.214196820986759850e-02
-2.539674861160931205e-02
4.095102665510752527e-02
-5.791349728875518077e-02
7.533893145222635146e-02
-9.227096991223671107e-02
1.077492789801539064e-01
-1.208110583056621612e-01
1.304908570632049569e-01
-1.358191901948343772e-01
1.358191901948343772e-01
-1.294985167524063396e-01
1.158269945775103615e-01
-9.365858115816938501e-02
6.131393394849657397e-02
-3.839627482053895036e-02
6.691865982135775104e-02
-9.086217008485092395e-02
1.083462324621917300e-01
-1.180334213046950464e-01
1.191213099361661254e-01
-1.112829768149314474e-01
9.463727629519563811e-02
-6.975029703385762780e-02
3.766946572611317573e-02
0.000000000000000000e+00
-4.095102665510752527e-02
8.190205331021505053e-02
-1.180334213046950464e-01
1.415984650809577194e-01
-1.371021242767704318e-01
8.412202337350724313e-02
-1.153486979937421719e-01
1.244921868431585199e-01
-1.163825229184643345e-01
9.502593204266882032e-02
-6.424925662032354712e-02
2.782074420373286186e-02
1.051525292168840539e-02
-4.702564066699709000e-02
7.798320280925379044e-02
-9.966403833196658957e-02
1.083462324621917300e-01
-1.003091197481264102e-01
7.183285265343591908e-02
-1.919813741026947518e-02
-6.131393394849657397e-02
1.734219939048239900e-01
-1.415984650809577194e-01
1.335616503085435836e-01
-9.599068705134737589e-02
4.818694246524266728e-02
0.000000000000000000e+00
-4.249688873453658783e-02
7.533893145222635146e-02
-9.599068705134737589e-02
1.030280166977863704e-01
-9.599068705134737589e-02
7.533893145222635146e-02
-4.249688873453658783e-02
0.000000000000000000e+00
4.818694246524266728e-02
-9.599068705134737589e-02
1.335616503085435836e-01
-1.415984650809577194e-01
1.734219939048239900e-01
-6.131393394849657397e-02
-1.919813741026947518e-02
7.183285265343591908e-02
-1.003091197481264102e-01
1.083462324621917300e-01
-9.966403833196658957e-02
7.798320280925379044e-02
-4.702564066699709000e-02
1.051525292168840539e-02
2.782074420373286186e-02
-6.424925662032354712e-02
9.502593204266882032e-02
-1.163825229184643345e-01
1.244921868431585199e-01
-1.153486979937421719e-01
8.412202337350724313e-02
-1.371021242767704318e-01
1.415984650809577194e-01
-1.180334213046950464e-01
8.190205331021505053e-02
-4.095102665510752527e-02
0.000000000000000000e+00
3.766946572611317573e-02
-6.975029703385762780e-02
9.463727629519563811e-02
-1.112829768149314474e-01
1.191213099361661254e-01
-1.180334213046950464e-01
1.083462324621917300e-01
-9.086217008485092395e-02
6.691865982135775104e-02
-3.839627482053895036e-02
6.131393394849657397e-02
-9.365858115816938501e-02
1.158269945775103615e-01
-1.294985167524063396e-01
1.358191901948343772e-01
-1.358191901948343772e-01
1.304908570632049569e-01
-1.208110583056621612e-01
1.077492789801539064e-01
-9.227096991223671107e-02
7.533893145222635146e-02
-5.791349728875518077e-02
4.095102665510752527e-02
-2.539674861160931205e-02
1.214196820986759850e-02
5.313439274922514971e-02
-8.231544729143724926e-02
1.034344404323926658e-01
-1.177652909572564910e-01
1.261276065335098506e-01
-1.292423374377199563e-01
1.277982436499101315e-01
-1.224709543741199363e-01
1.139298924051077022e-01
-1.028412023705708722e-01
8.986911108647628599e-02
-7.567656392010591038e-02
6.092542214574119680e-02
-4.627618009738735522e-02
3.238657956678211297e-02
-1.990596734237340404e-02
9.442229374624310639e-03
-1.264851543042258553e-01
1.358135589444179336e-01
-1.199324207661698338e-01
9.194172482879348074e-02
-5.830250674463034050e-02
2.302764507417977280e-02
1.112340934491575124e-02
-4.216248592756399738e-02
6.863866736536210211e-02
-8.951177722167266704e-02
1.040802977003282004e-01
-1.119408129496902438e-01
1.129685354412531123e-01
-1.073146290479241871e-01
9.541987512962211981e-02
-7.804700294394487092e-02
5.633189460229189038e-02
-3.178728073272189814e-02
1.696976419012794779e-01
-7.155080826235593605e-02
