1.000000000000000000e+00
5.773502691896257311e-01
-5.773502691896257311e-01
5.773502691896257311e-01
4.472135954999579832e-01
-4.472135954999579832e-01
4.472135954999579832e-01
-4.472135954999579832e-01
4.472135954999579832e-01
3.779644730092271976e-01
-3.779644730092271976e-01
3.779644730092271976e-01
-3.779644730092271976e-01
3.779644730092271976e-01
-3.779644730092271976e-01
3.779644730092271976e-01
3.333333333333333148e-01
-3.333333333333333148e-01
3.333333333333333148e-01
-3.333333333333333148e-01
3.333333333333333148e-01
-3.333333333333333148e-01
3.333333333333333148e-01
-3.333333333333333148e-01
3.333333333333333148e-01
5.773502691896257311e-01
-5.773502691896257311e-01
5.773502691896257311e-01
5.773502691896257311e-01
-5.773502691896257311e-01
5.773502691896257311e-01
-4.082482904638630172e-01
4.082482904638630172e-01
4.082482904638630172e-01
0.000000000000000000e+00
-4.082482904638630172e-01
-4.082482904638630172e-01
4.082482904638630172e-01
4.472135954999579277e-01
-3.162277660168379412e-01
1.825741858350553581e-01
-3.162277660168379412e-01
3.651483716701107163e-01
-3.162277660168379412e-01
1.825741858350553581e-01
-3.162277660168379412e-01
4.472135954999579277e-01
1.825741858350553581e-01
-3.162277660168379412e-01
4.472135954999579277e-01
-3.162277660168379412e-01
3.651483716701107163e-01
-3.162277660168379412e-01
4.472135954999579277e-01
-3.162277660168379412e-01
1.825741858350553581e-01
-2.581988897471610978e-01
3.162277660168379412e-01
-3.162277660168379412e-01
2.581988897471610978e-01
3.651483716701107163e-01
-1.825741858350553581e-01
0.000000000000000000e+00
1.825741858350553581e-01
-3.651483716701107163e-01
-2.581988897471610978e-01
3.162277660168379412e-01
-3.162277660168379412e-01
2.581988897471610978e-01
3.779644730092271421e-01
-3.086066999241837694e-01
2.390457218668787520e-01
-1.690308509457033315e-01
9.759000729485332870e-02
-2.182178902359923345e-01
2.760262237369417448e-01
-2.927700218845599167e-01
2.760262237369417448e-01
-2.182178902359923345e-01
9.759000729485332870e-02
-1.690308509457033315e-01
2.390457218668787520e-01
-3.086066999241837694e-01
3.779644730092271421e-01
9.759000729485332870e-02
-1.690308509457033315e-01
2.390457218668787520e-01
-3.086066999241837694e-01
3.779644730092271421e-01
-2.182178902359923345e-01
2.760262237369417448e-01
-2.927700218845599167e-01
2.760262237369417448e-01
-2.182178902359923345e-01
3.779644730092271421e-01
-3.086066999241837694e-01
2.390457218668787520e-01
-1.690308509457033315e-01
9.759000729485332870e-02
-1.889822365046135710e-01
2.439750182371332454e-01
-2.672612419124243410e-01
2.672612419124243410e-01
-2.439750182371332454e-01
1.889822365046135710e-01
3.273268353539885434e-01
-2.182178902359923345e-01
1.091089451179961672e-01
0.000000000000000000e+00
-1.091089451179961672e-01
2.182178902359923345e-01
-3.273268353539885434e-01
-1.889822365046135710e-01
2.439750182371332454e-01
-2.672612419124243410e-01
2.672612419124243410e-01
-2.439750182371332454e-01
1.889822365046135710e-01
3.333333333333333148e-01
-2.886751345948128655e-01
2.439750182371332454e-01
-1.992047682223989369e-01
1.543033499620918847e-01
-1.091089451179961672e-01
6.299407883487119497e-02
-1.666666666666666574e-01
2.182178902359923345e-01
-2.439750182371332454e-01
2.519763153394847799e-01
-2.439750182371332454e-01
2.182178902359923345e-01
-1.666666666666666574e-01
6.299407883487119497e-02
-1.091089451179961672e-01
1.543033499620918847e-01
-1.992047682223989369e-01
2.439750182371332454e-01
-2.886751345948128655e-01
3.333333333333333148e-01
6.299407883487119497e-02
-1.091089451179961672e-01
1.543033499620918847e-01
-1.992047682223989369e-01
2.439750182371332454e-01
-2.886751345948128655e-01
3.333333333333333148e-01
-1.666666666666666574e-01
2.182178902359923345e-01
-2.439750182371332454e-01
2.519763153394847799e-01
-2.439750182371332454e-01
2.182178902359923345e-01
-1.666666666666666574e-01
3.333333333333333148e-01
-2.886751345948128655e-01
2.439750182371332454e-01
-1.992047682223989369e-01
1.543033499620918847e-01
-1.091089451179961672e-01
6.299407883487119497e-02
-1.490711984999859852e-01
1.972026594366538543e-01
-2.236067977499789639e-01
2.357022603955158113e-01
-2.357022603955158113e-01
2.236067977499789639e-01
-1.972026594366538543e-01
1.490711984999859852e-01
2.981423969999719703e-01
-2.236067977499789639e-01
1.490711984999859852e-01
-7.453559924999299258e-02
0.000000000000000000e+00
7.453559924999299258e-02
-1.490711984999859852e-01
2.236067977499789639e-01
-2.981423969999719703e-01
-1.490711984999859852e-01
1.972026594366538543e-01
-2.236067977499789639e-01
2.357022603955158113e-01
-2.357022603955158113e-01
2.236067977499789639e-01
-1.972026594366538543e-01
1.490711984999859852e-01
4.472135954999579832e-01
-4.472135954999579832e-01
4.472135954999579832e-01
-4.472135954999579832e-01
4.472135954999579832e-01
4.472135954999579832e-01
-3.162277660168379412e-01
-3.162277660168379412e-01
1.825741858350553859e-01
3.651483716701107718e-01
1.825741858350553859e-01
-3.162277660168379412e-01
-3.162277660168379412e-01
4.472135954999579832e-01
-3.651483716701107718e-01
2.581988897471611533e-01
2.581988897471611533e-01
1.825741858350553859e-01
-3.162277660168379412e-01
-3.162277660168379412e-01
0.000000000000000000e+00
3.162277660168379412e-01
3.162277660168379412e-01
-1.825741858350553859e-01
-2.581988897471611533e-01
-2.581988897471611533e-01
3.651483716701107718e-01
3.779644730092272531e-01
-2.182178902359923900e-01
9.759000729485332870e-02
-3.086066999241838249e-01
2.760262237369416893e-01
-1.690308509457033037e-01
2.390457218668787243e-01
-2.927700218845599722e-01
2.390457218668787243e-01
-1.690308509457033037e-01
2.760262237369416893e-01
-3.086066999241838249e-01
9.759000729485332870e-02
-2.182178902359923900e-01
3.779644730092272531e-01
4.472135954999579832e-01
-4.472135954999579832e-01
4.472135954999579832e-01
-4.472135954999579832e-01
4.472135954999579832e-01
-2.581988897471611533e-01
3.651483716701107718e-01
3.162277660168379412e-01
-1.825741858350553859e-01
-2.581988897471611533e-01
-3.162277660168379412e-01
0.000000000000000000e+00
3.162277660168379412e-01
2.581988897471611533e-01
1.825741858350553859e-01
-3.162277660168379412e-01
-3.651483716701107718e-01
2.581988897471611533e-01
2.390457218668787243e-01
-2.927700218845599722e-01
2.390457218668787243e-01
-2.927700218845599722e-01
1.195228609334393621e-01
1.195228609334393621e-01
-2.927700218845599722e-01
2.390457218668787243e-01
1.195228609334393621e-01
-2.390457218668787243e-01
1.195228609334393621e-01
2.390457218668787243e-01
-2.927700218845599722e-01
1.195228609334393621e-01
1.195228609334393621e-01
-2.927700218845599722e-01
2.390457218668787243e-01
-2.927700218845599722e-01
2.390457218668787243e-01
-2.672612419124243965e-01
2.672612419124243965e-01
-2.070196678027062531e-01
1.195228609334393621e-01
2.672612419124243965e-01
0.000000000000000000e+00
-1.690308509457033037e-01
2.390457218668787243e-01
-2.070196678027062531e-01
-2.672612419124243965e-01
1.690308509457033037e-01
0.000000000000000000e+00
-1.690308509457033037e-01
2.672612419124243965e-01
2.070196678027062531e-01
-2.390457218668787243e-01
1.690308509457033037e-01
0.000000000000000000e+00
-2.672612419124243965e-01
-1.195228609334393621e-01
2.070196678027062531e-01
-2.672612419124243965e-01
2.672612419124243965e-01
3.333333333333333703e-01
-2.357022603955158391e-01
1.543033499620919125e-01
-8.908708063747479422e-02
3.984095364447978738e-02
-2.357022603955158391e-01
2.519763153394848354e-01
-2.182178902359923900e-01
1.593638145779191495e-01
-8.908708063747479422e-02
1.543033499620919125e-01
-2.182178902359923900e-01
2.390457218668787243e-01
-2.182178902359923900e-01
1.543033499620919125e-01
-8.908708063747479422e-02
1.593638145779191495e-01
-2.182178902359923900e-01
2.519763153394848354e-01
-2.357022603955158391e-01
3.984095364447978738e-02
-8.908708063747479422e-02
1.543033499620919125e-01
-2.357022603955158391e-01
3.333333333333333703e-01
9.759000729485332870e-02
-2.182178902359923900e-01
3.779644730092272531e-01
-1.690308509457033037e-01
2.760262237369416893e-01
-3.086066999241838249e-01
2.390457218668787243e-01
-2.927700218845599722e-01
2.390457218668787243e-01
-3.086066999241838249e-01
2.760262237369416893e-01
-1.690308509457033037e-01
3.779644730092272531e-01
-2.182178902359923900e-01
9.759000729485332870e-02
-1.195228609334393621e-01
2.070196678027062531e-01
-2.672612419124243965e-01
2.672612419124243965e-01
2.070196678027062531e-01
-2.390457218668787243e-01
1.690308509457033037e-01
0.000000000000000000e+00
-2.672612419124243965e-01
-2.672612419124243965e-01
1.690308509457033037e-01
0.000000000000000000e+00
-1.690308509457033037e-01
2.672612419124243965e-01
2.672612419124243965e-01
0.000000000000000000e+00
-1.690308509457033037e-01
2.390457218668787243e-01
-2.070196678027062531e-01
-2.672612419124243965e-01
2.672612419124243965e-01
-2.070196678027062531e-01
1.195228609334393621e-01
1.543033499620919125e-01
-2.182178902359923900e-01
2.390457218668787243e-01
-2.182178902359923900e-01
1.543033499620919125e-01
-2.439750182371332732e-01
1.889822365046136265e-01
-6.900655593423542233e-02
-6.900655593423542233e-02
1.889822365046136265e-01
-2.439750182371332732e-01
2.439750182371332732e-01
0.000000000000000000e+00
-1.463850109422799861e-01
1.951800145897066574e-01
-1.463850109422799861e-01
0.000000000000000000e+00
2.439750182371332732e-01
-2.439750182371332732e-01
1.889822365046136265e-01
-6.900655593423542233e-02
-6.900655593423542233e-02
1.889822365046136265e-01
-2.439750182371332732e-01
1.543033499620919125e-01
-2.182178902359923900e-01
2.390457218668787243e-01
-2.182178902359923900e-01
1.543033499620919125e-01
-2.108185106778919515e-01
2.357022603955158391e-01
-2.182178902359923900e-01
1.781741612749495884e-01
-1.259881576697424177e-01
6.900655593423542233e-02
2.581988897471611533e-01
-7.453559924999299258e-02
-6.299407883487120885e-02
1.543033499620919125e-01
-1.992047682223989369e-01
1.972026594366538821e-01
-1.463850109422799861e-01
-2.236067977499789916e-01
1.951800145897066574e-01
-1.091089451179961950e-01
0.000000000000000000e+00
1.091089451179961950e-01
-1.951800145897066574e-01
2.236067977499789916e-01
1.463850109422799861e-01
-1.972026594366538821e-01
1.992047682223989369e-01
-1.543033499620919125e-01
6.299407883487120885e-02
7.453559924999299258e-02
-2.581988897471611533e-01
-6.900655593423542233e-02
1.259881576697424177e-01
-1.781741612749495884e-01
2.182178902359923900e-01
-2.357022603955158391e-01
2.108185106778919515e-01
3.984095364447978738e-02
-8.908708063747479422e-02
1.543033499620919125e-01
-2.357022603955158391e-01
3.333333333333333703e-01
-8.908708063747479422e-02
1.593638145779191495e-01
-2.182178902359923900e-01
2.519763153394848354e-01
-2.357022603955158391e-01
1.543033499620919125e-01
-2.182178902359923900e-01
2.390457218668787243e-01
-2.182178902359923900e-01
1.543033499620919125e-01
-2.357022603955158391e-01
2.519763153394848354e-01
-2.182178902359923900e-01
1.593638145779191495e-01
-8.908708063747479422e-02
3.333333333333333703e-01
-2.357022603955158391e-01
1.543033499620919125e-01
-8.908708063747479422e-02
3.984095364447978738e-02
-6.900655593423542233e-02
1.259881576697424177e-01
-1.781741612749495884e-01
2.182178902359923900e-01
-2.357022603955158391e-01
2.108185106778919515e-01
1.463850109422799861e-01
-1.972026594366538821e-01
1.992047682223989369e-01
-1.543033499620919125e-01
6.299407883487120885e-02
7.453559924999299258e-02
-2.581988897471611533e-01
-2.236067977499789916e-01
1.951800145897066574e-01
-1.091089451179961950e-01
0.000000000000000000e+00
1.091089451179961950e-01
-1.951800145897066574e-01
2.236067977499789916e-01
2.581988897471611533e-01
-7.453559924999299258e-02
-6.299407883487120885e-02
1.543033499620919125e-01
-1.992047682223989369e-01
1.972026594366538821e-01
-1.463850109422799861e-01
-2.108185106778919515e-01
2.357022603955158391e-01
-2.182178902359923900e-01
1.781741612749495884e-01
-1.259881576697424177e-01
6.900655593423542233e-02
1.100963765126360683e-01
-1.651445647689540885e-01
1.973855084879306832e-01
-2.080625946441197749e-01
1.973855084879306832e-01
-1.651445647689540885e-01
1.100963765126360683e-01
-2.059714602177749043e-01
1.946247360403807469e-01
-1.324102244257124306e-01
4.652421051992354506e-02
4.652421051992354506e-02
-1.324102244257124306e-01
1.946247360403807469e-01
-2.059714602177749043e-01
2.378353560042252568e-01
-5.945883900105631420e-02
-6.795295885835007932e-02
1.444000375739939168e-01
-1.698823971458751914e-01
1.444000375739939168e-01
-6.795295885835007932e-02
-5.945883900105631420e-02
2.378353560042252568e-01
-2.059714602177749043e-01
1.946247360403807469e-01
-1.324102244257124306e-01
4.652421051992354506e-02
4.652421051992354506e-02
-1.324102244257124306e-01
1.946247360403807469e-01
-2.059714602177749043e-01
1.100963765126360683e-01
-1.651445647689540885e-01
1.973855084879306832e-01
-2.080625946441197749e-01
1.973855084879306832e-01
-1.651445647689540885e-01
1.100963765126360683e-01
3.779644730092271976e-01
-3.779644730092271976e-01
3.779644730092271976e-01
-3.779644730092271976e-01
3.779644730092271976e-01
-3.779644730092271976e-01
3.779644730092271976e-01
3.779644730092271976e-01
-2.182178902359923900e-01
-3.086066999241838249e-01
9.759000729485332870e-02
2.760262237369416893e-01
2.390457218668787243e-01
-1.690308509457033037e-01
-2.927700218845599167e-01
-1.690308509457033037e-01
2.390457218668787243e-01
2.760262237369416893e-01
9.759000729485332870e-02
-3.086066999241838249e-01
-2.182178902359923900e-01
3.779644730092271976e-01
-3.273268353539885434e-01
1.889822365046135988e-01
1.889822365046135988e-01
2.182178902359923900e-01
-2.439750182371333009e-01
-2.439750182371333009e-01
-1.091089451179961950e-01
2.672612419124243410e-01
2.672612419124243410e-01
0.000000000000000000e+00
-2.672612419124243410e-01
-2.672612419124243410e-01
1.091089451179961950e-01
2.439750182371333009e-01
2.439750182371333009e-01
-2.182178902359923900e-01
-1.889822365046135988e-01
-1.889822365046135988e-01
3.273268353539885434e-01
3.333333333333333703e-01
-1.666666666666666852e-01
6.299407883487120885e-02
-2.886751345948129210e-01
2.182178902359923900e-01
-1.091089451179961950e-01
2.439750182371333009e-01
-2.439750182371333009e-01
1.543033499620919125e-01
-1.992047682223989646e-01
2.519763153394848354e-01
-1.992047682223989646e-01
1.543033499620919125e-01
-2.439750182371333009e-01
2.439750182371333009e-01
-1.091089451179961950e-01
2.182178902359923900e-01
-2.886751345948129210e-01
6.299407883487120885e-02
-1.666666666666666852e-01
3.333333333333333703e-01
3.779644730092271976e-01
-3.086066999241838249e-01
-2.182178902359923900e-01
2.390457218668787243e-01
2.760262237369416893e-01
9.759000729485332870e-02
-1.690308509457033037e-01
-2.927700218845599167e-01
-1.690308509457033037e-01
9.759000729485332870e-02
2.760262237369416893e-01
2.390457218668787243e-01
-2.182178902359923900e-01
-3.086066999241838249e-01
3.779644730092271976e-01
-2.672612419124243410e-01
2.672612419124243410e-01
2.672612419124243410e-01
0.000000000000000000e+00
-2.672612419124243410e-01
-2.070196678027062531e-01
-1.690308509457033037e-01
1.690308509457033037e-01
2.070196678027062531e-01
1.195228609334393621e-01
2.390457218668787243e-01
0.000000000000000000e+00
-2.390457218668787243e-01
-1.195228609334393621e-01
-2.070196678027062531e-01
-1.690308509457033037e-01
1.690308509457033037e-01
2.070196678027062531e-01
2.672612419124243410e-01
0.000000000000000000e+00
-2.672612419124243410e-01
-2.672612419124243410e-01
2.672612419124243410e-01
2.439750182371333009e-01
-2.439750182371333009e-01
1.543033499620919125e-01
-2.439750182371333009e-01
0.000000000000000000e+00
1.889822365046135988e-01
-2.182178902359923900e-01
1.543033499620919125e-01
1.889822365046135988e-01
-1.463850109422799584e-01
-6.900655593423542233e-02
2.390457218668787243e-01
-2.182178902359923900e-01
-6.900655593423542233e-02
1.951800145897066574e-01
-6.900655593423542233e-02
-2.182178902359923900e-01
2.390457218668787243e-01
-6.900655593423542233e-02
-1.463850109422799584e-01
1.889822365046135988e-01
1.543033499620919125e-01
-2.182178902359923900e-01
1.889822365046135988e-01
0.000000000000000000e+00
-2.439750182371333009e-01
1.543033499620919125e-01
-2.439750182371333009e-01
2.439750182371333009e-01
-2.581988897471611533e-01
2.236067977499789639e-01
-1.463850109422799584e-01
6.900655593423542233e-02
2.108185106778919793e-01
7.453559924999299258e-02
-1.951800145897066574e-01
1.972026594366538821e-01
-1.259881576697424177e-01
-2.357022603955158668e-01
6.299407883487120885e-02
1.091089451179961950e-01
-1.992047682223989646e-01
1.781741612749496162e-01
2.182178902359923900e-01
-1.543033499620919125e-01
0.000000000000000000e+00
1.543033499620919125e-01
-2.182178902359923900e-01
-1.781741612749496162e-01
1.992047682223989646e-01
-1.091089451179961950e-01
-6.299407883487120885e-02
2.357022603955158668e-01
1.259881576697424177e-01
-1.972026594366538821e-01
1.951800145897066574e-01
-7.453559924999299258e-02
-2.108185106778919793e-01
-6.900655593423542233e-02
1.463850109422799584e-01
-2.236067977499789639e-01
2.581988897471611533e-01
3.779644730092271976e-01
-3.779644730092271976e-01
3.779644730092271976e-01
-3.779644730092271976e-01
3.779644730092271976e-01
-3.779644730092271976e-01
3.779644730092271976e-01
-1.889822365046135988e-01
3.273268353539885434e-01
2.439750182371333009e-01
-2.182178902359923900e-01
-1.889822365046135988e-01
-2.672612419124243410e-01
1.091089451179961950e-01
2.439750182371333009e-01
2.672612419124243410e-01
0.000000000000000000e+00
-2.672612419124243410e-01
-2.439750182371333009e-01
-1.091089451179961950e-01
2.672612419124243410e-01
1.889822365046135988e-01
2.182178902359923900e-01
-2.439750182371333009e-01
-3.273268353539885434e-01
1.889822365046135988e-01
1.543033499620919125e-01
-2.439750182371333009e-01
2.439750182371333009e-01
-2.182178902359923900e-01
1.889822365046135988e-01
0.000000000000000000e+00
-2.439750182371333009e-01
2.390457218668787243e-01
-6.900655593423542233e-02
-1.463850109422799584e-01
1.889822365046135988e-01
1.543033499620919125e-01
-2.182178902359923900e-01
-6.900655593423542233e-02
1.951800145897066574e-01
-6.900655593423542233e-02
-2.182178902359923900e-01
1.543033499620919125e-01
1.889822365046135988e-01
-1.463850109422799584e-01
-6.900655593423542233e-02
2.390457218668787243e-01
-2.439750182371333009e-01
0.000000000000000000e+00
1.889822365046135988e-01
-2.182178902359923900e-01
2.439750182371333009e-01
-2.439750182371333009e-01
1.543033499620919125e-01
-1.543033499620919125e-01
2.182178902359923900e-01
-2.182178902359923900e-01
1.543033499620919125e-01
2.182178902359923900e-01
-1.543033499620919125e-01
0.000000000000000000e+00
1.543033499620919125e-01
-2.182178902359923900e-01
-2.182178902359923900e-01
0.000000000000000000e+00
1.543033499620919125e-01
-1.543033499620919125e-01
0.000000000000000000e+00
2.182178902359923900e-01
1.543033499620919125e-01
1.543033499620919125e-01
-1.543033499620919125e-01
0.000000000000000000e+00
1.543033499620919125e-01
-1.543033499620919125e-01
-1.543033499620919125e-01
-2.182178902359923900e-01
0.000000000000000000e+00
1.543033499620919125e-01
-1.543033499620919125e-01
0.000000000000000000e+00
2.182178902359923900e-01
2.182178902359923900e-01
-1.543033499620919125e-01
0.000000000000000000e+00
1.543033499620919125e-01
-2.182178902359923900e-01
-1.543033499620919125e-01
2.182178902359923900e-01
-2.182178902359923900e-01
1.543033499620919125e-01
1.740776559556978520e-01
-2.132007163556104701e-01
1.973855084879307387e-01
-1.471224715841249198e-01
8.058229640253804227e-02
-2.247332874877473741e-01
1.005037815259212097e-01
4.652421051992354506e-02
-1.519474352795172623e-01
1.880253582725887329e-01
-1.471224715841249198e-01
1.740776559556978520e-01
1.005037815259212097e-01
-1.698823971458751914e-01
1.040312973220598736e-01
2.686076546751267613e-02
-1.519474352795172623e-01
1.973855084879307387e-01
-2.132007163556104701e-01
4.652421051992354506e-02
1.040312973220598736e-01
-1.611645928050760845e-01
1.040312973220598736e-01
4.652421051992354506e-02
-2.132007163556104701e-01
1.973855084879307387e-01
-1.519474352795172623e-01
2.686076546751267613e-02
1.040312973220598736e-01
-1.698823971458751914e-01
1.005037815259212097e-01
1.740776559556978520e-01
-1.471224715841249198e-01
1.880253582725887329e-01
-1.519474352795172623e-01
4.652421051992354506e-02
1.005037815259212097e-01
-2.247332874877473741e-01
8.058229640253804227e-02
-1.471224715841249198e-01
1.973855084879307387e-01
-2.132007163556104701e-01
1.740776559556978520e-01
6.299407883487120885e-02
-1.666666666666666852e-01
3.333333333333333703e-01
-1.091089451179961950e-01
2.182178902359923900e-01
-2.886751345948129210e-01
1.543033499620919125e-01
-2.439750182371333009e-01
2.439750182371333009e-01
-1.992047682223989646e-01
2.519763153394848354e-01
-1.992047682223989646e-01
2.439750182371333009e-01
-2.439750182371333009e-01
1.543033499620919125e-01
-2.886751345948129210e-01
2.182178902359923900e-01
-1.091089451179961950e-01
3.333333333333333703e-01
-1.666666666666666852e-01
6.299407883487120885e-02
-6.900655593423542233e-02
1.463850109422799584e-01
-2.236067977499789639e-01
2.581988897471611533e-01
1.259881576697424177e-01
-1.972026594366538821e-01
1.951800145897066574e-01
-7.453559924999299258e-02
-2.108185106778919793e-01
-1.781741612749496162e-01
1.992047682223989646e-01
-1.091089451179961950e-01
-6.299407883487120885e-02
2.357022603955158668e-01
2.182178902359923900e-01
-1.543033499620919125e-01
0.000000000000000000e+00
1.543033499620919125e-01
-2.182178902359923900e-01
-2.357022603955158668e-01
6.299407883487120885e-02
1.091089451179961950e-01
-1.992047682223989646e-01
1.781741612749496162e-01
2.108185106778919793e-01
7.453559924999299258e-02
-1.951800145897066574e-01
1.972026594366538821e-01
-1.259881576697424177e-01
-2.581988897471611533e-01
2.236067977499789639e-01
-1.463850109422799584e-01
6.900655593423542233e-02
8.058229640253804227e-02
-1.471224715841249198e-01
1.973855084879307387e-01
-2.132007163556104701e-01
1.740776559556978520e-01
-1.471224715841249198e-01
1.880253582725887329e-01
-1.519474352795172623e-01
4.652421051992354506e-02
1.005037815259212097e-01
-2.247332874877473741e-01
1.973855084879307387e-01
-1.519474352795172623e-01
2.686076546751267613e-02
1.040312973220598736e-01
-1.698823971458751914e-01
1.005037815259212097e-01
1.740776559556978520e-01
-2.132007163556104701e-01
4.652421051992354506e-02
1.040312973220598736e-01
-1.611645928050760845e-01
1.040312973220598736e-01
4.652421051992354506e-02
-2.132007163556104701e-01
1.740776559556978520e-01
1.005037815259212097e-01
-1.698823971458751914e-01
1.040312973220598736e-01
2.686076546751267613e-02
-1.519474352795172623e-01
1.973855084879307387e-01
-2.247332874877473741e-01
1.005037815259212097e-01
4.652421051992354506e-02
-1.519474352795172623e-01
1.880253582725887329e-01
-1.471224715841249198e-01
1.740776559556978520e-01
-2.132007163556104701e-01
1.973855084879307387e-01
-1.471224715841249198e-01
8.058229640253804227e-02
-1.005037815259212097e-01
1.589104315409320678e-01
-1.899342940993966056e-01
1.899342940993966056e-01
-1.589104315409320678e-01
1.005037815259212097e-01
1.740776559556978520e-01
-1.740776559556978520e-01
1.040312973220598736e-01
0.000000000000000000e+00
-1.040312973220598736e-01
1.740776559556978520e-01
-1.740776559556978520e-01
-2.059714602177749043e-01
7.784989441615229600e-02
5.884898863364997068e-02
-1.395726315597706491e-01
1.395726315597706491e-01
-5.884898863364997068e-02
-7.784989441615229600e-02
2.059714602177749043e-01
1.681749930365043499e-01
8.408749651825217497e-02
-1.561624935338969122e-01
1.081124955234670920e-01
0.000000000000000000e+00
-1.081124955234670920e-01
1.561624935338969122e-01
-8.408749651825217497e-02
-1.681749930365043499e-01
-2.059714602177749043e-01
7.784989441615229600e-02
5.884898863364997068e-02
-1.395726315597706491e-01
1.395726315597706491e-01
-5.884898863364997068e-02
-7.784989441615229600e-02
2.059714602177749043e-01
1.740776559556978520e-01
-1.740776559556978520e-01
1.040312973220598736e-01
0.000000000000000000e+00
-1.040312973220598736e-01
1.740776559556978520e-01
-1.740776559556978520e-01
-1.005037815259212097e-01
1.589104315409320678e-01
-1.899342940993966056e-01
1.899342940993966056e-01
-1.589104315409320678e-01
1.005037815259212097e-01
3.333333333333333148e-01
-3.333333333333333148e-01
3.333333333333333148e-01
-3.333333333333333148e-01
3.333333333333333148e-01
-3.333333333333333148e-01
3.333333333333333148e-01
-3.333333333333333148e-01
3.333333333333333148e-01
3.333333333333333148e-01
-1.666666666666666574e-01
-2.886751345948128655e-01
6.299407883487119497e-02
2.182178902359923622e-01
2.439750182371332732e-01
-1.091089451179961811e-01
-2.439750182371332732e-01
-1.992047682223989369e-01
1.543033499620919125e-01
2.519763153394847799e-01
1.543033499620919125e-01
-1.992047682223989369e-01
-2.439750182371332732e-01
-1.091089451179961811e-01
2.439750182371332732e-01
2.182178902359923622e-01
6.299407883487119497e-02
-2.886751345948128655e-01
-1.666666666666666574e-01
3.333333333333333148e-01
-2.981423969999719703e-01
1.490711984999859852e-01
1.490711984999859852e-01
2.236067977499789916e-01
-1.972026594366538543e-01
-1.972026594366538543e-01
-1.490711984999859852e-01
2.236067977499789916e-01
2.236067977499789916e-01
7.453559924999299258e-02
-2.357022603955158391e-01
-2.357022603955158391e-01
0.000000000000000000e+00
2.357022603955158391e-01
2.357022603955158391e-01
-7.453559924999299258e-02
-2.236067977499789916e-01
-2.236067977499789916e-01
1.490711984999859852e-01
1.972026594366538543e-01
1.972026594366538543e-01
-2.236067977499789916e-01
-1.490711984999859852e-01
-1.490711984999859852e-01
2.981423969999719703e-01
3.333333333333333148e-01
-2.357022603955158391e-01
-2.357022603955158391e-01
1.543033499620919125e-01
2.519763153394847799e-01
1.543033499620919125e-01
-8.908708063747479422e-02
-2.182178902359923622e-01
-2.182178902359923622e-01
-8.908708063747479422e-02
3.984095364447979432e-02
1.593638145779191773e-01
2.390457218668787520e-01
1.593638145779191773e-01
3.984095364447979432e-02
-8.908708063747479422e-02
-2.182178902359923622e-01
-2.182178902359923622e-01
-8.908708063747479422e-02
1.543033499620919125e-01
2.519763153394847799e-01
1.543033499620919125e-01
-2.357022603955158391e-01
-2.357022603955158391e-01
3.333333333333333148e-01
-2.581988897471610978e-01
2.108185106778919515e-01
2.236067977499789916e-01
7.453559924999299258e-02
-2.357022603955158391e-01
-1.463850109422799861e-01
-1.951800145897066574e-01
6.299407883487119497e-02
2.182178902359923622e-01
6.900655593423542233e-02
1.972026594366538543e-01
1.091089451179961811e-01
-1.543033499620919125e-01
-1.781741612749495884e-01
-1.259881576697423899e-01
-1.992047682223989369e-01
0.000000000000000000e+00
1.992047682223989369e-01
1.259881576697423899e-01
1.781741612749495884e-01
1.543033499620919125e-01
-1.091089451179961811e-01
-1.972026594366538543e-01
-6.900655593423542233e-02
-2.182178902359923622e-01
-6.299407883487119497e-02
1.951800145897066574e-01
1.463850109422799861e-01
2.357022603955158391e-01
-7.453559924999299258e-02
-2.236067977499789916e-01
-2.108185106778919515e-01
2.581988897471610978e-01
2.378353560042252568e-01
-2.059714602177749043e-01
1.100963765126360544e-01
-2.059714602177749043e-01
-5.945883900105631420e-02
1.946247360403807469e-01
-1.651445647689540885e-01
1.100963765126360544e-01
1.946247360403807469e-01
-6.795295885835006544e-02
-1.324102244257124306e-01
1.973855084879307109e-01
-1.651445647689540885e-01
-1.324102244257124306e-01
1.444000375739938891e-01
4.652421051992354506e-02
-2.080625946441197471e-01
1.973855084879307109e-01
4.652421051992354506e-02
-1.698823971458751914e-01
4.652421051992354506e-02
1.973855084879307109e-01
-2.080625946441197471e-01
4.652421051992354506e-02
1.444000375739938891e-01
-1.324102244257124306e-01
-1.651445647689540885e-01
1.973855084879307109e-01
-1.324102244257124306e-01
-6.795295885835006544e-02
1.946247360403807469e-01
1.100963765126360544e-01
-1.651445647689540885e-01
1.946247360403807469e-01
-5.945883900105631420e-02
-2.059714602177749043e-01
1.100963765126360544e-01
-2.059714602177749043e-01
2.378353560042252568e-01
3.333333333333333148e-01
-2.886751345948128655e-01
-1.666666666666666574e-01
2.439750182371332732e-01
2.182178902359923622e-01
6.299407883487119497e-02
-1.992047682223989369e-01
-2.439750182371332732e-01
-1.091089451179961811e-01
1.543033499620919125e-01
2.519763153394847799e-01
1.543033499620919125e-01
-1.091089451179961811e-01
-2.439750182371332732e-01
-1.992047682223989369e-01
6.299407883487119497e-02
2.182178902359923622e-01
2.439750182371332732e-01
-1.666666666666666574e-01
-2.886751345948128655e-01
3.333333333333333148e-01
-2.108185106778919515e-01
2.581988897471610978e-01
2.357022603955158391e-01
-7.453559924999299258e-02
-2.236067977499789916e-01
-2.182178902359923622e-01
-6.299407883487119497e-02
1.951800145897066574e-01
1.463850109422799861e-01
1.781741612749495884e-01
1.543033499620919125e-01
-1.091089451179961811e-01
-1.972026594366538543e-01
-6.900655593423542233e-02
-1.259881576697423899e-01
-1.992047682223989369e-01
0.000000000000000000e+00
1.992047682223989369e-01
1.259881576697423899e-01
6.900655593423542233e-02
1.972026594366538543e-01
1.091089451179961811e-01
-1.543033499620919125e-01
-1.781741612749495884e-01
-1.463850109422799861e-01
-1.951800145897066574e-01
6.299407883487119497e-02
2.182178902359923622e-01
2.236067977499789916e-01
7.453559924999299258e-02
-2.357022603955158391e-01
-2.581988897471610978e-01
2.108185106778919515e-01
1.740776559556978520e-01
-2.247332874877473741e-01
1.740776559556978520e-01
-2.132007163556104423e-01
1.005037815259212097e-01
1.005037815259212097e-01
-2.132007163556104423e-01
1.973855084879307109e-01
4.652421051992354506e-02
-1.698823971458751914e-01
4.652421051992354506e-02
1.973855084879307109e-01
-1.471224715841249198e-01
-1.519474352795172623e-01
1.040312973220598736e-01
1.040312973220598736e-01
-1.519474352795172623e-01
-1.471224715841249198e-01
8.058229640253802839e-02
1.880253582725887329e-01
2.686076546751267613e-02
-1.611645928050760568e-01
2.686076546751267613e-02
1.880253582725887329e-01
8.058229640253802839e-02
-1.471224715841249198e-01
-1.519474352795172623e-01
1.040312973220598736e-01
1.040312973220598736e-01
-1.519474352795172623e-01
-1.471224715841249198e-01
1.973855084879307109e-01
4.652421051992354506e-02
-1.698823971458751914e-01
4.652421051992354506e-02
1.973855084879307109e-01
-2.132007163556104423e-01
1.005037815259212097e-01
1.005037815259212097e-01
-2.132007163556104423e-01
1.740776559556978520e-01
-2.247332874877473741e-01
1.740776559556978520e-01
-1.681749930365043499e-01
2.059714602177749043e-01
-1.740776559556978520e-01
1.005037815259212097e-01
2.059714602177749043e-01
-8.408749651825217497e-02
-7.784989441615229600e-02
1.740776559556978520e-01
-1.589104315409320678e-01
-1.740776559556978520e-01
-7.784989441615229600e-02
1.561624935338968845e-01
-5.884898863364997068e-02
-1.040312973220598736e-01
1.899342940993965778e-01
1.005037815259212097e-01
1.740776559556978520e-01
-5.884898863364997068e-02
-1.081124955234670781e-01
1.395726315597706491e-01
0.000000000000000000e+00
-1.899342940993965778e-01
-1.589104315409320678e-01
-1.040312973220598736e-01
1.395726315597706491e-01
0.000000000000000000e+00
-1.395726315597706491e-01
1.040312973220598736e-01
1.589104315409320678e-01
1.899342940993965778e-01
0.000000000000000000e+00
-1.395726315597706491e-01
1.081124955234670781e-01
5.884898863364997068e-02
-1.740776559556978520e-01
-1.005037815259212097e-01
-1.899342940993965778e-01
1.040312973220598736e-01
5.884898863364997068e-02
-1.561624935338968845e-01
7.784989441615229600e-02
1.740776559556978520e-01
1.589104315409320678e-01
-1.740776559556978520e-01
7.784989441615229600e-02
8.408749651825217497e-02
-2.059714602177749043e-01
-1.005037815259212097e-01
1.740776559556978520e-01
-2.059714602177749043e-01
1.681749930365043499e-01
3.333333333333333148e-01
-3.333333333333333148e-01
3.333333333333333148e-01
-3.333333333333333148e-01
3.333333333333333148e-01
-3.333333333333333148e-01
3.333333333333333148e-01
-3.333333333333333148e-01
3.333333333333333148e-01
-1.490711984999859852e-01
2.981423969999719703e-01
1.972026594366538543e-01
-2.236067977499789916e-01
-1.490711984999859852e-01
-2.236067977499789916e-01
1.490711984999859852e-01
1.972026594366538543e-01
2.357022603955158391e-01
-7.453559924999299258e-02
-2.236067977499789916e-01
-2.357022603955158391e-01
0.000000000000000000e+00
2.357022603955158391e-01
2.236067977499789916e-01
7.453559924999299258e-02
-2.357022603955158391e-01
-1.972026594366538543e-01
-1.490711984999859852e-01
2.236067977499789916e-01
1.490711984999859852e-01
2.236067977499789916e-01
-1.972026594366538543e-01
-2.981423969999719703e-01
1.490711984999859852e-01
1.100963765126360544e-01
-2.059714602177749043e-01
2.378353560042252568e-01
-1.651445647689540885e-01
1.946247360403807469e-01
-5.945883900105631420e-02
-2.059714602177749043e-01
1.973855084879307109e-01
-1.324102244257124306e-01
-6.795295885835006544e-02
1.946247360403807469e-01
1.100963765126360544e-01
-2.080625946441197471e-01
4.652421051992354506e-02
1.444000375739938891e-01
-1.324102244257124306e-01
-1.651445647689540885e-01
1.973855084879307109e-01
4.652421051992354506e-02
-1.698823971458751914e-01
4.652421051992354506e-02
1.973855084879307109e-01
-1.651445647689540885e-01
-1.324102244257124306e-01
1.444000375739938891e-01
4.652421051992354506e-02
-2.080625946441197471e-01
1.100963765126360544e-01
1.946247360403807469e-01
-6.795295885835006544e-02
-1.324102244257124306e-01
1.973855084879307109e-01
-2.059714602177749043e-01
-5.945883900105631420e-02
1.946247360403807469e-01
-1.651445647689540885e-01
2.378353560042252568e-01
-2.059714602177749043e-01
1.100963765126360544e-01
-1.005037815259212097e-01
1.740776559556978520e-01
-2.059714602177749043e-01
1.681749930365043499e-01
1.589104315409320678e-01
-1.740776559556978520e-01
7.784989441615229600e-02
8.408749651825217497e-02
-2.059714602177749043e-01
-1.899342940993965778e-01
1.040312973220598736e-01
5.884898863364997068e-02
-1.561624935338968845e-01
7.784989441615229600e-02
1.740776559556978520e-01
1.899342940993965778e-01
0.000000000000000000e+00
-1.395726315597706491e-01
1.081124955234670781e-01
5.884898863364997068e-02
-1.740776559556978520e-01
-1.005037815259212097e-01
-1.589104315409320678e-01
-1.040312973220598736e-01
1.395726315597706491e-01
0.000000000000000000e+00
-1.395726315597706491e-01
1.040312973220598736e-01
1.589104315409320678e-01
1.005037815259212097e-01
1.740776559556978520e-01
-5.884898863364997068e-02
-1.081124955234670781e-01
1.395726315597706491e-01
0.000000000000000000e+00
-1.899342940993965778e-01
-1.740776559556978520e-01
-7.784989441615229600e-02
1.561624935338968845e-01
-5.884898863364997068e-02
-1.040312973220598736e-01
1.899342940993965778e-01
2.059714602177749043e-01
-8.408749651825217497e-02
-7.784989441615229600e-02
1.740776559556978520e-01
-1.589104315409320678e-01
-1.681749930365043499e-01
2.059714602177749043e-01
-1.740776559556978520e-01
1.005037815259212097e-01
1.042977031291239809e-01
-1.649091483060512175e-01
1.869893980016914259e-01
-1.649091483060512175e-01
1.042977031291239809e-01
-1.649091483060512175e-01
1.564465546936859575e-01
-6.232979933389714428e-02
-6.232979933389714428e-02
1.564465546936859575e-01
-1.649091483060512175e-01
1.869893980016914259e-01
-6.232979933389714428e-02
-8.194819531574026872e-02
1.413506985480439127e-01
-8.194819531574026872e-02
-6.232979933389714428e-02
1.869893980016914259e-01
-1.649091483060512175e-01
-6.232979933389714428e-02
1.413506985480439127e-01
-6.704852344015113652e-02
-6.704852344015113652e-02
1.413506985480439127e-01
-6.232979933389714428e-02
-1.649091483060512175e-01
1.042977031291239809e-01
1.564465546936859575e-01
-8.194819531574026872e-02
-6.704852344015113652e-02
1.340970468803022730e-01
-6.704852344015113652e-02
-8.194819531574026872e-02
1.564465546936859575e-01
1.042977031291239809e-01
-1.649091483060512175e-01
-6.232979933389714428e-02
1.413506985480439127e-01
-6.704852344015113652e-02
-6.704852344015113652e-02
1.413506985480439127e-01
-6.232979933389714428e-02
-1.649091483060512175e-01
1.869893980016914259e-01
-6.232979933389714428e-02
-8.194819531574026872e-02
1.413506985480439127e-01
-8.194819531574026872e-02
-6.232979933389714428e-02
1.869893980016914259e-01
-1.649091483060512175e-01
1.564465546936859575e-01
-6.232979933389714428e-02
-6.232979933389714428e-02
1.564465546936859575e-01
-1.649091483060512175e-01
1.042977031291239809e-01
-1.649091483060512175e-01
1.869893980016914259e-01
-1.649091483060512175e-01
1.042977031291239809e-01
5.773502691896257311e-01
-5.773502691896257311e-01
5.773502691896257311e-01
5.773502691896257311e-01
-5.773502691896257311e-01
5.773502691896257311e-01
-4.082482904638630172e-01
4.082482904638630172e-01
4.082482904638630172e-01
0.000000000000000000e+00
-4.082482904638630172e-01
-4.082482904638630172e-01
4.082482904638630172e-01
4.472135954999579277e-01
-3.162277660168379412e-01
1.825741858350553581e-01
-3.162277660168379412e-01
3.651483716701107163e-01
-3.162277660168379412e-01
1.825741858350553581e-01
-3.162277660168379412e-01
4.472135954999579277e-01
1.825741858350553581e-01
-3.162277660168379412e-01
4.472135954999579277e-01
-3.162277660168379412e-01
3.651483716701107163e-01
-3.162277660168379412e-01
4.472135954999579277e-01
-3.162277660168379412e-01
1.825741858350553581e-01
-2.581988897471610978e-01
3.162277660168379412e-01
-3.162277660168379412e-01
2.581988897471610978e-01
3.651483716701107163e-01
-1.825741858350553581e-01
0.000000000000000000e+00
1.825741858350553581e-01
-3.651483716701107163e-01
-2.581988897471610978e-01
3.162277660168379412e-01
-3.162277660168379412e-01
2.581988897471610978e-01
3.779644730092271421e-01
-3.086066999241837694e-01
2.390457218668787520e-01
-1.690308509457033315e-01
9.759000729485332870e-02
-2.182178902359923345e-01
2.760262237369417448e-01
-2.927700218845599167e-01
2.760262237369417448e-01
-2.182178902359923345e-01
9.759000729485332870e-02
-1.690308509457033315e-01
2.390457218668787520e-01
-3.086066999241837694e-01
3.779644730092271421e-01
9.759000729485332870e-02
-1.690308509457033315e-01
2.390457218668787520e-01
-3.086066999241837694e-01
3.779644730092271421e-01
-2.182178902359923345e-01
2.760262237369417448e-01
-2.927700218845599167e-01
2.760262237369417448e-01
-2.182178902359923345e-01
3.779644730092271421e-01
-3.086066999241837694e-01
2.390457218668787520e-01
-1.690308509457033315e-01
9.759000729485332870e-02
-1.889822365046135710e-01
2.439750182371332454e-01
-2.672612419124243410e-01
2.672612419124243410e-01
-2.439750182371332454e-01
1.889822365046135710e-01
3.273268353539885434e-01
-2.182178902359923345e-01
1.091089451179961672e-01
0.000000000000000000e+00
-1.091089451179961672e-01
2.182178902359923345e-01
-3.273268353539885434e-01
-1.889822365046135710e-01
2.439750182371332454e-01
-2.672612419124243410e-01
2.672612419124243410e-01
-2.439750182371332454e-01
1.889822365046135710e-01
3.333333333333333148e-01
-2.886751345948128655e-01
2.439750182371332454e-01
-1.992047682223989369e-01
1.543033499620918847e-01
-1.091089451179961672e-01
6.299407883487119497e-02
-1.666666666666666574e-01
2.182178902359923345e-01
-2.439750182371332454e-01
2.519763153394847799e-01
-2.439750182371332454e-01
2.182178902359923345e-01
-1.666666666666666574e-01
6.299407883487119497e-02
-1.091089451179961672e-01
1.543033499620918847e-01
-1.992047682223989369e-01
2.439750182371332454e-01
-2.886751345948128655e-01
3.333333333333333148e-01
6.299407883487119497e-02
-1.091089451179961672e-01
1.543033499620918847e-01
-1.992047682223989369e-01
2.439750182371332454e-01
-2.886751345948128655e-01
3.333333333333333148e-01
-1.666666666666666574e-01
2.182178902359923345e-01
-2.439750182371332454e-01
2.519763153394847799e-01
-2.439750182371332454e-01
2.182178902359923345e-01
-1.666666666666666574e-01
3.333333333333333148e-01
-2.886751345948128655e-01
2.439750182371332454e-01
-1.992047682223989369e-01
1.543033499620918847e-01
-1.091089451179961672e-01
6.299407883487119497e-02
-1.490711984999859852e-01
1.972026594366538543e-01
-2.236067977499789639e-01
2.357022603955158113e-01
-2.357022603955158113e-01
2.236067977499789639e-01
-1.972026594366538543e-01
1.490711984999859852e-01
2.981423969999719703e-01
-2.236067977499789639e-01
1.490711984999859852e-01
-7.453559924999299258e-02
0.000000000000000000e+00
7.453559924999299258e-02
-1.490711984999859852e-01
2.236067977499789639e-01
-2.981423969999719703e-01
-1.490711984999859852e-01
1.972026594366538543e-01
-2.236067977499789639e-01
2.357022603955158113e-01
-2.357022603955158113e-01
2.236067977499789639e-01
-1.972026594366538543e-01
1.490711984999859852e-01
5.773502691896257311e-01
-5.773502691896257311e-01
5.773502691896257311e-01
0.000000000000000000e+00
0.000000000000000000e+00
0.000000000000000000e+00
3.333333333333333148e-01
-3.333333333333333148e-01
3.333333333333333148e-01
0.000000000000000000e+00
0.000000000000000000e+00
-3.333333333333333148e-01
3.333333333333333148e-01
-3.333333333333333148e-01
0.000000000000000000e+00
0.000000000000000000e+00
3.333333333333333148e-01
-3.333333333333333148e-01
3.333333333333333148e-01
0.000000000000000000e+00
0.000000000000000000e+00
0.000000000000000000e+00
0.000000000000000000e+00
0.000000000000000000e+00
0.000000000000000000e+00
0.000000000000000000e+00
0.000000000000000000e+00
0.000000000000000000e+00
0.000000000000000000e+00
2.581988897471610978e-01
-2.581988897471610978e-01
2.581988897471610978e-01
-2.581988897471610978e-01
2.581988897471610978e-01
0.000000000000000000e+00
0.000000000000000000e+00
0.000000000000000000e+00
0.000000000000000000e+00
-2.581988897471610978e-01
2.581988897471610978e-01
-2.581988897471610978e-01
2.581988897471610978e-01
-2.581988897471610978e-01
0.000000000000000000e+00
0.000000000000000000e+00
0.000000000000000000e+00
0.000000000000000000e+00
2.581988897471610978e-01
-2.581988897471610978e-01
2.581988897471610978e-01
-2.581988897471610978e-01
2.581988897471610978e-01
0.000000000000000000e+00
0.000000000000000000e+00
0.000000000000000000e+00
0.000000000000000000e+00
0.000000000000000000e+00
0.000000000000000000e+00
0.000000000000000000e+00
0.000000000000000000e+00
0.000000000000000000e+00
0.000000000000000000e+00
0.000000000000000000e+00
0.000000000000000000e+00
0.000000000000000000e+00
0.000000000000000000e+00
0.000000000000000000e+00
0.000000000000000000e+00
0.000000000000000000e+00
0.000000000000000000e+00
2.182178902359923622e-01
-2.182178902359923622e-01
2.182178902359923622e-01
-2.182178902359923622e-01
2.182178902359923622e-01
-2.182178902359923622e-01
2.182178902359923622e-01
0.000000000000000000e+00
0.000000000000000000e+00
0.000000000000000000e+00
0.000000000000000000e+00
0.000000000000000000e+00
0.000000000000000000e+00
-2.182178902359923622e-01
2.182178902359923622e-01
-2.182178902359923622e-01
2.182178902359923622e-01
-2.182178902359923622e-01
2.182178902359923622e-01
-2.182178902359923622e-01
0.000000000000000000e+00
0.000000000000000000e+00
0.000000000000000000e+00
0.000000000000000000e+00
0.000000000000000000e+00
0.000000000000000000e+00
2.182178902359923622e-01
-2.182178902359923622e-01
2.182178902359923622e-01
-2.182178902359923622e-01
2.182178902359923622e-01
-2.182178902359923622e-01
2.182178902359923622e-01
0.000000000000000000e+00
0.000000000000000000e+00
0.000000000000000000e+00
0.000000000000000000e+00
0.000000000000000000e+00
0.000000000000000000e+00
0.000000000000000000e+00
0.000000000000000000e+00
0.000000000000000000e+00
0.000000000000000000e+00
0.000000000000000000e+00
0.000000000000000000e+00
0.000000000000000000e+00
0.000000000000000000e+00
0.000000000000000000e+00
0.000000000000000000e+00
0.000000000000000000e+00
0.000000000000000000e+00
0.000000000000000000e+00
0.000000000000000000e+00
0.000000000000000000e+00
0.000000000000000000e+00
0.000000000000000000e+00
0.000000000000000000e+00
0.000000000000000000e+00
0.000000000000000000e+00
1.924500897298752344e-01
-1.924500897298752344e-01
1.924500897298752344e-01
-1.924500897298752344e-01
1.924500897298752344e-01
-1.924500897298752344e-01
1.924500897298752344e-01
-1.924500897298752344e-01
1.924500897298752344e-01
0.000000000000000000e+00
0.000000000000000000e+00
0.000000000000000000e+00
0.000000000000000000e+00
0.000000000000000000e+00
0.000000000000000000e+00
0.000000000000000000e+00
0.000000000000000000e+00
-1.924500897298752344e-01
1.924500897298752344e-01
-1.924500897298752344e-01
1.924500897298752344e-01
-1.924500897298752344e-01
1.924500897298752344e-01
-1.924500897298752344e-01
1.924500897298752344e-01
-1.924500897298752344e-01
0.000000000000000000e+00
0.000000000000000000e+00
0.000000000000000000e+00
0.000000000000000000e+00
0.000000000000000000e+00
0.000000000000000000e+00
0.000000000000000000e+00
0.000000000000000000e+00
1.924500897298752344e-01
-1.924500897298752344e-01
1.924500897298752344e-01
-1.924500897298752344e-01
1.924500897298752344e-01
-1.924500897298752344e-01
1.924500897298752344e-01
-1.924500897298752344e-01
1.924500897298752344e-01
0.000000000000000000e+00
0.000000000000000000e+00
0.000000000000000000e+00
0.000000000000000000e+00
0.000000000000000000e+00
0.000000000000000000e+00
0.000000000000000000e+00
0.000000000000000000e+00
0.000000000000000000e+00
0.000000000000000000e+00
0.000000000000000000e+00
0.000000000000000000e+00
0.000000000000000000e+00
0.000000000000000000e+00
0.000000000000000000e+00
-4.082482904638630172e-01
4.082482904638630172e-01
4.082482904638630172e-01
0.000000000000000000e+00
-4.082482904638630172e-01
-4.082482904638630172e-01
4.082482904638630172e-01
-4.082482904638630172e-01
4.082482904638630172e-01
4.082482904638630172e-01
0.000000000000000000e+00
-4.082482904638630172e-01
-4.082482904638630172e-01
4.082482904638630172e-01
0.000000000000000000e+00
2.886751345948128655e-01
-2.886751345948128655e-01
-2.886751345948128655e-01
0.000000000000000000e+00
2.886751345948128655e-01
-2.886751345948128655e-01
2.886751345948128655e-01
0.000000000000000000e+00
0.000000000000000000e+00
0.000000000000000000e+00
2.886751345948128655e-01
-2.886751345948128655e-01
2.886751345948128655e-01
0.000000000000000000e+00
-2.886751345948128655e-01
-2.886751345948128655e-01
2.886751345948128655e-01
0.000000000000000000e+00
0.000000000000000000e+00
0.000000000000000000e+00
-3.162277660168379412e-01
2.236067977499789639e-01
-1.290994448735805489e-01
2.236067977499789639e-01
-2.581988897471610978e-01
2.236067977499789639e-01
3.162277660168379412e-01
-2.236067977499789639e-01
1.290994448735805489e-01
0.000000000000000000e+00
0.000000000000000000e+00
0.000000000000000000e+00
-1.290994448735805489e-01
2.236067977499789639e-01
-3.162277660168379412e-01
-2.236067977499789639e-01
2.581988897471610978e-01
-2.236067977499789639e-01
1.290994448735805489e-01
-2.236067977499789639e-01
3.162277660168379412e-01
0.000000000000000000e+00
0.000000000000000000e+00
0.000000000000000000e+00
0.000000000000000000e+00
-1.290994448735805489e-01
2.236067977499789639e-01
-3.162277660168379412e-01
2.236067977499789639e-01
-2.581988897471610978e-01
2.236067977499789639e-01
1.290994448735805489e-01
-2.236067977499789639e-01
3.162277660168379412e-01
0.000000000000000000e+00
0.000000000000000000e+00
0.000000000000000000e+00
-3.162277660168379412e-01
2.236067977499789639e-01
-1.290994448735805489e-01
-2.236067977499789639e-01
2.581988897471610978e-01
-2.236067977499789639e-01
3.162277660168379412e-01
-2.236067977499789639e-01
1.290994448735805489e-01
0.000000000000000000e+00
0.000000000000000000e+00
0.000000000000000000e+00
0.000000000000000000e+00
0.000000000000000000e+00
1.825741858350553581e-01
-2.236067977499789639e-01
2.236067977499789639e-01
-1.825741858350553581e-01
-2.581988897471610978e-01
1.290994448735805489e-01
0.000000000000000000e+00
-1.290994448735805489e-01
2.581988897471610978e-01
-1.825741858350553581e-01
2.236067977499789639e-01
-2.236067977499789639e-01
1.825741858350553581e-01
0.000000000000000000e+00
0.000000000000000000e+00
0.000000000000000000e+00
0.000000000000000000e+00
0.000000000000000000e+00
1.825741858350553581e-01
-2.236067977499789639e-01
2.236067977499789639e-01
-1.825741858350553581e-01
2.581988897471610978e-01
-1.290994448735805489e-01
0.000000000000000000e+00
1.290994448735805489e-01
-2.581988897471610978e-01
-1.825741858350553581e-01
2.236067977499789639e-01
-2.236067977499789639e-01
1.825741858350553581e-01
0.000000000000000000e+00
0.000000000000000000e+00
0.000000000000000000e+00
0.000000000000000000e+00
0.000000000000000000e+00
0.000000000000000000e+00
0.000000000000000000e+00
-2.672612419124243410e-01
2.182178902359923345e-01
-1.690308509457033315e-01
1.195228609334393760e-01
-6.900655593423543621e-02
1.543033499620918847e-01
-1.951800145897066574e-01
2.070196678027062531e-01
-1.951800145897066574e-01
1.543033499620918847e-01
2.672612419124243410e-01
-2.182178902359923345e-01
1.690308509457033315e-01
-1.195228609334393760e-01
6.900655593423543621e-02
0.000000000000000000e+00
0.000000000000000000e+00
0.000000000000000000e+00
0.000000000000000000e+00
0.000000000000000000e+00
-6.900655593423543621e-02
1.195228609334393760e-01
-1.690308509457033315e-01
2.182178902359923345e-01
-2.672612419124243410e-01
-1.543033499620918847e-01
1.951800145897066574e-01
-2.070196678027062531e-01
1.951800145897066574e-01
-1.543033499620918847e-01
6.900655593423543621e-02
-1.195228609334393760e-01
1.690308509457033315e-01
-2.182178902359923345e-01
2.672612419124243410e-01
0.000000000000000000e+00
0.000000000000000000e+00
0.000000000000000000e+00
0.000000000000000000e+00
0.000000000000000000e+00
0.000000000000000000e+00
0.000000000000000000e+00
0.000000000000000000e+00
-6.900655593423543621e-02
1.195228609334393760e-01
-1.690308509457033315e-01
2.182178902359923345e-01
-2.672612419124243410e-01
1.543033499620918847e-01
-1.951800145897066574e-01
2.070196678027062531e-01
-1.951800145897066574e-01
1.543033499620918847e-01
6.900655593423543621e-02
-1.195228609334393760e-01
1.690308509457033315e-01
-2.182178902359923345e-01
2.672612419124243410e-01
0.000000000000000000e+00
0.000000000000000000e+00
0.000000000000000000e+00
0.000000000000000000e+00
0.000000000000000000e+00
-2.672612419124243410e-01
2.182178902359923345e-01
-1.690308509457033315e-01
1.195228609334393760e-01
-6.900655593423543621e-02
-1.543033499620918847e-01
1.951800145897066574e-01
-2.070196678027062531e-01
1.951800145897066574e-01
-1.543033499620918847e-01
2.672612419124243410e-01
-2.182178902359923345e-01
1.690308509457033315e-01
-1.195228609334393760e-01
6.900655593423543621e-02
0.000000000000000000e+00
0.000000000000000000e+00
0.000000000000000000e+00
0.000000000000000000e+00
0.000000000000000000e+00
0.000000000000000000e+00
0.000000000000000000e+00
0.000000000000000000e+00
0.000000000000000000e+00
1.336306209562121705e-01
-1.725163898355885350e-01
1.889822365046135710e-01
-1.889822365046135710e-01
1.725163898355885350e-01
-1.336306209562121705e-01
-2.314550249431378270e-01
1.543033499620918847e-01
-7.715167498104594235e-02
0.000000000000000000e+00
7.715167498104594235e-02
-1.543033499620918847e-01
2.314550249431378270e-01
-1.336306209562121705e-01
1.725163898355885350e-01
-1.889822365046135710e-01
1.889822365046135710e-01
-1.725163898355885350e-01
1.336306209562121705e-01
0.000000000000000000e+00
0.000000000000000000e+00
0.000000000000000000e+00
0.000000000000000000e+00
0.000000000000000000e+00
0.000000000000000000e+00
0.000000000000000000e+00
1.336306209562121705e-01
-1.725163898355885350e-01
1.889822365046135710e-01
-1.889822365046135710e-01
1.725163898355885350e-01
-1.336306209562121705e-01
2.314550249431378270e-01
-1.543033499620918847e-01
7.715167498104594235e-02
0.000000000000000000e+00
-7.715167498104594235e-02
1.543033499620918847e-01
-2.314550249431378270e-01
-1.336306209562121705e-01
1.725163898355885350e-01
-1.889822365046135710e-01
1.889822365046135710e-01
-1.725163898355885350e-01
1.336306209562121705e-01
0.000000000000000000e+00
0.000000000000000000e+00
0.000000000000000000e+00
0.000000000000000000e+00
0.000000000000000000e+00
0.000000000000000000e+00
0.000000000000000000e+00
0.000000000000000000e+00
0.000000000000000000e+00
0.000000000000000000e+00
0.000000000000000000e+00
-2.357022603955158113e-01
2.041241452319315086e-01
-1.725163898355885350e-01
1.408590424547527531e-01
-1.091089451179961672e-01
7.715167498104594235e-02
-4.454354031873739711e-02
1.178511301977579057e-01
-1.543033499620918847e-01
1.725163898355885350e-01
-1.781741612749495884e-01
1.725163898355885350e-01
-1.543033499620918847e-01
1.178511301977579057e-01
2.357022603955158113e-01
-2.041241452319315086e-01
1.725163898355885350e-01
-1.408590424547527531e-01
1.091089451179961672e-01
-7.715167498104594235e-02
4.454354031873739711e-02
0.000000000000000000e+00
0.000000000000000000e+00
0.000000000000000000e+00
0.000000000000000000e+00
0.000000000000000000e+00
0.000000000000000000e+00
0.000000000000000000e+00
-4.454354031873739711e-02
7.715167498104594235e-02
-1.091089451179961672e-01
1.408590424547527531e-01
-1.725163898355885350e-01
2.041241452319315086e-01
-2.357022603955158113e-01
-1.178511301977579057e-01
1.543033499620918847e-01
-1.725163898355885350e-01
1.781741612749495884e-01
-1.725163898355885350e-01
1.543033499620918847e-01
-1.178511301977579057e-01
4.454354031873739711e-02
-7.715167498104594235e-02
1.091089451179961672e-01
-1.408590424547527531e-01
1.725163898355885350e-01
-2.041241452319315086e-01
2.357022603955158113e-01
0.000000000000000000e+00
0.000000000000000000e+00
0.000000000000000000e+00
0.000000000000000000e+00
0.000000000000000000e+00
0.000000000000000000e+00
0.000000000000000000e+00
0.000000000000000000e+00
0.000000000000000000e+00
0.000000000000000000e+00
0.000000000000000000e+00
0.000000000000000000e+00
-4.454354031873739711e-02
7.715167498104594235e-02
-1.091089451179961672e-01
1.408590424547527531e-01
-1.725163898355885350e-01
2.041241452319315086e-01
-2.357022603955158113e-01
1.178511301977579057e-01
-1.543033499620918847e-01
1.725163898355885350e-01
-1.781741612749495884e-01
1.725163898355885350e-01
-1.543033499620918847e-01
1.178511301977579057e-01
4.454354031873739711e-02
-7.715167498104594235e-02
1.091089451179961672e-01
-1.408590424547527531e-01
1.725163898355885350e-01
-2.041241452319315086e-01
2.357022603955158113e-01
0.000000000000000000e+00
0.000000000000000000e+00
0.000000000000000000e+00
0.000000000000000000e+00
0.000000000000000000e+00
0.000000000000000000e+00
0.000000000000000000e+00
-2.357022603955158113e-01
2.041241452319315086e-01
-1.725163898355885350e-01
1.408590424547527531e-01
-1.091089451179961672e-01
7.715167498104594235e-02
-4.454354031873739711e-02
-1.178511301977579057e-01
1.543033499620918847e-01
-1.725163898355885350e-01
1.781741612749495884e-01
-1.725163898355885350e-01
1.543033499620918847e-01
-1.178511301977579057e-01
2.357022603955158113e-01
-2.041241452319315086e-01
1.725163898355885350e-01
-1.408590424547527531e-01
1.091089451179961672e-01
-7.715167498104594235e-02
4.454354031873739711e-02
0.000000000000000000e+00
0.000000000000000000e+00
0.000000000000000000e+00
0.000000000000000000e+00
0.000000000000000000e+00
0.000000000000000000e+00
0.000000000000000000e+00
0.000000000000000000e+00
0.000000000000000000e+00
0.000000000000000000e+00
0.000000000000000000e+00
0.000000000000000000e+00
0.000000000000000000e+00
1.054092553389459758e-01
-1.394433377556792419e-01
1.581138830084189706e-01
-1.666666666666666574e-01
1.666666666666666574e-01
-1.581138830084189706e-01
1.394433377556792419e-01
-1.054092553389459758e-01
-2.108185106778919515e-01
1.581138830084189706e-01
-1.054092553389459758e-01
5.270462766947298788e-02
0.000000000000000000e+00
-5.270462766947298788e-02
1.054092553389459758e-01
-1.581138830084189706e-01
2.108185106778919515e-01
-1.054092553389459758e-01
1.394433377556792419e-01
-1.581138830084189706e-01
1.666666666666666574e-01
-1.666666666666666574e-01
1.581138830084189706e-01
-1.394433377556792419e-01
1.054092553389459758e-01
0.000000000000000000e+00
0.000000000000000000e+00
0.000000000000000000e+00
0.000000000000000000e+00
0.000000000000000000e+00
0.000000000000000000e+00
0.000000000000000000e+00
0.000000000000000000e+00
0.000000000000000000e+00
1.054092553389459758e-01
-1.394433377556792419e-01
1.581138830084189706e-01
-1.666666666666666574e-01
1.666666666666666574e-01
-1.581138830084189706e-01
1.394433377556792419e-01
-1.054092553389459758e-01
2.108185106778919515e-01
-1.581138830084189706e-01
1.054092553389459758e-01
-5.270462766947298788e-02
0.000000000000000000e+00
5.270462766947298788e-02
-1.054092553389459758e-01
1.581138830084189706e-01
-2.108185106778919515e-01
-1.054092553389459758e-01
1.394433377556792419e-01
-1.581138830084189706e-01
1.666666666666666574e-01
-1.666666666666666574e-01
1.581138830084189706e-01
-1.394433377556792419e-01
1.054092553389459758e-01
0.000000000000000000e+00
0.000000000000000000e+00
0.000000000000000000e+00
0.000000000000000000e+00
0.000000000000000000e+00
0.000000000000000000e+00
0.000000000000000000e+00
4.472135954999579832e-01
-3.162277660168379412e-01
1.825741858350553859e-01
-3.162277660168379412e-01
3.651483716701107718e-01
-3.162277660168379412e-01
1.825741858350553859e-01
-3.162277660168379412e-01
4.472135954999579832e-01
4.472135954999579832e-01
-2.236067977499789916e-01
-2.236067977499789916e-01
7.453559924999299258e-02
1.490711984999859852e-01
7.453559924999299258e-02
-2.236067977499789916e-01
-2.236067977499789916e-01
1.490711984999859852e-01
2.981423969999719703e-01
1.490711984999859852e-01
-2.236067977499789916e-01
-2.236067977499789916e-01
7.453559924999299258e-02
1.490711984999859852e-01
7.453559924999299258e-02
-2.236067977499789916e-01
-2.236067977499789916e-01
4.472135954999579832e-01
-3.651483716701107718e-01
2.581988897471611533e-01
1.825741858350553859e-01
1.290994448735805766e-01
-2.236067977499789916e-01
-1.290994448735805766e-01
0.000000000000000000e+00
1.290994448735805766e-01
1.825741858350553859e-01
1.290994448735805766e-01
-2.236067977499789916e-01
-2.581988897471611533e-01
0.000000000000000000e+00
2.581988897471611533e-01
2.236067977499789916e-01
-1.290994448735805766e-01
-1.825741858350553859e-01
-1.290994448735805766e-01
0.000000000000000000e+00
1.290994448735805766e-01
2.236067977499789916e-01
-1.290994448735805766e-01
-1.825741858350553859e-01
-2.581988897471611533e-01
3.651483716701107718e-01
3.779644730092272531e-01
-2.182178902359923900e-01
9.759000729485332870e-02
-2.182178902359923900e-01
1.951800145897066574e-01
-1.195228609334393621e-01
9.759000729485332870e-02
-1.195228609334393621e-01
9.759000729485332870e-02
-2.182178902359923900e-01
1.951800145897066574e-01
-1.195228609334393621e-01
1.951800145897066574e-01
-2.390457218668787243e-01
1.951800145897066574e-01
-1.195228609334393621e-01
1.951800145897066574e-01
-2.182178902359923900e-01
9.759000729485332870e-02
-1.195228609334393621e-01
9.759000729485332870e-02
-1.195228609334393621e-01
1.951800145897066574e-01
-2.182178902359923900e-01
9.759000729485332870e-02
-2.182178902359923900e-01
3.779644730092272531e-01
4.472135954999579832e-01
-3.162277660168379412e-01
1.825741858350553859e-01
-3.162277660168379412e-01
3.651483716701107718e-01
-3.162277660168379412e-01
1.825741858350553859e-01
-3.162277660168379412e-01
4.472135954999579832e-01
-2.581988897471611533e-01
3.651483716701107718e-01
2.236067977499789916e-01
-1.290994448735805766e-01
-1.825741858350553859e-01
-1.290994448735805766e-01
0.000000000000000000e+00
1.290994448735805766e-01
2.236067977499789916e-01
-1.290994448735805766e-01
-1.825741858350553859e-01
-2.581988897471611533e-01
0.000000000000000000e+00
2.581988897471611533e-01
1.825741858350553859e-01
1.290994448735805766e-01
-2.236067977499789916e-01
-1.290994448735805766e-01
0.000000000000000000e+00
1.290994448735805766e-01
1.825741858350553859e-01
1.290994448735805766e-01
-2.236067977499789916e-01
-3.651483716701107718e-01
2.581988897471611533e-01
2.390457218668787243e-01
-2.927700218845599722e-01
2.390457218668787243e-01
-2.070196678027062531e-01
8.451542547285165186e-02
8.451542547285165186e-02
-2.070196678027062531e-01
9.759000729485332870e-02
4.879500364742666435e-02
-9.759000729485332870e-02
4.879500364742666435e-02
9.759000729485332870e-02
-2.070196678027062531e-01
8.451542547285165186e-02
8.451542547285165186e-02
-2.070196678027062531e-01
1.951800145897066574e-01
9.759000729485332870e-02
-1.951800145897066574e-01
9.759000729485332870e-02
1.951800145897066574e-01
-2.070196678027062531e-01
8.451542547285165186e-02
8.451542547285165186e-02
-2.070196678027062531e-01
9.759000729485332870e-02
4.879500364742666435e-02
-9.759000729485332870e-02
4.879500364742666435e-02
9.759000729485332870e-02
-2.070196678027062531e-01
8.451542547285165186e-02
8.451542547285165186e-02
-2.070196678027062531e-01
2.390457218668787243e-01
-2.927700218845599722e-01
2.390457218668787243e-01
-2.672612419124243965e-01
2.672612419124243965e-01
-2.070196678027062531e-01
1.195228609334393621e-01
1.889822365046136265e-01
0.000000000000000000e+00
-1.195228609334393621e-01
1.690308509457033037e-01
-1.463850109422799861e-01
-1.091089451179961950e-01
6.900655593423542233e-02
0.000000000000000000e+00
-6.900655593423542233e-02
1.091089451179961950e-01
1.889822365046136265e-01
0.000000000000000000e+00
-1.195228609334393621e-01
1.690308509457033037e-01
-1.463850109422799861e-01
-2.182178902359923900e-01
1.380131118684708447e-01
0.000000000000000000e+00
-1.380131118684708447e-01
2.182178902359923900e-01
1.463850109422799861e-01
-1.690308509457033037e-01
1.195228609334393621e-01
0.000000000000000000e+00
-1.889822365046136265e-01
-1.091089451179961950e-01
6.900655593423542233e-02
0.000000000000000000e+00
-6.900655593423542233e-02
1.091089451179961950e-01
1.463850109422799861e-01
-1.690308509457033037e-01
1.195228609334393621e-01
0.000000000000000000e+00
-1.889822365046136265e-01
-1.195228609334393621e-01
2.070196678027062531e-01
-2.672612419124243965e-01
2.672612419124243965e-01
3.333333333333333703e-01
-2.357022603955158391e-01
1.543033499620919125e-01
-8.908708063747479422e-02
3.984095364447978738e-02
-1.666666666666666852e-01
1.781741612749495884e-01
-1.543033499620919125e-01
1.126872339638022164e-01
-6.299407883487120885e-02
6.299407883487120885e-02
-8.908708063747479422e-02
9.759000729485332870e-02
-8.908708063747479422e-02
6.299407883487120885e-02
-1.666666666666666852e-01
1.781741612749495884e-01
-1.543033499620919125e-01
1.126872339638022164e-01
-6.299407883487120885e-02
1.259881576697424177e-01
-1.781741612749495884e-01
1.951800145897066574e-01
-1.781741612749495884e-01
1.259881576697424177e-01
-6.299407883487120885e-02
1.126872339638022164e-01
-1.543033499620919125e-01
1.781741612749495884e-01
-1.666666666666666852e-01
6.299407883487120885e-02
-8.908708063747479422e-02
9.759000729485332870e-02
-8.908708063747479422e-02
6.299407883487120885e-02
-6.299407883487120885e-02
1.126872339638022164e-01
-1.543033499620919125e-01
1.781741612749495884e-01
-1.666666666666666852e-01
3.984095364447978738e-02
-8.908708063747479422e-02
1.543033499620919125e-01
-2.357022603955158391e-01
3.333333333333333703e-01
9.759000729485332870e-02
-2.182178902359923900e-01
3.779644730092272531e-01
-1.195228609334393621e-01
1.951800145897066574e-01
-2.182178902359923900e-01
9.759000729485332870e-02
-1.195228609334393621e-01
9.759000729485332870e-02
-1.195228609334393621e-01
1.951800145897066574e-01
-2.182178902359923900e-01
1.951800145897066574e-01
-2.390457218668787243e-01
1.951800145897066574e-01
-2.182178902359923900e-01
1.951800145897066574e-01
-1.195228609334393621e-01
9.759000729485332870e-02
-1.195228609334393621e-01
9.759000729485332870e-02
-2.182178902359923900e-01
1.951800145897066574e-01
-1.195228609334393621e-01
3.779644730092272531e-01
-2.182178902359923900e-01
9.759000729485332870e-02
-1.195228609334393621e-01
2.070196678027062531e-01
-2.672612419124243965e-01
2.672612419124243965e-01
1.463850109422799861e-01
-1.690308509457033037e-01
1.195228609334393621e-01
0.000000000000000000e+00
-1.889822365046136265e-01
-1.091089451179961950e-01
6.900655593423542233e-02
0.000000000000000000e+00
-6.900655593423542233e-02
1.091089451179961950e-01
1.463850109422799861e-01
-1.690308509457033037e-01
1.195228609334393621e-01
0.000000000000000000e+00
-1.889822365046136265e-01
-2.182178902359923900e-01
1.380131118684708447e-01
0.000000000000000000e+00
-1.380131118684708447e-01
2.182178902359923900e-01
1.889822365046136265e-01
0.000000000000000000e+00
-1.195228609334393621e-01
1.690308509457033037e-01
-1.463850109422799861e-01
-1.091089451179961950e-01
6.900655593423542233e-02
0.000000000000000000e+00
-6.900655593423542233e-02
1.091089451179961950e-01
1.889822365046136265e-01
0.000000000000000000e+00
-1.195228609334393621e-01
1.690308509457033037e-01
-1.463850109422799861e-01
-2.672612419124243965e-01
2.672612419124243965e-01
-2.070196678027062531e-01
1.195228609334393621e-01
1.543033499620919125e-01
-2.182178902359923900e-01
2.390457218668787243e-01
-2.182178902359923900e-01
1.543033499620919125e-01
-1.725163898355885350e-01
1.336306209562121983e-01
-4.879500364742666435e-02
-4.879500364742666435e-02
1.336306209562121983e-01
-1.725163898355885350e-01
9.960238411119946844e-02
0.000000000000000000e+00
-5.976143046671968106e-02
7.968190728895957475e-02
-5.976143046671968106e-02
0.000000000000000000e+00
9.960238411119946844e-02
-1.725163898355885350e-01
1.336306209562121983e-01
-4.879500364742666435e-02
-4.879500364742666435e-02
1.336306209562121983e-01
-1.725163898355885350e-01
1.992047682223989369e-01
0.000000000000000000e+00
-1.195228609334393621e-01
1.593638145779191495e-01
-1.195228609334393621e-01
0.000000000000000000e+00
1.992047682223989369e-01
-1.725163898355885350e-01
1.336306209562121983e-01
-4.879500364742666435e-02
-4.879500364742666435e-02
1.336306209562121983e-01
-1.725163898355885350e-01
9.960238411119946844e-02
0.000000000000000000e+00
-5.976143046671968106e-02
7.968190728895957475e-02
-5.976143046671968106e-02
0.000000000000000000e+00
9.960238411119946844e-02
-1.725163898355885350e-01
1.336306209562121983e-01
-4.879500364742666435e-02
-4.879500364742666435e-02
1.336306209562121983e-01
-1.725163898355885350e-01
1.543033499620919125e-01
-2.182178902359923900e-01
2.390457218668787243e-01
-2.182178902359923900e-01
1.543033499620919125e-01
-2.108185106778919515e-01
2.357022603955158391e-01
-2.182178902359923900e-01
1.781741612749495884e-01
-1.259881576697424177e-01
6.900655593423542233e-02
1.825741858350553859e-01
-5.270462766947298788e-02
-4.454354031873739711e-02
1.091089451179961950e-01
-1.408590424547527531e-01
1.394433377556792697e-01
-1.035098339013531266e-01
-9.128709291752769295e-02
7.968190728895957475e-02
-4.454354031873739711e-02
0.000000000000000000e+00
4.454354031873739711e-02
-7.968190728895957475e-02
9.128709291752769295e-02
1.825741858350553859e-01
-5.270462766947298788e-02
-4.454354031873739711e-02
1.091089451179961950e-01
-1.408590424547527531e-01
1.394433377556792697e-01
-1.035098339013531266e-01
-1.825741858350553859e-01
1.593638145779191495e-01
-8.908708063747479422e-02
0.000000000000000000e+00
8.908708063747479422e-02
-1.593638145779191495e-01
1.825741858350553859e-01
1.035098339013531266e-01
-1.394433377556792697e-01
1.408590424547527531e-01
-1.091089451179961950e-01
4.454354031873739711e-02
5.270462766947298788e-02
-1.825741858350553859e-01
-9.128709291752769295e-02
7.968190728895957475e-02
-4.454354031873739711e-02
0.000000000000000000e+00
4.454354031873739711e-02
-7.968190728895957475e-02
9.128709291752769295e-02
1.035098339013531266e-01
-1.394433377556792697e-01
1.408590424547527531e-01
-1.091089451179961950e-01
4.454354031873739711e-02
5.270462766947298788e-02
-1.825741858350553859e-01
-6.900655593423542233e-02
1.259881576697424177e-01
-1.781741612749495884e-01
2.182178902359923900e-01
-2.357022603955158391e-01
2.108185106778919515e-01
3.984095364447978738e-02
-8.908708063747479422e-02
1.543033499620919125e-01
-2.357022603955158391e-01
3.333333333333333703e-01
-6.299407883487120885e-02
1.126872339638022164e-01
-1.543033499620919125e-01
1.781741612749495884e-01
-1.666666666666666852e-01
6.299407883487120885e-02
-8.908708063747479422e-02
9.759000729485332870e-02
-8.908708063747479422e-02
6.299407883487120885e-02
-6.299407883487120885e-02
1.126872339638022164e-01
-1.543033499620919125e-01
1.781741612749495884e-01
-1.666666666666666852e-01
1.259881576697424177e-01
-1.781741612749495884e-01
1.951800145897066574e-01
-1.781741612749495884e-01
1.259881576697424177e-01
-1.666666666666666852e-01
1.781741612749495884e-01
-1.543033499620919125e-01
1.126872339638022164e-01
-6.299407883487120885e-02
6.299407883487120885e-02
-8.908708063747479422e-02
9.759000729485332870e-02
-8.908708063747479422e-02
6.299407883487120885e-02
-1.666666666666666852e-01
1.781741612749495884e-01
-1.543033499620919125e-01
1.126872339638022164e-01
-6.299407883487120885e-02
3.333333333333333703e-01
-2.357022603955158391e-01
1.543033499620919125e-01
-8.908708063747479422e-02
3.984095364447978738e-02
-6.900655593423542233e-02
1.259881576697424177e-01
-1.781741612749495884e-01
2.182178902359923900e-01
-2.357022603955158391e-01
2.108185106778919515e-01
1.035098339013531266e-01
-1.394433377556792697e-01
1.408590424547527531e-01
-1.091089451179961950e-01
4.454354031873739711e-02
5.270462766947298788e-02
-1.825741858350553859e-01
-9.128709291752769295e-02
7.968190728895957475e-02
-4.454354031873739711e-02
0.000000000000000000e+00
4.454354031873739711e-02
-7.968190728895957475e-02
9.128709291752769295e-02
1.035098339013531266e-01
-1.394433377556792697e-01
1.408590424547527531e-01
-1.091089451179961950e-01
4.454354031873739711e-02
5.270462766947298788e-02
-1.825741858350553859e-01
-1.825741858350553859e-01
1.593638145779191495e-01
-8.908708063747479422e-02
0.000000000000000000e+00
8.908708063747479422e-02
-1.593638145779191495e-01
1.825741858350553859e-01
1.825741858350553859e-01
-5.270462766947298788e-02
-4.454354031873739711e-02
1.091089451179961950e-01
-1.408590424547527531e-01
1.394433377556792697e-01
-1.035098339013531266e-01
-9.128709291752769295e-02
7.968190728895957475e-02
-4.454354031873739711e-02
0.000000000000000000e+00
4.454354031873739711e-02
-7.968190728895957475e-02
9.128709291752769295e-02
1.825741858350553859e-01
-5.270462766947298788e-02
-4.454354031873739711e-02
1.091089451179961950e-01
-1.408590424547527531e-01
1.394433377556792697e-01
-1.035098339013531266e-01
-2.108185106778919515e-01
2.357022603955158391e-01
-2.182178902359923900e-01
1.781741612749495884e-01
-1.259881576697424177e-01
6.900655593423542233e-02
1.100963765126360683e-01
-1.651445647689540885e-01
1.973855084879306832e-01
-2.080625946441197749e-01
1.973855084879306832e-01
-1.651445647689540885e-01
1.100963765126360683e-01
-1.456438162508838230e-01
1.376204706407950784e-01
-9.362816758985388621e-02
3.289758474798844951e-02
3.289758474798844951e-02
-9.362816758985388621e-02
1.376204706407950784e-01
-1.456438162508838230e-01
9.709587750058923383e-02
-2.427396937514730846e-02
-2.774167928588263179e-02
5.895106848250059733e-02
-6.935419821470659163e-02
5.895106848250059733e-02
-2.774167928588263179e-02
-2.427396937514730846e-02
9.709587750058923383e-02
-1.456438162508838230e-01
1.376204706407950784e-01
-9.362816758985388621e-02
3.289758474798844951e-02
3.289758474798844951e-02
-9.362816758985388621e-02
1.376204706407950784e-01
-1.456438162508838230e-01
1.941917550011784677e-01
-4.854793875029461692e-02
-5.548335857176526359e-02
1.179021369650011947e-01
-1.387083964294131833e-01
1.179021369650011947e-01
-5.548335857176526359e-02
-4.854793875029461692e-02
1.941917550011784677e-01
-1.456438162508838230e-01
1.376204706407950784e-01
-9.362816758985388621e-02
3.289758474798844951e-02
3.289758474798844951e-02
-9.362816758985388621e-02
1.376204706407950784e-01
-1.456438162508838230e-01
9.709587750058923383e-02
-2.427396937514730846e-02
-2.774167928588263179e-02
5.895106848250059733e-02
-6.935419821470659163e-02
5.895106848250059733e-02
-2.774167928588263179e-02
-2.427396937514730846e-02
9.709587750058923383e-02
-1.456438162508838230e-01
1.376204706407950784e-01
-9.362816758985388621e-02
3.289758474798844951e-02
3.289758474798844951e-02
-9.362816758985388621e-02
1.376204706407950784e-01
-1.456438162508838230e-01
1.100963765126360683e-01
-1.651445647689540885e-01
1.973855084879306832e-01
-2.080625946441197749e-01
1.973855084879306832e-01
-1.651445647689540885e-01
1.100963765126360683e-01
1.825741858350553581e-01
-3.162277660168379412e-01
4.472135954999579277e-01
-3.162277660168379412e-01
3.651483716701107163e-01
-3.162277660168379412e-01
4.472135954999579277e-01
-3.162277660168379412e-01
1.825741858350553581e-01
1.825741858350553581e-01
-3.162277660168379412e-01
4.472135954999579277e-01
-3.162277660168379412e-01
3.651483716701107163e-01
-3.162277660168379412e-01
4.472135954999579277e-01
-3.162277660168379412e-01
1.825741858350553581e-01
0.000000000000000000e+00
-1.290994448735805489e-01
1.290994448735805489e-01
2.236067977499789639e-01
0.000000000000000000e+00
-2.236067977499789639e-01
-3.162277660168379412e-01
3.162277660168379412e-01
0.000000000000000000e+00
2.236067977499789639e-01
-2.236067977499789639e-01
-2.581988897471610978e-01
0.000000000000000000e+00
2.581988897471610978e-01
2.236067977499789639e-01
-2.236067977499789639e-01
0.000000000000000000e+00
-3.162277660168379412e-01
3.162277660168379412e-01
2.236067977499789639e-01
0.000000000000000000e+00
-2.236067977499789639e-01
-1.290994448735805489e-01
1.290994448735805489e-01
0.000000000000000000e+00
0.000000000000000000e+00
0.000000000000000000e+00
0.000000000000000000e+00
1.414213562373095034e-01
-9.999999999999999167e-02
5.773502691896257449e-02
-1.732050807568877304e-01
1.999999999999999833e-01
-1.732050807568877304e-01
1.414213562373095034e-01
-2.449489742783177992e-01
3.464101615137754608e-01
0.000000000000000000e+00
0.000000000000000000e+00
-2.449489742783177992e-01
1.732050807568877304e-01
-9.999999999999999167e-02
1.999999999999999833e-01
-2.309401076758502980e-01
1.999999999999999833e-01
-9.999999999999999167e-02
1.732050807568877304e-01
-2.449489742783177992e-01
0.000000000000000000e+00
0.000000000000000000e+00
3.464101615137754608e-01
-2.449489742783177992e-01
1.414213562373095034e-01
-1.732050807568877304e-01
1.999999999999999833e-01
-1.732050807568877304e-01
5.773502691896257449e-02
-9.999999999999999167e-02
1.414213562373095034e-01
0.000000000000000000e+00
0.000000000000000000e+00
0.000000000000000000e+00
0.000000000000000000e+00
0.000000000000000000e+00
0.000000000000000000e+00
5.773502691896257449e-02
-9.999999999999999167e-02
1.414213562373095034e-01
-1.732050807568877304e-01
1.999999999999999833e-01
-1.732050807568877304e-01
3.464101615137754608e-01
-2.449489742783177992e-01
1.414213562373095034e-01
0.000000000000000000e+00
0.000000000000000000e+00
-9.999999999999999167e-02
1.732050807568877304e-01
-2.449489742783177992e-01
1.999999999999999833e-01
-2.309401076758502980e-01
1.999999999999999833e-01
-2.449489742783177992e-01
1.732050807568877304e-01
-9.999999999999999167e-02
0.000000000000000000e+00
0.000000000000000000e+00
1.414213562373095034e-01
-2.449489742783177992e-01
3.464101615137754608e-01
-1.732050807568877304e-01
1.999999999999999833e-01
-1.732050807568877304e-01
1.414213562373095034e-01
-9.999999999999999167e-02
5.773502691896257449e-02
0.000000000000000000e+00
0.000000000000000000e+00
0.000000000000000000e+00
0.000000000000000000e+00
0.000000000000000000e+00
0.000000000000000000e+00
0.000000000000000000e+00
0.000000000000000000e+00
-8.164965809277259512e-02
9.999999999999999167e-02
-9.999999999999999167e-02
8.164965809277259512e-02
1.999999999999999833e-01
-9.999999999999999167e-02
0.000000000000000000e+00
9.999999999999999167e-02
-1.999999999999999833e-01
-1.999999999999999833e-01
2.449489742783177992e-01
-2.449489742783177992e-01
1.999999999999999833e-01
0.000000000000000000e+00
0.000000000000000000e+00
0.000000000000000000e+00
1.414213562373095034e-01
-1.732050807568877304e-01
1.732050807568877304e-01
-1.414213562373095034e-01
-2.309401076758502980e-01
1.154700538379251490e-01
0.000000000000000000e+00
-1.154700538379251490e-01
2.309401076758502980e-01
1.414213562373095034e-01
-1.732050807568877304e-01
1.732050807568877304e-01
-1.414213562373095034e-01
0.000000000000000000e+00
0.000000000000000000e+00
0.000000000000000000e+00
-1.999999999999999833e-01
2.449489742783177992e-01
-2.449489742783177992e-01
1.999999999999999833e-01
1.999999999999999833e-01
-9.999999999999999167e-02
0.000000000000000000e+00
9.999999999999999167e-02
-1.999999999999999833e-01
-8.164965809277259512e-02
9.999999999999999167e-02
-9.999999999999999167e-02
8.164965809277259512e-02
0.000000000000000000e+00
0.000000000000000000e+00
0.000000000000000000e+00
0.000000000000000000e+00
0.000000000000000000e+00
0.000000000000000000e+00
0.000000000000000000e+00
0.000000000000000000e+00
0.000000000000000000e+00
0.000000000000000000e+00
0.000000000000000000e+00
0.000000000000000000e+00
1.195228609334393760e-01
-9.759000729485332870e-02
7.559289460184545617e-02
-5.345224838248488486e-02
3.086066999241838388e-02
-1.195228609334393760e-01
1.511857892036909123e-01
-1.603567451474546268e-01
1.511857892036909123e-01
-1.195228609334393760e-01
7.559289460184545617e-02
-1.309307341415954229e-01
1.851640199545102616e-01
-2.390457218668787520e-01
2.927700218845599167e-01
0.000000000000000000e+00
0.000000000000000000e+00
0.000000000000000000e+00
0.000000000000000000e+00
-2.070196678027062531e-01
1.690308509457033315e-01
-1.309307341415954229e-01
9.258200997725513082e-02
-5.345224838248488486e-02
1.380131118684708724e-01
-1.745743121887939342e-01
1.851640199545102616e-01
-1.745743121887939342e-01
1.380131118684708724e-01
-5.345224838248488486e-02
9.258200997725513082e-02
-1.309307341415954229e-01
1.690308509457033315e-01
-2.070196678027062531e-01
0.000000000000000000e+00
0.000000000000000000e+00
0.000000000000000000e+00
0.000000000000000000e+00
2.927700218845599167e-01
-2.390457218668787520e-01
1.851640199545102616e-01
-1.309307341415954229e-01
7.559289460184545617e-02
-1.195228609334393760e-01
1.511857892036909123e-01
-1.603567451474546268e-01
1.511857892036909123e-01
-1.195228609334393760e-01
3.086066999241838388e-02
-5.345224838248488486e-02
7.559289460184545617e-02
-9.759000729485332870e-02
1.195228609334393760e-01
0.000000000000000000e+00
0.000000000000000000e+00
0.000000000000000000e+00
0.000000000000000000e+00
0.000000000000000000e+00
0.000000000000000000e+00
0.000000000000000000e+00
0.000000000000000000e+00
0.000000000000000000e+00
0.000000000000000000e+00
0.000000000000000000e+00
0.000000000000000000e+00
0.000000000000000000e+00
0.000000000000000000e+00
3.086066999241838388e-02
-5.345224838248488486e-02
7.559289460184545617e-02
-9.759000729485332870e-02
1.195228609334393760e-01
-1.195228609334393760e-01
1.511857892036909123e-01
-1.603567451474546268e-01
1.511857892036909123e-01
-1.195228609334393760e-01
2.927700218845599167e-01
-2.390457218668787520e-01
1.851640199545102616e-01
-1.309307341415954229e-01
7.559289460184545617e-02
0.000000000000000000e+00
0.000000000000000000e+00
0.000000000000000000e+00
0.000000000000000000e+00
-5.345224838248488486e-02
9.258200997725513082e-02
-1.309307341415954229e-01
1.690308509457033315e-01
-2.070196678027062531e-01
1.380131118684708724e-01
-1.745743121887939342e-01
1.851640199545102616e-01
-1.745743121887939342e-01
1.380131118684708724e-01
-2.070196678027062531e-01
1.690308509457033315e-01
-1.309307341415954229e-01
9.258200997725513082e-02
-5.345224838248488486e-02
0.000000000000000000e+00
0.000000000000000000e+00
0.000000000000000000e+00
0.000000000000000000e+00
7.559289460184545617e-02
-1.309307341415954229e-01
1.851640199545102616e-01
-2.390457218668787520e-01
2.927700218845599167e-01
-1.195228609334393760e-01
1.511857892036909123e-01
-1.603567451474546268e-01
1.511857892036909123e-01
-1.195228609334393760e-01
1.195228609334393760e-01
-9.759000729485332870e-02
7.559289460184545617e-02
-5.345224838248488486e-02
3.086066999241838388e-02
0.000000000000000000e+00
0.000000000000000000e+00
0.000000000000000000e+00
0.000000000000000000e+00
0.000000000000000000e+00
0.000000000000000000e+00
0.000000000000000000e+00
0.000000000000000000e+00
0.000000000000000000e+00
0.000000000000000000e+00
0.000000000000000000e+00
0.000000000000000000e+00
0.000000000000000000e+00
0.000000000000000000e+00
0.000000000000000000e+00
0.000000000000000000e+00
-5.976143046671968800e-02
7.715167498104594235e-02
-8.451542547285166573e-02
8.451542547285166573e-02
-7.715167498104594235e-02
5.976143046671968800e-02
1.792842914001590293e-01
-1.195228609334393760e-01
5.976143046671968800e-02
0.000000000000000000e+00
-5.976143046671968800e-02
1.195228609334393760e-01
-1.792842914001590293e-01
-1.463850109422799584e-01
1.889822365046135710e-01
-2.070196678027062531e-01
2.070196678027062531e-01
-1.889822365046135710e-01
1.463850109422799584e-01
0.000000000000000000e+00
0.000000000000000000e+00
0.000000000000000000e+00
0.000000000000000000e+00
0.000000000000000000e+00
1.035098339013531266e-01
-1.336306209562121705e-01
1.463850109422799584e-01
-1.463850109422799584e-01
1.336306209562121705e-01
-1.035098339013531266e-01
-2.070196678027062531e-01
1.380131118684708724e-01
-6.900655593423543621e-02
0.000000000000000000e+00
6.900655593423543621e-02
-1.380131118684708724e-01
2.070196678027062531e-01
1.035098339013531266e-01
-1.336306209562121705e-01
1.463850109422799584e-01
-1.463850109422799584e-01
1.336306209562121705e-01
-1.035098339013531266e-01
0.000000000000000000e+00
0.000000000000000000e+00
0.000000000000000000e+00
0.000000000000000000e+00
0.000000000000000000e+00
-1.463850109422799584e-01
1.889822365046135710e-01
-2.070196678027062531e-01
2.070196678027062531e-01
-1.889822365046135710e-01
1.463850109422799584e-01
1.792842914001590293e-01
-1.195228609334393760e-01
5.976143046671968800e-02
0.000000000000000000e+00
-5.976143046671968800e-02
1.195228609334393760e-01
-1.792842914001590293e-01
-5.976143046671968800e-02
7.715167498104594235e-02
-8.451542547285166573e-02
8.451542547285166573e-02
-7.715167498104594235e-02
5.976143046671968800e-02
0.000000000000000000e+00
0.000000000000000000e+00
0.000000000000000000e+00
0.000000000000000000e+00
0.000000000000000000e+00
0.000000000000000000e+00
0.000000000000000000e+00
0.000000000000000000e+00
0.000000000000000000e+00
0.000000000000000000e+00
0.000000000000000000e+00
0.000000000000000000e+00
0.000000000000000000e+00
0.000000000000000000e+00
0.000000000000000000e+00
0.000000000000000000e+00
0.000000000000000000e+00
0.000000000000000000e+00
0.000000000000000000e+00
0.000000000000000000e+00
1.054092553389459758e-01
-9.128709291752767907e-02
7.715167498104594235e-02
-6.299407883487119497e-02
4.879500364742666435e-02
-3.450327796711771811e-02
1.992047682223989369e-02
-9.128709291752767907e-02
1.195228609334393760e-01
-1.336306209562121705e-01
1.380131118684708724e-01
-1.336306209562121705e-01
1.195228609334393760e-01
-9.128709291752767907e-02
4.879500364742666435e-02
-8.451542547285166573e-02
1.195228609334393760e-01
-1.543033499620918847e-01
1.889822365046135710e-01
-2.236067977499789639e-01
2.581988897471610978e-01
0.000000000000000000e+00
0.000000000000000000e+00
0.000000000000000000e+00
0.000000000000000000e+00
0.000000000000000000e+00
0.000000000000000000e+00
-1.825741858350553581e-01
1.581138830084189706e-01
-1.336306209562121705e-01
1.091089451179961672e-01
-8.451542547285166573e-02
5.976143046671968800e-02
-3.450327796711771811e-02
1.054092553389459758e-01
-1.380131118684708724e-01
1.543033499620918847e-01
-1.593638145779191495e-01
1.543033499620918847e-01
-1.380131118684708724e-01
1.054092553389459758e-01
-3.450327796711771811e-02
5.976143046671968800e-02
-8.451542547285166573e-02
1.091089451179961672e-01
-1.336306209562121705e-01
1.581138830084189706e-01
-1.825741858350553581e-01
0.000000000000000000e+00
0.000000000000000000e+00
0.000000000000000000e+00
0.000000000000000000e+00
0.000000000000000000e+00
0.000000000000000000e+00
2.581988897471610978e-01
-2.236067977499789639e-01
1.889822365046135710e-01
-1.543033499620918847e-01
1.195228609334393760e-01
-8.451542547285166573e-02
4.879500364742666435e-02
-9.128709291752767907e-02
1.195228609334393760e-01
-1.336306209562121705e-01
1.380131118684708724e-01
-1.336306209562121705e-01
1.195228609334393760e-01
-9.128709291752767907e-02
1.992047682223989369e-02
-3.450327796711771811e-02
4.879500364742666435e-02
-6.299407883487119497e-02
7.715167498104594235e-02
-9.128709291752767907e-02
1.054092553389459758e-01
0.000000000000000000e+00
0.000000000000000000e+00
0.000000000000000000e+00
0.000000000000000000e+00
0.000000000000000000e+00
0.000000000000000000e+00
0.000000000000000000e+00
0.000000000000000000e+00
0.000000000000000000e+00
0.000000000000000000e+00
0.000000000000000000e+00
0.000000000000000000e+00
0.000000000000000000e+00
0.000000000000000000e+00
0.000000000000000000e+00
0.000000000000000000e+00
0.000000000000000000e+00
0.000000000000000000e+00
0.000000000000000000e+00
0.000000000000000000e+00
0.000000000000000000e+00
0.000000000000000000e+00
1.992047682223989369e-02
-3.450327796711771811e-02
4.879500364742666435e-02
-6.299407883487119497e-02
7.715167498104594235e-02
-9.128709291752767907e-02
1.054092553389459758e-01
-9.128709291752767907e-02
1.195228609334393760e-01
-1.336306209562121705e-01
1.380131118684708724e-01
-1.336306209562121705e-01
1.195228609334393760e-01
-9.128709291752767907e-02
2.581988897471610978e-01
-2.236067977499789639e-01
1.889822365046135710e-01
-1.543033499620918847e-01
1.195228609334393760e-01
-8.451542547285166573e-02
4.879500364742666435e-02
0.000000000000000000e+00
0.000000000000000000e+00
0.000000000000000000e+00
0.000000000000000000e+00
0.000000000000000000e+00
0.000000000000000000e+00
-3.450327796711771811e-02
5.976143046671968800e-02
-8.451542547285166573e-02
1.091089451179961672e-01
-1.336306209562121705e-01
1.581138830084189706e-01
-1.825741858350553581e-01
1.054092553389459758e-01
-1.380131118684708724e-01
1.543033499620918847e-01
-1.593638145779191495e-01
1.543033499620918847e-01
-1.380131118684708724e-01
1.054092553389459758e-01
-1.825741858350553581e-01
1.581138830084189706e-01
-1.336306209562121705e-01
1.091089451179961672e-01
-8.451542547285166573e-02
5.976143046671968800e-02
-3.450327796711771811e-02
0.000000000000000000e+00
0.000000000000000000e+00
0.000000000000000000e+00
0.000000000000000000e+00
0.000000000000000000e+00
0.000000000000000000e+00
4.879500364742666435e-02
-8.451542547285166573e-02
1.195228609334393760e-01
-1.543033499620918847e-01
1.889822365046135710e-01
-2.236067977499789639e-01
2.581988897471610978e-01
-9.128709291752767907e-02
1.195228609334393760e-01
-1.336306209562121705e-01
1.380131118684708724e-01
-1.336306209562121705e-01
1.195228609334393760e-01
-9.128709291752767907e-02
1.054092553389459758e-01
-9.128709291752767907e-02
7.715167498104594235e-02
-6.299407883487119497e-02
4.879500364742666435e-02
-3.450327796711771811e-02
1.992047682223989369e-02
0.000000000000000000e+00
0.000000000000000000e+00
0.000000000000000000e+00
0.000000000000000000e+00
0.000000000000000000e+00
0.000000000000000000e+00
0.000000000000000000e+00
0.000000000000000000e+00
0.000000000000000000e+00
0.000000000000000000e+00
0.000000000000000000e+00
0.000000000000000000e+00
0.000000000000000000e+00
0.000000000000000000e+00
0.000000000000000000e+00
0.000000000000000000e+00
0.000000000000000000e+00
0.000000000000000000e+00
0.000000000000000000e+00
0.000000000000000000e+00
0.000000000000000000e+00
0.000000000000000000e+00
0.000000000000000000e+00
0.000000000000000000e+00
-4.714045207910316782e-02
6.236095644623235179e-02
-7.071067811865475172e-02
7.453559924999299258e-02
-7.453559924999299258e-02
7.071067811865475172e-02
-6.236095644623235179e-02
4.714045207910316782e-02
1.632993161855451902e-01
-1.224744871391588996e-01
8.164965809277259512e-02
-4.082482904638629756e-02
0.000000000000000000e+00
4.082482904638629756e-02
-8.164965809277259512e-02
1.224744871391588996e-01
-1.632993161855451902e-01
-1.154700538379251490e-01
1.527525231651946647e-01
-1.732050807568877304e-01
1.825741858350553581e-01
-1.825741858350553581e-01
1.732050807568877304e-01
-1.527525231651946647e-01
1.154700538379251490e-01
0.000000000000000000e+00
0.000000000000000000e+00
0.000000000000000000e+00
0.000000000000000000e+00
0.000000000000000000e+00
0.000000000000000000e+00
0.000000000000000000e+00
8.164965809277259512e-02
-1.080123449734643332e-01
1.224744871391588996e-01
-1.290994448735805489e-01
1.290994448735805489e-01
-1.224744871391588996e-01
1.080123449734643332e-01
-8.164965809277259512e-02
-1.885618083164126713e-01
1.414213562373095034e-01
-9.428090415820633563e-02
4.714045207910316782e-02
0.000000000000000000e+00
-4.714045207910316782e-02
9.428090415820633563e-02
-1.414213562373095034e-01
1.885618083164126713e-01
8.164965809277259512e-02
-1.080123449734643332e-01
1.224744871391588996e-01
-1.290994448735805489e-01
1.290994448735805489e-01
-1.224744871391588996e-01
1.080123449734643332e-01
-8.164965809277259512e-02
0.000000000000000000e+00
0.000000000000000000e+00
0.000000000000000000e+00
0.000000000000000000e+00
0.000000000000000000e+00
0.000000000000000000e+00
0.000000000000000000e+00
-1.154700538379251490e-01
1.527525231651946647e-01
-1.732050807568877304e-01
1.825741858350553581e-01
-1.825741858350553581e-01
1.732050807568877304e-01
-1.527525231651946647e-01
1.154700538379251490e-01
1.632993161855451902e-01
-1.224744871391588996e-01
8.164965809277259512e-02
-4.082482904638629756e-02
0.000000000000000000e+00
4.082482904638629756e-02
-8.164965809277259512e-02
1.224744871391588996e-01
-1.632993161855451902e-01
-4.714045207910316782e-02
6.236095644623235179e-02
-7.071067811865475172e-02
7.453559924999299258e-02
-7.453559924999299258e-02
7.071067811865475172e-02
-6.236095644623235179e-02
4.714045207910316782e-02
0.000000000000000000e+00
0.000000000000000000e+00
0.000000000000000000e+00
0.000000000000000000e+00
0.000000000000000000e+00
0.000000000000000000e+00
0.000000000000000000e+00
0.000000000000000000e+00
0.000000000000000000e+00
0.000000000000000000e+00
0.000000000000000000e+00
0.000000000000000000e+00
0.000000000000000000e+00
-2.581988897471611533e-01
3.162277660168379412e-01
-3.162277660168379412e-01
2.581988897471611533e-01
3.651483716701107718e-01
-1.825741858350553859e-01
0.000000000000000000e+00
1.825741858350553859e-01
-3.651483716701107718e-01
-2.581988897471611533e-01
3.162277660168379412e-01
-3.162277660168379412e-01
2.581988897471611533e-01
-2.581988897471611533e-01
2.236067977499789916e-01
2.236067977499789916e-01
-1.290994448735805766e-01
-2.581988897471611533e-01
-1.290994448735805766e-01
1.825741858350553859e-01
1.825741858350553859e-01
3.651483716701107718e-01
-1.290994448735805766e-01
-1.290994448735805766e-01
0.000000000000000000e+00
0.000000000000000000e+00
0.000000000000000000e+00
1.290994448735805766e-01
1.290994448735805766e-01
-3.651483716701107718e-01
-1.825741858350553859e-01
-1.825741858350553859e-01
1.290994448735805766e-01
2.581988897471611533e-01
1.290994448735805766e-01
-2.236067977499789916e-01
-2.236067977499789916e-01
2.581988897471611533e-01
0.000000000000000000e+00
2.108185106778919515e-01
-1.490711984999859852e-01
-1.825741858350553859e-01
-1.290994448735805766e-01
2.236067977499789916e-01
2.236067977499789916e-01
0.000000000000000000e+00
-2.236067977499789916e-01
-1.825741858350553859e-01
1.054092553389459758e-01
1.490711984999859852e-01
-2.981423969999719703e-01
2.108185106778919515e-01
1.054092553389459758e-01
7.453559924999299258e-02
-1.290994448735805766e-01
0.000000000000000000e+00
0.000000000000000000e+00
0.000000000000000000e+00
-1.290994448735805766e-01
7.453559924999299258e-02
1.054092553389459758e-01
2.108185106778919515e-01
-2.981423969999719703e-01
1.490711984999859852e-01
1.054092553389459758e-01
-1.825741858350553859e-01
-2.236067977499789916e-01
0.000000000000000000e+00
2.236067977499789916e-01
2.236067977499789916e-01
-1.290994448735805766e-01
-1.825741858350553859e-01
-1.490711984999859852e-01
2.108185106778919515e-01
0.000000000000000000e+00
0.000000000000000000e+00
0.000000000000000000e+00
-2.182178902359923900e-01
1.259881576697424177e-01
-5.634361698190110818e-02
2.182178902359923900e-01
-1.951800145897066574e-01
1.195228609334393621e-01
-1.690308509457033037e-01
2.070196678027062531e-01
-1.690308509457033037e-01
9.759000729485332870e-02
-1.593638145779191495e-01
1.781741612749495884e-01
3.086066999241838249e-01
-1.781741612749495884e-01
7.968190728895957475e-02
-1.259881576697424177e-01
1.126872339638022164e-01
-6.900655593423542233e-02
0.000000000000000000e+00
0.000000000000000000e+00
0.000000000000000000e+00
6.900655593423542233e-02
-1.126872339638022164e-01
1.259881576697424177e-01
-7.968190728895957475e-02
1.781741612749495884e-01
-3.086066999241838249e-01
-1.781741612749495884e-01
1.593638145779191495e-01
-9.759000729485332870e-02
1.690308509457033037e-01
-2.070196678027062531e-01
1.690308509457033037e-01
-1.195228609334393621e-01
1.951800145897066574e-01
-2.182178902359923900e-01
5.634361698190110818e-02
-1.259881576697424177e-01
2.182178902359923900e-01
0.000000000000000000e+00
0.000000000000000000e+00
-2.581988897471611533e-01
3.162277660168379412e-01
-3.162277660168379412e-01
2.581988897471611533e-01
3.651483716701107718e-01
-1.825741858350553859e-01
0.000000000000000000e+00
1.825741858350553859e-01
-3.651483716701107718e-01
-2.581988897471611533e-01
3.162277660168379412e-01
-3.162277660168379412e-01
2.581988897471611533e-01
0.000000000000000000e+00
1.490711984999859852e-01
-2.108185106778919515e-01
-2.236067977499789916e-01
1.290994448735805766e-01
1.825741858350553859e-01
2.236067977499789916e-01
0.000000000000000000e+00
-2.236067977499789916e-01
-1.490711984999859852e-01
-1.054092553389459758e-01
1.825741858350553859e-01
-2.108185106778919515e-01
2.981423969999719703e-01
1.290994448735805766e-01
-7.453559924999299258e-02
-1.054092553389459758e-01
0.000000000000000000e+00
0.000000000000000000e+00
0.000000000000000000e+00
-1.054092553389459758e-01
-7.453559924999299258e-02
1.290994448735805766e-01
2.981423969999719703e-01
-2.108185106778919515e-01
1.825741858350553859e-01
-1.054092553389459758e-01
-1.490711984999859852e-01
-2.236067977499789916e-01
0.000000000000000000e+00
2.236067977499789916e-01
1.825741858350553859e-01
1.290994448735805766e-01
-2.236067977499789916e-01
-2.108185106778919515e-01
1.490711984999859852e-01
0.000000000000000000e+00
0.000000000000000000e+00
0.000000000000000000e+00
-1.380131118684708447e-01
1.690308509457033037e-01
-1.380131118684708447e-01
2.070196678027062531e-01
-8.451542547285165186e-02
-8.451542547285165186e-02
2.070196678027062531e-01
-1.690308509457033037e-01
-8.451542547285165186e-02
1.690308509457033037e-01
-8.451542547285165186e-02
-1.690308509457033037e-01
1.690308509457033037e-01
-6.900655593423542233e-02
-6.900655593423542233e-02
1.690308509457033037e-01
1.951800145897066574e-01
-2.390457218668787243e-01
1.951800145897066574e-01
-1.195228609334393621e-01
4.879500364742666435e-02
4.879500364742666435e-02
-1.195228609334393621e-01
0.000000000000000000e+00
0.000000000000000000e+00
0.000000000000000000e+00
0.000000000000000000e+00
0.000000000000000000e+00
1.195228609334393621e-01
-4.879500364742666435e-02
-4.879500364742666435e-02
1.195228609334393621e-01
-1.951800145897066574e-01
2.390457218668787243e-01
-1.951800145897066574e-01
-1.690308509457033037e-01
6.900655593423542233e-02
6.900655593423542233e-02
-1.690308509457033037e-01
1.690308509457033037e-01
8.451542547285165186e-02
-1.690308509457033037e-01
8.451542547285165186e-02
1.690308509457033037e-01
-2.070196678027062531e-01
8.451542547285165186e-02
8.451542547285165186e-02
-2.070196678027062531e-01
1.380131118684708447e-01
-1.690308509457033037e-01
1.380131118684708447e-01
0.000000000000000000e+00
0.000000000000000000e+00
0.000000000000000000e+00
0.000000000000000000e+00
0.000000000000000000e+00
1.543033499620919125e-01
-1.543033499620919125e-01
1.195228609334393621e-01
-6.900655593423542233e-02
-1.889822365046136265e-01
0.000000000000000000e+00
1.195228609334393621e-01
-1.690308509457033037e-01
1.463850109422799861e-01
1.889822365046136265e-01
-1.195228609334393621e-01
0.000000000000000000e+00
1.195228609334393621e-01
-1.889822365046136265e-01
-1.195228609334393621e-01
1.380131118684708447e-01
-9.759000729485332870e-02
0.000000000000000000e+00
1.543033499620919125e-01
-2.182178902359923900e-01
2.182178902359923900e-01
-1.690308509457033037e-01
9.759000729485332870e-02
1.091089451179961950e-01
0.000000000000000000e+00
-6.900655593423542233e-02
9.759000729485332870e-02
-8.451542547285165186e-02
0.000000000000000000e+00
0.000000000000000000e+00
0.000000000000000000e+00
0.000000000000000000e+00
0.000000000000000000e+00
-8.451542547285165186e-02
9.759000729485332870e-02
-6.900655593423542233e-02
0.000000000000000000e+00
1.091089451179961950e-01
9.759000729485332870e-02
-1.690308509457033037e-01
2.182178902359923900e-01
-2.182178902359923900e-01
1.543033499620919125e-01
0.000000000000000000e+00
-9.759000729485332870e-02
1.380131118684708447e-01
-1.195228609334393621e-01
-1.889822365046136265e-01
1.195228609334393621e-01
0.000000000000000000e+00
-1.195228609334393621e-01
1.889822365046136265e-01
1.463850109422799861e-01
-1.690308509457033037e-01
1.195228609334393621e-01
0.000000000000000000e+00
-1.889822365046136265e-01
-6.900655593423542233e-02
1.195228609334393621e-01
-1.543033499620919125e-01
1.543033499620919125e-01
0.000000000000000000e+00
0.000000000000000000e+00
0.000000000000000000e+00
0.000000000000000000e+00
0.000000000000000000e+00
0.000000000000000000e+00
0.000000000000000000e+00
-1.924500897298752899e-01
1.360827634879543668e-01
-8.908708063747479422e-02
5.143444998736397544e-02
-2.300218531141180744e-02
1.666666666666666852e-01
-1.781741612749495884e-01
1.543033499620919125e-01
-1.126872339638022164e-01
6.299407883487120885e-02
-1.091089451179961950e-01
1.543033499620919125e-01
-1.690308509457033037e-01
1.543033499620919125e-01
-1.091089451179961950e-01
5.143444998736397544e-02
-9.200874124564722978e-02
1.259881576697424177e-01
-1.454785934906615841e-01
1.360827634879543668e-01
2.721655269759087337e-01
-1.924500897298752899e-01
1.259881576697424177e-01
-7.273929674533079204e-02
3.253000243161777161e-02
-9.622504486493764497e-02
1.028688999747279509e-01
-8.908708063747479422e-02
6.506000486323554322e-02
-3.636964837266539602e-02
0.000000000000000000e+00
0.000000000000000000e+00
0.000000000000000000e+00
0.000000000000000000e+00
0.000000000000000000e+00
3.636964837266539602e-02
-6.506000486323554322e-02
8.908708063747479422e-02
-1.028688999747279509e-01
9.622504486493764497e-02
-3.253000243161777161e-02
7.273929674533079204e-02
-1.259881576697424177e-01
1.924500897298752899e-01
-2.721655269759087337e-01
-1.360827634879543668e-01
1.454785934906615841e-01
-1.259881576697424177e-01
9.200874124564722978e-02
-5.143444998736397544e-02
1.091089451179961950e-01
-1.543033499620919125e-01
1.690308509457033037e-01
-1.543033499620919125e-01
1.091089451179961950e-01
-6.299407883487120885e-02
1.126872339638022164e-01
-1.543033499620919125e-01
1.781741612749495884e-01
-1.666666666666666852e-01
2.300218531141180744e-02
-5.143444998736397544e-02
8.908708063747479422e-02
-1.360827634879543668e-01
1.924500897298752899e-01
0.000000000000000000e+00
0.000000000000000000e+00
0.000000000000000000e+00
0.000000000000000000e+00
0.000000000000000000e+00
0.000000000000000000e+00
-5.634361698190110818e-02
1.259881576697424177e-01
-2.182178902359923900e-01
1.195228609334393621e-01
-1.951800145897066574e-01
2.182178902359923900e-01
-1.690308509457033037e-01
2.070196678027062531e-01
-1.690308509457033037e-01
1.781741612749495884e-01
-1.593638145779191495e-01
9.759000729485332870e-02
7.968190728895957475e-02
-1.781741612749495884e-01
3.086066999241838249e-01
-6.900655593423542233e-02
1.126872339638022164e-01
-1.259881576697424177e-01
0.000000000000000000e+00
0.000000000000000000e+00
0.000000000000000000e+00
1.259881576697424177e-01
-1.126872339638022164e-01
6.900655593423542233e-02
